Network Configuration:
	Input Layer Activations: 1681
	1st Hidden Layer Activations: 100
	1st Hidden Layer Activations: 50
	Output Layer Activations: 3

Maximum Calculated Error: 0.0035808409674845903
Lambda: 0.3
Random Weight Range: -1.5 to 1.5

-0.147020076786613 -1.0351677370266517 -1.012816006352196 0.8099584631978283 -1.4568759344623898 -0.8071467982662329 1.140056219411535 -0.5027671815869487 -0.6823055706210566 -1.3823516609255466 -0.3823727839207612 -1.163903004462298 -1.157342526712322 -1.3837627697162354 0.6901841335635952 -1.1283321575435101 -0.9227789028751817 -0.8952680920529875 -1.2568672059341135 -1.0928850764440994 0.1455267799521678 0.5917695270948354 -1.4346165608587433 1.0870855642747554 -0.10646555293695 -0.33631957813129276 -1.1666961680898058 0.402539912700274 0.8834270074268401 0.24000404765969935 1.228723648453372 -0.7270374757287205 1.4747249985597959 0.677608205734302 0.5706332961373224 -1.1090440166913402 -0.7258689191587739 -0.6226048275297977 1.2342178377920776 1.030211096147239 -0.7531713596624408 -0.11166688620994057 -0.36707724001971603 0.7099816387168306 -0.14758112224041683 -0.38623151249850723 -0.9785694653058649 1.2635747088145788 0.8711073550405869 1.0151955804349662 0.7658029593811657 -0.8454736819075315 0.6903772683072323 0.5510656596625157 1.3565484694917043 -0.15854930162921352 -0.9238087032155158 -0.2622486862330969 -0.3254132861353647 -1.133526229659267 -0.34419265815116795 -0.6349379831312363 -0.7555345824705247 0.028953251906709214 -1.2627782893564403 -0.9429346610892134 0.6404633530307519 -0.46789019326285747 -1.0607047590865941 0.6693245410038556 1.2178783382193759 -0.5748303048586868 0.4047123023771342 -0.8147342341125269 1.0059446402524257 0.018950601744621706 -0.5239688945951638 -0.9134690377809817 1.222730914347727 0.4998783721774562 0.6798577445426209 0.6345369421925692 -0.27632560057294964 1.3966247973395096 -1.2055528963907258 -1.3740710643878264 0.12696708252377042 -0.004189427212643485 0.36034898586769165 0.21023322631660535 -1.0218180469309839 -0.2519481076709639 0.79842252592728 -0.2890630090038725 0.20060954167250186 0.9752923794644817 0.6718370724160801 -1.0328994823403395 0.25627658131794795 -0.7893587382813029 
1.3674893887280013 -1.3488953278524658 0.9048587620923864 -0.9190890080423031 -1.187730629864244 0.33389886648733713 1.3525429811704879 -0.6002987207287235 -1.2795953422912993 0.7980395955634113 0.07151822062660605 0.3807294378762838 -0.114038092702811 1.0870292749919834 0.6409029109607804 0.48009851772789075 -0.14677999123877392 0.7719640189099358 0.818366956751371 0.02224719842956852 1.3064393492050785 -0.2824611600297643 0.9499397592280981 -0.155840409883988 -1.3415367821312951 1.3239133859646774 -0.39076234677066446 1.119154901560906 1.439866023154599 -0.503453210861553 0.2800530216742887 1.2847905402891502 0.7702668834379867 -1.2080566379566633 -0.9520394551219868 -1.0029260967772433 -1.488545865282164 -0.7129157400049525 -0.6036462394843592 -0.46796403713189877 -0.5517598136876959 -0.5870352518465389 -1.1060421889495915 -0.3039070623242017 0.6083496064645842 -1.281913438703394 -0.6786822615718495 -0.5532193482814787 0.9009195672906735 -1.3298602245488877 0.7874200633835606 -0.8201988528526469 -0.9933744021493829 0.47440911963473037 -0.14043300290921912 0.5715702078849794 -1.495633455303666 1.4963024647624052 0.09073238895222831 -0.29347683612275316 -0.9353025567789462 -1.05120223663998 0.7965265953051837 -1.1375814796638541 -1.276462668273888 -0.7684413431151921 -1.37894298656368 0.3544274262401358 -0.23570415981656495 -1.0545976676656825 -0.40811341254098593 1.1948180692200316 -0.20123632846544445 0.35886154918319035 1.3005974852670938 0.6984063343143159 -0.5872030947286487 -1.1851330641494968 -1.3371788636409305 0.6355870201051012 0.4889428422205928 -0.44813683480055205 -1.212901038305676 0.9688837820604055 0.9051167571623444 0.9304587471648681 -0.8672070447571705 -0.3990282921475113 -1.3433122097887575 -1.352266525559371 -0.025834040973725023 0.4629830978314874 -0.05456735707306367 0.2596793834776635 1.2917417635512753 0.5665371476911515 0.8934822614409965 1.427945335866089 0.6091887268736198 -0.46797229790929584 
-0.03557674646189371 0.6878277439518004 -0.02896762360400914 -1.230726721018849 -0.718213474742994 1.3352071817989601 1.3918770479757707 0.1464984993876637 -0.43191896796096285 -0.7863135781991735 -1.2082280891515513 0.15168965706328683 0.24776689206900362 -0.3448058479057336 -0.24246563510650057 -0.7428085729472298 0.6960468325905288 1.2735282470704357 0.5036660848964367 -1.3628635706505468 0.45630876610062254 -0.4096155249360362 0.5618964241462794 -1.3590750768531439 -0.01806176935693352 -0.3631316155935308 -1.2938876947045868 0.05091340076255877 -0.5872666594674815 0.4082058977790448 -1.2263978332963 0.18959432754848304 1.2186867431507915 -0.2838293760048749 1.4063939441294242 -1.3277258755874868 -1.3720944580437835 -1.4225065681524915 -0.9080014930348368 -0.8215397731869699 0.1472451349131 1.3918613260097223 -0.21707657207572234 1.2029220644587348 1.1080501588409386 0.3947143690382115 -0.6230923692031125 0.8504288488983368 -0.2232236920210518 0.4711304240190637 0.5168515306449959 -0.5331551758082509 1.2131615714511998 0.7264014431731872 -1.0814068100166794 -1.2018991765837856 -0.3242237588438837 -0.6076898105649738 0.9707552042146836 0.18005615282252807 1.078916288905717 -0.019061105746165458 -0.9595830149304118 -1.1268276139955395 0.8078441133301636 -0.9436024145464006 -0.13350766071338133 -0.34895655568745343 0.46442095494696434 -0.11765888611013312 0.7379690416784432 -0.913991683161567 0.9159134494001927 -1.452845209585275 -0.6373695567731148 1.2915147296909046 0.486294953494036 1.300492203184138 -0.6563028584198127 1.3650670661103015 -0.4029392120361427 0.29005324628008666 -0.5271361523223332 1.1320849813930345 -0.5061358205387353 -0.08201487656729535 -0.06147740168754392 0.16650205995281314 -1.2665419232273463 1.023772724578316 -0.4211913764211726 -1.0086602575904884 -0.6606894726070454 1.3671203978115167 0.6484644015805647 1.4784976458496948 0.355226808510497 0.4246267349802298 0.17770839206592864 0.5235918819145668 
-1.3170441870820302 -0.6353130101161765 -0.0978313826123728 0.5365327605292908 -1.103515262157263 0.3319222117946943 0.0860966026042992 0.9772576148433476 -0.9855568748451806 -0.15617420979916546 -0.5189915575901654 0.36878379647478093 0.6835526605739188 1.0065347381375462 -0.812154522533954 0.759952503373589 1.4886378314412099 0.21485748885590758 1.455153417495471 1.142769577671166 0.5031087818245353 -1.2855815463920943 -0.1835626969216811 0.45460430999284945 0.8812916501078717 -0.934118145835613 -0.8303579124200379 -1.5021602251014685 0.6994937267725214 -1.3005700940913114 0.7552439110643147 -0.015984811086465836 1.4980535074512518 1.0165418044230843 0.6155671486326373 0.7249471118368951 0.6847336543371079 1.3235036712906318 -0.3675786576474885 1.4670671510850561 -0.901783707374049 0.7484023296774532 -0.5763649153969423 -0.5419845240270813 -0.6479642991251412 0.7600836931389321 -1.4859588968615962 0.888189453310039 0.9344829895622812 -0.8896427019467678 -1.2768619338638323 1.0578999635717548 -0.6123479119984377 0.7440043529690394 0.5261928997730808 -1.0210848962868735 -0.7941526947912307 0.88981706422704 -0.9835900910845632 0.9137410788578478 0.5470204979600094 1.3526142832193604 -0.038711449767874745 -0.09075625940451673 1.3788304821857613 0.9326458544489886 -0.40250295761095695 0.38743940321683074 -0.40083015601021516 1.2803904092485252 -0.6212648003109791 0.11179703406891639 1.2817937836620035 -0.7097994159213497 1.291939148890289 1.1635879262078204 0.31684310743790156 -1.2698264884967077 -1.4096198837479905 0.01113163476151505 -1.0700904027624434 -0.21477161075992665 1.3273993521135865 0.06747995819789723 -1.3936722733677993 0.5724423782243567 -0.8681278424364727 0.4938457530077464 -0.30884212653181065 1.2936446597621611 -0.020229938217985906 -1.1152883296515643 -1.0723358578845565 0.292986947788119 0.22174884495899688 0.5617990603550672 -0.3192905562963636 0.38921135945293034 -1.015694311279171 -0.738574071219664 
-1.48723156399089 -0.8881287527848878 -0.8327569469110657 1.3437991743717173 1.278092784964399 1.2406737080912944 0.833755365101921 -0.5657360667375 -0.06152116132791945 -0.825685234586137 -0.0840408883311912 1.4706988884942531 0.4365252816626658 -0.97104929911485 -0.08831322081131568 -0.30047985966817387 -0.9725067170624616 -0.20479136704794298 -0.26990234655649703 -0.34258807548967163 0.5135312356708704 0.06460731625850502 -0.5699468836016014 -0.7871933871281851 1.2559380987589632 -1.039924429444457 1.0154141967618704 -0.4553140095991949 -1.0118312820245146 -1.4606904535316902 -0.9707784437018124 -1.3937294331312984 0.38231665404684967 -0.3429166261153603 -1.4813829091118158 -1.4523272951667037 -0.2406239606440081 -1.4243517320165016 0.69498364527481 0.9422089322121979 0.22040045307954384 0.9610334161195193 0.004910685935606567 -0.7581891491922638 -0.5574247542342813 -0.18085507169732074 -0.33115416906482986 0.9093618052504416 0.561471514119218 -1.3915143934305747 -1.4678207147889115 -0.6511531824386939 -1.4847835054913285 0.9641925561210145 1.0472164933096648 0.587241595108735 -0.6276889186507382 0.5690901189214007 1.3493644381890118 0.4159860094192382 -0.7625378334015019 1.0594900594368943 0.42957616047485 1.2341190662865373 -0.3542425492453369 0.1289674381861857 -1.179057702283462 -1.204435929562918 0.9640373607055717 -0.06954240870322 -0.0411046194831853 -0.6978104329491833 -0.34707775181740097 0.0872042913235172 1.0307186663241916 0.5576874920032924 1.0668001059941816 0.7130244087932571 0.5596045296635754 0.32081877018045724 1.443838074459806 -0.7171932716778393 -0.2552607477210888 1.273594840392042 1.4397720947911672 -0.9679019950865978 0.8197777856368214 -0.6340865429100285 0.07490787214449707 0.6676802367898744 0.26652154621726404 1.0929706867619584 0.6400064695717015 -0.7854890032746009 1.4116377747981825 0.4268934754104722 1.331690301874115 1.4131181298100233 0.028007596626979152 0.02469785681997853 
0.012092116863961595 -1.2018090177933134 -0.12236246984582928 0.7249639806891307 -0.2894745846700761 -1.1619259892106415 -0.06673896852111524 1.1123130630257996 -0.7513914841439114 1.1062965478501614 -0.6449919620088342 -1.1390957662395167 1.2027999103683855 1.2900046904922566 -0.7325513531665548 0.23905333995101377 -0.7657534895790264 -1.2427645714300781 0.09713101885490752 -0.48634544467388474 0.5090995877644037 1.0363608912163127 1.0156102399178835 1.0377825207027334 1.21267149780063 1.1692889980870607 -1.3098779162365293 -0.38811492996587377 -1.1401829421439174 -1.020423626684715 1.3288877800652787 -0.7309417233026461 0.8859092239447646 -0.4756708003847412 1.06110517838758 -0.39265789852994787 0.10876359196042386 0.7196429429403168 0.6657290425048057 0.08311990030083119 0.2315422654256503 0.983584489640069 1.2597631355784231 -0.7499065846537158 1.304412287109278 0.11272799326972562 -0.8488230820030331 -0.08643564158308292 -1.0906117703279878 -0.23792432747439932 -0.9939668368343781 -1.1913967869459279 0.5053771443897315 0.5560641780959451 0.7483124584048289 0.22283937008035962 1.2888201938856165 0.44991810919640257 0.9100858960477697 -0.30505759899412754 0.6379608219512076 -1.2506562163605235 -0.5564031999499267 1.4271559990194223 -0.6827877441495334 -1.0273263764392175 -1.3676068772221044 -0.011993860722849147 0.8870280891919985 0.12826648012884312 -0.30939870731616903 1.0733993605536647 -1.1315482712170792 -1.3435020273012532 -0.47386990271428964 1.3512672865649915 0.7025747918670705 -1.1510057670312197 -1.2144404774492996 -0.20484078208449732 0.2914973291550886 1.4939722965524351 -0.700536315621142 0.16722926859340825 0.2825917063835141 -1.2764227850326921 -0.5097777932852378 -1.3725550283784576 -0.4838707063283266 -0.2758194875506709 1.1244927925626584 -0.8163042209410553 0.4550528332921861 0.37900916111463695 -0.3246590577153312 -1.1210726416235837 -0.6563730382047108 -0.9604658149271457 -1.1066645388292022 1.4419816492551072 
-0.8172003270457197 -0.2313212161120312 -0.3061044239399461 1.479571750608267 0.5899580845072294 1.1351404022367728 0.5273892355572265 1.0880598469716918 1.0171772125267042 -0.30850463858464394 -1.088668185221407 0.5660875314445007 -0.5358779643622396 -0.4252709036791315 -0.9798957475310324 -0.35344860891345803 -0.7808608694918602 0.04924172643694337 0.15774859573422964 -0.10352201587889275 -1.2830037675570012 -1.0839385750289738 0.9334044013529594 1.0885083449068906 -0.5225934327048554 -0.20959364766229902 0.8438124464242658 -0.10947824407235375 0.5933112214985348 -1.2143862962336414 0.9644561677983696 1.028667848761859 -1.3100577323147755 -1.1311676897599194 -0.26844636828154367 0.8020517376334999 -0.8748653362165435 -0.7060049758833338 -1.0232110324479047 -0.8116490761329885 0.47878020841983515 -1.1044399794104096 0.21057613501725 1.2991793078397764 -1.1301160998734607 0.8245413442351742 -0.06988515530773298 -1.106967553851573 1.1808341279091012 0.9542140660653654 0.9470126966676905 0.26531047268108693 0.69595009344042 -0.7046607466356744 -0.8508333625319489 -0.38584121671658034 -0.7709426668590508 0.8491782856674762 -1.312887374112849 0.6624752998837418 1.3446938966968904 -0.47748716399316005 0.048606876547203116 -1.2129212936107987 -0.991798938975315 0.062434591123879044 1.3596561626388717 0.8203599948652478 0.06472498164228878 0.7449113659033969 1.3926267740625713 -1.1549103211907745 0.703650293980626 0.7371841143415813 -0.1085587879496528 0.5254153878527434 0.3394686228246226 0.08735906795476994 0.6660604377849982 0.8789813942745487 -0.2555468226433376 -1.3195138977856873 0.1490308625435019 -0.3955083894474293 1.4090856645817003 -0.7898635156709585 -0.2636108910088709 0.36785551470876315 1.0611186220487672 1.3668498493342893 -0.6836802976277934 0.17340190929202415 -0.6117003527173102 1.3125227775822357 0.45280250753813756 1.0609062418220538 0.6715461223482385 -0.8755308834787521 0.26640216729892513 0.20254279014785762 
0.08793381196775052 0.48215163805637357 -0.22572515196068196 0.8020379514664501 -0.8688635062382181 -0.8972290400751753 0.7269618984913994 0.8717381916403357 -1.2600766599241446 -0.07102757816460258 -0.2789795438443204 -0.06824699477300974 0.10366920018377908 0.8659680980176395 -1.2164470618242544 1.1387128978751182 -0.7941705828778396 -0.29729418225519877 -1.203581338628447 -0.2602772562139499 0.47608040123444917 0.43168574735693294 0.3196869662221729 0.7999746528291515 -0.5077128780510783 0.7207591623068752 -0.5112255982143594 0.6288779620507575 -1.0980797379346252 -0.6817285580212299 -0.11842888685056509 -0.8131865837390129 -0.09745003900812184 0.31430253293747185 -0.2745435798058993 -0.617851529750066 0.21223963112541192 -1.1259399092362787 0.24902241625918584 -0.47690283556060076 0.37864983904270005 0.8230734344119808 -0.9982349755199171 -0.3212601414157279 -0.35515483453324276 -0.22093605223619764 0.9966013010617298 -0.3861199061486413 0.624651983565329 -1.3711386663400424 -0.07303555005914587 0.5463995774980697 0.4088225050964015 0.7171253943578016 -0.6052602995569805 0.7236254828722691 0.8535903399200423 0.7145385542617113 -1.1549757501288835 -0.5314052332953443 -0.8635414073404398 -0.2942911715396644 -1.3913030017793224 -1.2339752255682277 0.06280625010662176 -1.0353133139621493 -1.4495379737911147 0.3849696128147126 0.43950428482815496 -0.9806961186484071 1.1733465106559142 0.6020375362243078 0.25410223044925834 1.3263661926976962 -0.6163811267434299 -1.1689598659239149 -0.5604018058329878 1.3660590641308936 0.18433711263451613 0.7592057527042734 0.08709728296911466 0.7768478033688697 0.0047340079995440475 -1.2047240678110764 0.8617738123183637 -0.5643672864661683 1.2632783743936737 -1.1354699439033664 0.03368154471333779 0.8734546095534763 -0.9900222258789275 -0.679334663202015 0.35823407184673306 -1.1396866335883014 -1.1840423911492668 0.761180143692325 0.4520247550151427 1.0266629452161313 -0.14650710645815254 0.4082482969684869 
1.050819440184568 0.4574358523961811 -0.9463328960181493 0.9732699567706355 -1.039889894580197 -1.1026910036870405 -0.2795371310532029 -1.4612182996032144 1.3656572288378717 1.1697001743111601 -1.0554765586078874 -0.9740443123669753 -0.731500081726703 -1.320180088147388 -0.21131122715871148 1.1173704645593832 -1.3835603687600773 1.1700080618291073 0.6176479695895185 0.9717553357693677 0.7497896005535485 -0.04793519705743417 0.34405526872705816 -0.9731198078081811 0.031092066899457597 -0.15815836105911024 -1.2952458031268252 -0.34431301078441323 0.5228769866239629 -0.47057693268214384 -0.8817847283940983 0.26159371315015423 0.43137808454054366 -0.2907577726525724 0.36649503453961385 0.990395286113125 -0.6572419739044336 0.47925860005993914 -1.8080611553091498E-4 -1.4268625866097877 -0.02138545636973007 -0.2690492516918262 -0.3986134756442714 1.2555560824046852 0.14715083511903163 -0.9495300405965487 0.2856650782199766 0.6626993732515706 -0.5019619871036936 1.2115830368866887 -0.5468237088925348 -1.00703339574194 0.629259278008245 -0.6024236000142548 -1.3188778277582955 -1.3441902142275186 0.0189089334402667 0.31268030288444093 -0.34843740433542936 -0.9182448535454352 0.283893206942468 1.4654167557331297 -0.09159291494839175 0.8492657587977319 -0.6072802640727941 1.215243236504632 -0.42010595117024757 1.113119310413658 1.000741625541838 0.8307821086575006 -1.2530900796234086 0.4232779430770226 -0.7697312163306523 0.9851079283310659 -1.2698913449389708 0.18224396632058365 -1.0362553032718138 -0.9436543046273196 -0.15644715849973598 -0.7285587909577118 -1.4627459512378773 -0.09404417645069306 0.8179818227587231 -0.4451389520497014 -0.6894977319409762 -1.4689383222688617 0.2131308989768827 1.1517852677490341 0.9905980058005381 -1.0314251998178345 -0.40145597321339543 -0.8998499004975489 -0.8986392979615506 -0.27506942253523275 0.8272782562036423 -0.01907708190604504 1.1470066013687517 0.5105970668524183 -1.2800635081427778 -1.0536236300619215 
1.455746637444415 0.5983202744162975 0.6375996714175376 -1.1790857424858843 -0.15703955726994567 -0.7032954556572768 0.13529782393061093 -0.4936146679615387 -1.1892828911747888 -0.5444166402017108 1.0711511074418354 -0.06321881038543352 -0.19071833830146456 -0.332227749888633 0.3860795948687374 -0.889494347040812 -1.3757952694552331 -0.4128364081895835 0.40279768258648424 0.15326927968284157 0.6791444168046269 -0.6828116457816116 -0.9039291201999882 -0.7363504029081697 1.1010911041148619 0.28619907231038744 1.3557295481369365 -1.0842213631573185 -0.007264763892342217 1.0109527587624998 0.9199336842130295 -0.6278009161553094 1.0232472564698458 1.1887244275176925 0.5589277774397119 1.2049328807485016 -0.5669385200289421 0.2655425441478188 -1.0241224613648112 0.7950037388144352 -1.028119368364863 0.2174251856054777 0.33187220449231786 0.18978183832736184 0.9592813952694845 -0.34970624664553646 -0.2092456202871834 -1.4320326255663731 0.3260594088392535 1.2797421453427533 0.2869289816994741 1.0711627193253694 -0.8929580815010473 -0.5817011913157029 -1.13022834758098 -0.5491701455184285 0.5596935024012825 -1.4442952269865303 -0.8383584250347965 0.5700631810108159 0.7816745318024132 -1.246763052087033 -1.41049749809931 1.1548069397642298 -0.43620113549227846 0.30480565013546224 -1.3556282717246344 0.058219815461570915 -0.5137518568027739 0.2716760121971483 -0.8676834290563753 0.2984401891426888 0.11133065739742706 0.13789371663057612 -0.7626567350634242 1.3217751881704363 -0.38407853560895067 0.2309317656276272 -0.31300717975916365 1.1574639005429492 -1.271811474296785 -0.6362241119755812 -0.8051887431176439 1.2924671085422657 1.153081523702939 0.27923960347428173 -1.3190311739430287 1.2480524466774436 0.7761650707655741 -0.9910402551145088 0.4600450788188822 -0.48596491618954807 0.1866375217759609 0.5583402649054888 1.3420935525332995 -0.5343242538442731 -0.07950688573126768 0.33963058021317855 0.8082482169175829 -0.33491400225262136 
0.986372592812026 -0.23121518067859695 -1.2004857364955244 1.1924692292786345 1.1150424106941546 0.08813349661440967 -1.4061792032444074 0.17593143234833208 0.4608593779686775 -0.6314196043246502 -0.3600638048174031 -1.3676668212450758 1.009437708026718 -0.13510612362885696 0.2883532540098655 1.0491362562568787 -0.795959939695028 0.1170132324830845 -0.802941814289992 1.4710579760817175 0.7985918347935772 -0.8031840943469529 1.024732958302746 -0.24373066389620043 -1.426209935045955 1.4322159331032183 -1.196589697349054 1.1489099272479675 0.07805416743701266 -0.6185799642501892 -0.7354351313037908 -1.0407985844624075 0.7642905972543355 -0.6245167562523275 0.5053108996116302 -0.23691083479538658 -0.3140399775196183 1.050241314425552 -0.5028998908433749 -0.23335208486401166 -0.964660940874284 1.4415728303205024 -1.4124793980359915 0.36454115781210644 0.19328838966672499 -0.02635482568766435 -1.1338329460794712 -0.24219057665749644 1.3560525761624578 1.1403885010709698 -0.7264171013434638 0.9740301408011449 1.1207284838947147 -1.299827502449578 0.7236965485056134 0.29508478437311775 0.8595559472841745 1.1234057647999922 -1.112135710675859 -1.3531550974162994 1.0963930255044578 1.1731466863421085 -1.335354827662889 -1.1452528107366682 0.7133790449493509 -0.37142970804355596 1.1189693115426342 -0.5398723194926197 -0.2175939456543136 -0.1301035213527851 -1.3336141269696984 -0.18503128695357798 -0.6046423902696325 0.08167190675252348 -0.6976645881093692 0.2868482313870989 0.06408184788674687 -0.2532460573017262 1.393647824191939 -0.3867806908682018 0.5138208354582509 -0.6666017956185603 -0.36349713673198447 -0.43405373880240306 0.7165027515205814 -0.25880882468002414 1.3452701278705799 -0.7837828948263974 -0.14649949062491735 0.9938008407574763 1.1283073095534244 -1.2845568020362093 0.8475536638680374 -1.507681675737723 0.9934768729854547 1.4821750716900934 -0.30292999180042246 -1.4021973521540194 0.35452117332261146 1.3759586742521186 
-1.2784254834012412 0.7741946912630877 0.008595807583463453 -0.29080873482103453 -0.5770754117551186 0.6464959633415979 1.308038122961563 1.4030105998742188 -1.3299273460159546 -0.31664821997143155 0.3606232572783339 0.5043238662123275 1.1709690832939421 -1.1000308257938067 1.3923477569669214 0.6040741282447432 1.1604236732259978 -0.3264136578908486 1.4453252867843307 -1.0587568156712752 -0.5462475429304453 1.232433874714279 0.6564205107751145 0.9298351595239139 0.35681187480069854 -0.2273045300484811 0.3465151491136658 1.1767002050014541 1.1760872827387236 -0.893490810167395 1.2576291880762271 -1.1916977144095589 -1.004575091816951 0.6797583887682419 -0.3957166469587915 -0.5904401135469854 0.8920941418893839 1.4631043807542388 0.9396446295239506 -0.873731031927771 -0.382687127625848 -1.2180756210927826 0.7125951298633767 -1.1707503560657702 -1.144541748370054 0.3797428276718345 -0.6993151875220249 1.0370011281776714 -0.7028931738154306 -1.0255851823168334 -1.4105024007847569 -0.25295667856704235 -0.18947530997593015 -0.969577139722689 -1.2920841996453367 0.9497841628964374 -0.872953681320743 -1.1181325535326676 -0.8244030436398192 0.12116373422048567 0.6110737240604545 -1.083760814812693 -0.6879728803903135 -0.6841107744102507 -0.04958892492399624 -0.8339210498822606 -1.3164456540042135 1.2178666166850867 -0.629468529704083 -0.18936154313760176 0.6538581732671059 -1.4664118545096423 0.18965665742043872 -0.40780101858570644 -0.7185904702584639 -0.8442294826417887 -0.484513256478763 -1.4339591419458284 -0.22687630466697015 0.7418387989297553 -1.1882421440559117 1.2458492804277548 1.007878579700134 0.40537626887166456 0.8310093631482877 -0.5817353353924538 -0.5887434917173289 0.33884530798024315 -0.0438183427382024 0.20506379316938778 -1.4130636330252548 0.7812218085130734 0.6681844238167742 -0.6847089702512641 -0.6944695788829964 -0.3324177758372972 -0.828230736675599 0.3091189464281154 -0.8992579808633536 -0.020826786777055753 
-1.2037687092574176 -1.3499080962124257 -1.449234126498267 -0.9546576227284586 1.127903212319716 -1.088524986492453 0.6695557071989205 -0.5490805048214054 0.4913936607869079 -0.6966142745567114 0.6997987917482886 0.13735468573197843 1.4752750368177436 -1.1112620978864702 1.0747946629259186 -0.5084194457802923 0.7679362119816343 -0.03299858015384746 0.61619044176705 -0.4661553169206633 -0.4098907393051353 -0.9170041105816947 1.2906423990354454 -0.8706317108540754 0.029174556723095615 -0.032307083010623155 0.07260897278889895 0.5518560882229495 0.5732495193142996 0.11743021379326514 -0.21176189388541622 1.3596654476880168 -0.23174359278104403 -0.843641811636788 -0.6625941939485284 1.0457736059555416 -0.828795233090765 0.23633113354856491 1.2835696296987216 1.1391148101851745 -0.7226264414389569 0.7606185077377176 -1.1511654867194432 -1.2731893119228535 -0.9409073702936266 1.4264447945307663 0.5482071956828309 0.15507568057310833 1.3578719346627481 0.0027375895998393183 1.091935742277664 0.07886582847212256 1.3661986516128994 -0.7918089609004545 0.07160257352072512 -0.37113465621444197 1.184667687724855 -0.08963227541860551 0.7140346236591668 0.9397853221036134 -0.7303947155003486 -1.0579714762386156 -0.16763015658440097 -1.378624874356649 0.6785795229410942 -0.09670321948882406 -0.7293038697015558 1.378307834940349 1.4053586764822392 -0.02593808071998751 0.6006962343070827 -0.9282820555178609 0.11076193088831061 -0.2976400754276672 1.267505588665122 0.4767125643748321 -0.8007208373164645 -1.3536916357966626 0.5385438318342023 1.1611466846948757 -1.1413124465867328 -1.1732583843050357 -0.8426748192218582 -1.015458095585336 1.180984724953711 0.6697588518790112 0.5554853247820898 0.7674281489816452 0.7186413729795899 -0.155480159720142 -1.1414843815980862 -0.7639850587662286 0.2561797404281198 -0.7256239998998621 -0.6922339615596672 1.292881628127952 -0.42160952078304353 -0.07783550272064144 -1.4018380339723222 1.25476416132271 
1.352169797023402 1.3915038809256952 -1.3207038202927783 -1.0709423581362556 0.22249266795334127 1.4070072209365967 1.1308438531952916 -1.233464103508494 0.8191366672869039 -0.3841767881722108 1.3028029326374422 0.23537036474007092 -0.2381863345614978 0.605423091632499 1.127763974175552 -1.239486246781889 -1.45083384129616 0.8846257683396292 -1.005267818014995 -0.24227983849554796 1.4329121728889036 -1.1880858294890329 -1.4165485239834872 1.2202900806822887 -1.3220534832524113 -1.170047070534003 0.9890180271811737 -1.4051982818793134 -0.265649212721043 -0.6460773373437712 -0.017154305706536865 0.2690683241917884 0.6634231229380767 -0.6548169133716539 0.07453902757759488 -0.44094419635766907 0.8234106915347572 0.3291298175940907 -0.2535311834614799 1.1529707262310986 0.3748281028697186 0.17334346451465163 -0.3851053392118387 1.3194992268196528 1.207982290901008 -1.0838824016354696 0.5234306775679743 -0.10354455967986467 -0.7927881551376821 -0.9765688272042539 0.44358956565088 0.476037445248022 1.457332177226351 0.770359989576301 0.8610031066646925 -1.242543529924631 0.09906234273686886 -1.2711572678886094 0.538980141423324 -1.4782767995322714 0.9686313044190498 1.0803696879757139 -1.4527476144756652 -0.13042999765730984 -1.210608695783363 -1.2747617897554055 0.7544974575943215 0.18837939445062554 0.9992453648402939 0.542338260443456 -1.194560929047862 1.084953781621719 -1.0921498963509468 -0.5799029726257905 -0.8672688068762541 -1.3303936171070243 -0.7593974021203567 1.1052813636136554 0.006935923332928815 0.6266578900475666 0.6361619034444143 1.4639961788565463 1.3537942016242626 -1.452923821151459 -1.3128258569450344 0.9214448880551791 1.2703961500757626 0.052066263633488125 -0.7430207455925332 1.0646268016509872 -1.2601772408297063 -1.2874499870003768 0.8030229609973776 0.7362966754458239 -0.3257765661282624 -1.2343877728895598 1.2821699200029488 0.6956533426531862 -0.48695253717566367 -0.9382091314020181 
1.184508568323968 0.9023949679719275 -0.1777991492265353 1.0014241391673195 0.7715647496289484 -1.1474865656455733 0.21820792032695666 0.5294513823375032 0.7850365568391964 -0.47576962123584515 1.1459831801642344 -0.004674359487317257 -0.91234542336278 0.8705066584594998 -0.008688700482238422 0.060589310284275756 -0.6908143171759498 -0.1992573282417673 -0.21437637648840707 1.0408089460685703 -1.3518952431117226 0.7470626181264011 -0.6318381673117612 0.10899716142386236 -0.7926342234747303 -0.9428824853652865 -1.3019888686013819 1.0585474439697238 -1.1867782335720678 -1.418826063653516 1.3603774161835647 -0.8620885800455828 1.2453906808953301 -1.042032945455944 1.0553611310423632 0.38183847529698506 1.0386487273358176 -0.7495189484545538 -0.12049465239144307 -0.4073062548037163 0.31556205321943237 0.2385354065473401 0.7527002560251632 -1.171853497252835 1.1166850711836154 0.98805515016415 -1.3874965071948304 -1.049693223590298 -0.12142600834298112 -0.052175670635962734 -0.10728914053458467 -0.9136788532782141 1.1137365985322805 -0.7053056273329488 -1.3320390286164945 0.3701414548051234 1.3352816753566308 -0.9328105141214175 0.04425106209038987 1.069923006345403 0.9808743011600045 -1.2804436849508014 0.5361689651748216 -0.6535752415929658 -0.10218621246881002 -1.29145291132994 1.3844853623865323 -0.283942997707229 0.9802686250981947 1.3347237139624533 1.1410029725367636 1.4772981439798076 -0.6135437171622534 -1.1925482429390273 0.252013635026225 -1.4494446307616373 1.0169756367926306 0.20412814356909956 0.3719294655679739 0.10882919254899995 0.2884228992093573 0.5898127069686973 -0.8340059614997671 -1.2592220171713764 -0.25544786243880585 1.469127049022257 -0.06382623028044847 -0.03180240206153084 -0.2730315356315379 -0.7114479770475591 1.4313242748198367 -1.0765211548841824 -1.037106085235889 -0.3419376911646503 0.26426507074728295 -1.3507550792873113 0.23105603706101419 0.9570553875045672 -1.3187951794623836 -1.1593180405422214 
-0.08206452997507262 1.1461107443683993 -0.8491909823487083 -0.496159242516686 -0.1675810748934491 1.2896983653294665 0.3081272623145457 0.5788380498036335 0.6326387519019463 0.011339205768582853 1.0496784878926786 -1.4548265149722936 -0.7228170858398031 -1.0957684438919186 -1.3492716665756241 0.2684136456630963 -1.1267348629256935 0.4235865788036195 1.3450015076233315 0.005256534218407338 -0.6393707813731663 1.3750049897591552 -0.2663317073420108 -1.250986717421272 0.6643052977115174 -0.16990303212405677 0.49338466551912374 0.9167748020970576 1.2584457551318975 0.4784434018720161 1.1772305630442237 -0.7472884117701651 -0.31828221331585205 1.1792800193245494 1.3692335220546468 1.4697949009737024 0.6319843917632688 -0.9565494692069616 0.0314777037131896 0.5025519880706478 0.6987609369391296 -1.0774019324584045 -0.6331022031196447 0.8871929744515396 0.6416306659070891 1.0680514215090189 1.0084321005896848 0.6137239438570551 -0.3734093685082514 -0.24939342289207936 0.02379061989745984 0.9497715719187142 -1.2008873120388417 1.3584724472182765 0.4239749815375356 -0.7651707922377304 1.0129072506464996 -1.264541349974981 0.8438056526505922 -0.5032514492436214 -0.8014733538296059 -0.9074870788635491 0.44310531307360274 1.3409078388074416 -1.2626273138717816 1.3645603155849022 0.27236835764924305 0.36901977149148735 -1.154315786216235 -0.09665747538981011 -0.8691107791825436 1.2761750270631271 0.09121042320675041 -0.46958717547162765 -0.6560355119859709 -0.044711237704602724 -0.5029531475456044 1.0185096969412077 0.3943108540500707 1.3065610650777217 1.3278591992318345 0.30180430835867517 -0.41230297583191633 -1.0493364952892308 1.4275655477616094 -0.5658246657111182 1.0947522392954112 -0.9493549012973318 0.5362695537457087 0.6842997604640393 -1.0745793727012527 1.4955712968914436 -1.357144361698434 1.0002395596937659 -0.8952578154525782 -1.1025814763407318 1.0077798220167995 -0.38828356858795127 0.7111781760627124 -0.5944658082772001 
-0.028438179295781366 1.129698632338623 0.8796604781936744 -0.2805374102517787 1.4577356627309648 0.48997513105256657 0.7579838410082355 0.8756147884993282 0.39485733696540076 -0.8547020914851632 0.15016845865158865 -0.6404748226063667 0.6786508696642362 -0.32441299423576986 0.4945083293281685 1.1810286014025684 0.9959320785996464 1.3014510393277454 -0.7403305236607246 0.47039934690006246 0.917965685856554 -0.6245371400772323 1.1307691738692947 -1.425371758871262 0.07347679894175348 0.8070403571725963 0.5975696781152516 -1.142026420024219 -1.0833112858143863 -0.7631241214041026 0.25435229316028507 -0.9391977637332553 -1.0562800935417793 -1.2761571218300323 -1.4860426297933553 0.9971037227815467 -0.4795993494871674 0.00684826784318685 0.5778073211188273 -0.027724427874306935 -0.4443813106299843 0.4106090324557179 1.093559607417642 -0.5483682222602615 0.8194387132509754 1.503560028673245 0.15974621264824138 -0.8533672134054558 0.6102651280126636 -0.46772660432858015 1.4352536565830019 -1.0595817736218087 -1.3186468195248249 0.47913535572574717 0.9945162658938563 -0.41895237103076943 0.7214077072628803 0.8405129006152406 -1.016519790700264 -0.4791366130576288 -0.8299132877778514 -0.7466251284039943 0.1350532818097115 0.012735439059952431 1.4947105962991485 0.5426944730995841 0.761958567560594 1.0852224006965852 0.5968232333349447 0.7651397163464004 -0.08573260380921661 0.6925815155827882 -0.19314519483135356 -1.4311249602491343 -0.1810503153864301 0.23408977282236576 -0.9726893540484425 1.4198389640569797 -0.2010162045695803 1.0958456627387563 -0.3388413820622553 0.4502990565374443 -0.38945209221454696 0.09200308196967327 -0.21892785083181843 -0.34325259273734 0.7669908597323506 -0.82023297016159 -1.3805942714032264 1.0923779558874085 0.3528730827302376 -0.4090739750889018 1.3683804110605697 -0.1218841129352254 -1.0507707877464756 0.39089337133094354 0.6277577457324116 1.1538926940588345 1.2085813310035451 -0.6039020667593484 
0.14004904795406425 -0.6748622521694418 -0.12792330667607202 -0.188359610975785 -1.394094523083879 -0.27932996616522054 -0.7649794120057068 -0.8517163256380298 -1.4810378508598996 0.9732486815363599 0.09918559895817099 0.8298239929861965 -0.5771107972060123 1.0255540248078265 -0.42339963132122116 1.4747031448164956 -0.3160290883605798 0.0697120071971361 0.10507084140256182 -0.2812719882343773 0.5064658964193242 0.07979554686386384 -0.4844498613544864 -1.1913974311446784 1.001191880234928 0.7754941917853684 -0.6953042252006878 0.22902842969163656 -0.8681456339107919 -0.5576664262452656 -0.39893781078338003 0.9675928073498333 0.7401795790749642 -0.3650108789606391 -0.8821079546814121 -1.3563641823673838 0.9731093678265487 -0.6959959365679012 -0.25156504369275945 1.078625167187399 0.44147639181761406 0.9678191153591942 0.46300173030530883 -0.9762532210544134 0.2905736116666121 -0.7770807879374025 -0.9855962173584738 -0.6697752496792453 -0.18604657157853974 0.9519189669858233 1.1738196212784024 0.11318708288893532 1.0762663703016153 0.6255548443887773 -0.6619284793144554 -0.017888386904634478 -0.24189824780578023 -1.2500014500363241 -0.24421278127943105 0.3827754301541251 -0.20711070858239594 -0.9282869371352792 -0.2333158127229849 0.32366486246827986 0.24543943876052507 0.30002690739499127 0.2537913990156257 0.20862345112228722 0.1464941148066501 0.9569819135690384 -0.5954393496824324 0.9244110689000893 1.256192213060646 -1.1437000064445066 -0.7331962314974649 1.1552770674225474 -0.09922731349293049 -0.7340289137932627 -0.69590585188146 -1.1097438848882304 0.9562863471841002 -1.1209287598988422 -0.9380300754978116 0.7346525492129079 1.0428580470091808 1.0310485681002763 1.239019386225158 -1.4940599061200739 1.1375542239578051 -0.38858326793139875 0.040556968948173996 -0.7081467156975066 -0.5678726029736036 0.36452318677953705 -0.7086752198061863 0.22348283171555286 -0.6484763896272996 0.7739027032228585 -0.814466867889115 0.6166897507097472 
0.9763711889579593 0.7781778279426861 0.5941643378105166 -0.409141533905254 -0.7645152139622704 -1.2716002376992381 0.4733590939401491 1.0469714073507506 1.1213241583784275 -0.25492297156109783 0.16502997160965874 1.4017447093099242 0.27831996301231043 -1.4388348043991432 0.09273518928154936 -0.052149378300201416 -0.34383813235838945 -1.0539642829923268 -0.947439797027335 1.2308656158801656 0.6729193592840181 -0.5077762297622588 0.7768358170976343 -0.5044872506101689 1.4482710414062427 -0.4630982870856639 1.0719390475101538 0.4403964624552245 0.19333109521957184 -0.9672205411543475 -0.6085034360777821 -0.12416342901583384 -0.9151146997165892 -0.8793555186653147 0.6153816037355667 -0.10442318532349437 -1.168938605793247 1.091405787102707 0.6224063754720597 1.238931481653927 -0.5690777175409188 0.1958134728458992 0.8690387953905048 1.0259143619687279 1.136275665944032 0.7161740615202027 -1.129420568423505 0.4825665038795054 -0.3624649498404268 -0.9738116177954929 0.8207830572150439 -0.4080903435228532 -1.2656501620405998 0.8868427272797065 0.7707331206555712 -0.01993240789222233 -0.39927993452042815 -0.17149793059122498 1.355993476657803 -0.5153824592208105 0.16599541438562423 -0.6373026814053561 -0.19018052269422966 0.6421525683614326 -0.24629139024616944 1.0965627651780812 0.01585792034678829 0.4329024618917529 0.8270414741296337 -0.6188323912512309 -0.1235627387826981 1.2777236538357621 1.4117337053044856 -0.28520769856190514 -0.5347910152386812 0.4877165947274487 -0.41645891868452645 -0.5947039168999597 1.0613512629512099 1.3582577159913256 0.9970573990171074 0.45216583529112714 0.36072597243177623 1.4516814444321668 1.085226371510659 -1.2449007276528035 -1.452536265763353 0.8724540121271894 0.8157414823700593 0.42431457054350913 -0.19385600031259806 0.07670657272562 1.4044681915105302 -0.5520649470001068 1.47729777606902 -0.48963407201250453 -1.3425886561497768 -0.032826028491708424 -0.0715462891342048 -1.2464246587912158 
-0.7166102022305683 1.2250520610497733 -0.8467955282186462 1.4208959746238352 -1.2055581439553422 -0.9562372399811768 1.363726219867156 0.34950700400295476 -1.1888859428932306 1.3779418281429232 -0.9820636488222756 -0.10861829730349691 -1.3053200114846812 0.0034478344785794915 0.46556895995640873 0.4432555693881976 -0.17772469951167472 0.9162641895156843 0.04460273647886498 0.7352281640539694 1.4723890485746898 0.04612668734490137 1.247034768742763 0.3772785045742355 -0.1737407903838057 -0.24901137584099117 0.09151746386084528 -0.3613824936809986 -0.8358825917035935 0.04623150548176502 0.30951362464668636 -1.3303756983239128 -0.1306835031970464 -0.496574785440699 1.0853218225988226 1.291734158985088 0.32732658305795365 0.849656973854575 -0.6008006584163138 1.106457800597043 0.07221804886164969 0.8892219502696747 -1.0767906167174346 0.11874123522340112 1.4576215159754828 -0.9188559287693061 0.9601479860425366 -0.1434638119886227 -0.16669211698149483 0.7618009913879324 0.48409459739227406 -0.4763366417035891 0.05874019545996834 -0.5977695479534969 -0.10978662847224091 1.069165678616872 -0.6327284065046969 1.0635382464178251 -0.061154649864358576 0.08701958817232273 0.5370678871567874 -1.2717448800799336 -1.2057019898099912 0.12569408072589902 0.7172442888397418 1.0650667360247452 -0.3093423863789607 -0.5993630055200576 1.0571857010158217 1.157606076013151 1.3597868674895373 0.16879554447255998 0.5945304807530937 0.510660737009491 1.002543484340425 1.2349898161591173 -1.403351443036389 -0.7054717612808215 -0.5775737380740059 1.3438468188780652 0.9043728800660537 -1.1070824835639856 -0.1035970448482048 0.1174329677612527 -1.471872795129893 -0.019847173118388715 0.9156969622759286 0.770986624520226 -0.9233469643775893 0.2844500907991052 -0.9934698466434327 1.1282200458706229 -1.1509849029911807 -1.2710025758801122 -0.697458262390238 -1.2119081112069094 0.06281864561311375 -0.6688725967316537 0.5268156719666931 -0.8685552534462695 
-1.427501443551882 -0.012384024420977989 0.02211710953887824 1.3150973847200211 1.0911302806688206 -0.5575903936925676 1.1577973528994117 -1.4477776874080726 0.9977136375142825 -0.9912739660918539 -1.1751877141678664 0.7647640185131617 -0.7681011910657333 -1.1724058607355845 1.2370989451261427 -1.5874728602570618 -1.3773037217225466 -0.6043352245807172 0.025962090209828446 -0.9735723405641106 0.3382594617584471 -1.407023786694887 -1.3403540553991178 1.0721256020475771 0.6423602836705439 0.7590472996411725 0.5877227212579549 -1.346156000473913 -0.5611441066991434 1.4382599794049271 -0.043391190396071075 0.6202763298577552 -1.121114175738701 0.6105310189114068 -0.8654979400355989 1.0390610752474216 -0.8110146107597591 1.0414059076545379 -0.19894769280538066 0.3395872641231268 0.08300416325006041 -0.602562215833943 0.5574669785610059 -0.8025260838654709 0.10177026495239284 -0.23302352903142506 0.45970080247389133 0.9838906593229354 -1.1916207933396645 0.5815523890137301 0.37488328695350054 -1.0166161127077242 1.4700506649178704 -1.0281051247276392 -1.1533876101892664 0.19106540690262908 1.372118350777777 -0.7394633739903358 0.09258198316903493 0.9916762533386705 1.1704243130142538 -0.5169511527119833 0.9567704445844604 -0.42810425468932756 1.0777044607572002 0.46838892369330487 -0.3938020021660673 -0.16869477863006868 0.9285018831088461 -0.5832540148051406 -1.4081049244797816 0.5161268009244178 -0.9906759781261936 -0.5431779551377081 -1.3079963495812477 0.16474167981197868 1.0172328738745242 -0.33966865819948777 1.184350308890382 1.2318641408115574 0.8405649937936523 -0.6459740872676036 0.011548616163188674 -0.3376651390831497 -0.14347862876171347 0.009958888448206601 0.6345261742812325 -1.3273465823187163 0.3221968697898828 0.39675591414038885 -0.93321514587159 0.4265059514947802 0.7440056873885545 -1.0643065212963894 -0.32442635871597925 1.34022637413053 -0.2164647031992258 0.9849588384564913 0.412752287821007 -1.187482740669601 
-1.2079518774382612 0.3215534646909557 -0.7756934232234518 -0.16956802801005524 -0.3254345449518567 0.5547046512731496 -1.4070908940670876 1.2740630335977752 -0.7090746077948635 -1.113182235273898 0.3231409454238385 -0.693429453429618 -0.15259700549762062 -1.342231037364042 0.9892697245224179 0.8811696463744558 0.6623159024983987 -0.9878989072765094 -0.2479243863092896 -0.4163573535251091 -1.1162655544574058 -1.475861599262416 -0.7743667664863594 -0.5885716222614839 0.9976836932351497 0.6166607391701917 0.0047967768989345344 0.3813100242000975 0.3170901151801728 -0.04002690007282704 0.9148508342348141 0.4249389154114715 -1.0457553377239541 0.6468393555944493 -1.4530465331685807 0.8717613486736775 -0.46957050084530855 0.15550199405804072 0.5466109711878729 -1.25226717031452 0.013571231896748605 -1.4368625951974556 1.0425420545770574 0.639167403055691 0.1580230121551646 0.05902049820362614 1.3981074152631148 -0.8609230303979711 -0.8431357588232105 -1.1662762131628976 -0.506922896435774 -0.9606943967766184 -1.0195561947051452 -1.3952127578344662 -0.21837204379996894 -0.02982035430836594 0.013431857321683819 0.516269359076878 1.3248040570901913 -1.0970310205168703 -1.0965258180571549 0.08348950480938565 0.6124155819470722 0.8720567084404621 0.2730244924102826 1.5099105165706015 0.6147820906479907 1.2049032618715247 0.9869970643305275 0.6538107023373823 -1.1444815090286549 -1.0414185986129278 -0.4404084036965377 -0.31981148430447354 0.024668694799700804 0.9163822108786843 -0.6576337806770011 -1.216030690260326 0.007196789851048444 0.3493514299273625 0.07712713922440151 -0.021066220612848616 0.056401427836476135 -0.6488143771928863 -0.5210211225325893 -0.12125658421572941 -0.6593686509893465 1.3513567721857325 0.56839713631487 0.20842171061931603 -0.35489205042189803 -0.3876176753373209 -0.4787087695714984 -0.6261939480961243 -0.34046259940851153 1.0159934131029071 0.22812633445142813 1.2651320539269715 -1.37269605883646 -1.533844526297508 
0.8566312797555439 1.4553843540200684 0.0494742819053303 0.19471489447613236 0.07871311161929691 0.30378901617398624 -0.9197584143662773 1.458987799116116 -0.9838033786741961 0.7336573687179905 -1.1750580388204437 -0.2949246810215459 1.6244991374796427 0.9716414141883654 0.7548964383767605 1.5226555260972008 -0.5656025845949559 -0.5386967394424288 -0.18549420033414632 -0.4338772605402948 -0.35815862799325826 -0.5874498764962846 1.2630830183733686 -1.0467569150099938 1.4073059783074506 -1.432182529321712 0.4091812395298136 0.42744778475451334 -1.2440018300338622 1.2616955828132668 0.1730598188057315 0.28314193358306666 -1.485662026980399 0.781223151356832 -0.516694223890028 -0.5689030079087503 0.6713625350874816 -1.3784989016659173 -0.37336934399286165 1.4565185407650136 1.2670721864932342 0.9053662883712857 0.11164231995993519 1.2536111426956957 0.1580823552609242 0.09487416895363493 -0.0999838509230846 0.6723530093799037 -1.1640193615918961 1.0251146097020198 0.8174044378493407 1.4863514967831053 -0.38050228181378315 1.3336160559128196 0.5503166942507863 -0.4419989603138426 -0.4110779034024264 -0.8208158260496039 0.16780399105270208 0.895413871557222 -0.2605728526391578 0.39525149634778345 -1.026695555806235 0.6620666394688364 1.284021157749514 0.8034850539542125 1.0184049956687107 0.22881169692146108 -1.2688784687232144 0.9201885880723675 0.8418344482083441 0.2204228298887462 -1.3011402721897016 -1.268913497670062 -1.482068320086608 -0.4212882806186048 -1.3535911823085427 0.5932520256316883 1.4643106283074527 -0.6130995104917533 0.6065410233528558 1.4671910326879483 -0.3038861737438427 -1.3390996464740104 -1.0219234950875917 1.4697723908496447 -0.6751858464724076 -1.3136576928463917 0.8180496850638639 -0.1285181229040293 0.2367435279895821 -1.2859818627041144 1.4513696674128267 -1.1195345853043406 1.386891803339496 0.31141307017917635 1.0400116996537476 -0.9641640494833412 1.1141950521106299 -0.5925776318391376 
-0.09670089535169664 -0.5972905100082359 -1.094793905555468 -0.3348402010008819 1.388567735117544 -0.03816639001651833 0.7363682652329265 0.862331877445182 -0.0011486702955847091 -0.9617416668643929 -1.406797979646035 1.1682203712909047 0.5805059660919631 -0.7686657257574115 -1.1590062728729962 1.1645866098189874 -0.9365792989850872 0.17933389711830722 0.03757200037740788 -0.7225193604535488 1.3058066897962837 -0.4828294992407919 0.565298913256063 -1.025849938713647 -0.6193895805104286 0.8387253280292745 -0.2081390663412727 0.05255992067248948 -0.13489225182517625 1.268788166505478 0.9594101427949435 0.09536018949944636 0.7137875039878504 -0.6688454025932062 1.4392121007071448 -1.1392875317863411 -1.4980803016483109 -1.0740445197584991 0.9180269744486665 -0.1568223989631109 0.7478840656162286 0.8068780935320643 -0.379631145025697 0.2998763122287285 -0.4011854314561759 -0.3251132334445145 1.4494607478963346 0.5072846259033155 -0.6733464742410492 -1.3115587938829445 -0.3232757834044991 0.019029581781607546 -1.3642813887778482 0.6703260030311928 0.6297059924859273 0.14465788754333536 -0.7023221037687422 1.4728943603409033 0.573730539165707 1.1157723872423437 -0.26748690458095764 -0.7730585443792175 1.1972573110637037 -0.9024557441223373 0.021854060465882598 1.3145019771365642 1.1932596029428495 1.4902230619160386 -0.9699407804318471 0.7518353291520575 -1.3014382212524391 -0.20119219950529768 -0.29318769837793013 0.7631885902162686 1.14110939872405 -0.7938106174882343 -0.7480641224083383 0.7507657152271601 -0.7952856224510269 0.012296787849928697 -0.3168665801106802 1.0433233983612187 0.5790819986706385 -1.2988083343417105 0.845749073285333 -0.4616603338414251 -0.6004571125684266 1.0237838661190903 0.8120977283691616 -0.14181113326710088 -1.1139915767411384 0.155594975804087 -0.5771204545831045 -0.22363506960704577 0.4497888717778786 -1.3466660082480875 -0.14136937421166745 0.10914058613071648 1.1466896900790577 -0.5138204909350783 
0.5611855352335596 -0.0952103553036029 0.6701805339000382 -0.28960314779635976 1.3662383631159791 1.2160154010824211 0.5796819123824724 -0.8312591000212259 -0.3780481131147019 0.5694322434825283 -0.260381683048611 -0.7731687879574607 0.034601036278435665 0.5877602965098293 -1.3346893352368403 -1.0964463329287215 0.6530286691486343 -0.2056609681682937 0.03183840862555066 -1.325950373383915 -0.7231071122409293 0.011417773113325059 -0.6506185378400088 0.4031028373340961 0.9873799420352143 -1.4896323000956357 0.5406130943963845 -0.7900938298849501 -1.0815698607886084 1.4415965720616335 -1.4226492990710642 0.5026266168737027 -1.0895261532388494 -0.44497128193356994 0.5143581812954421 0.6566998684974085 -0.954949335675868 -1.372280018916128 0.7725879308712418 1.0702618336442902 -0.9900844127410992 -0.9375971784522569 0.6336867431798302 -1.4297420342566338 0.9880087219955056 0.7963523211615501 -0.7468463182983667 -0.38534155252139257 1.1572247775150268 0.7156437115018798 -0.693819562513912 -0.15129240450333306 1.4064287402656903 0.8650901600288171 1.0600418443470678 -1.3389222451071432 -0.9584597656542145 1.3955607989941172 0.6151197060347484 -0.4804388511115817 0.5350485498398847 1.1949947852637886 -0.23828120546917783 0.28523229826994967 0.01603139274266253 1.2731978119267142 -0.201653104688663 0.7403491814481878 0.8982981577291796 0.8273785531523323 -0.344030302039874 0.9851263215189636 0.1294451075835511 0.9393075374306966 0.4395687494570374 1.2884632267052676 -0.16186212221476848 -0.4798066511583422 0.6757998216588861 1.11344782838693 0.6448368918580485 0.8784387425242177 0.6224540665896525 -0.2818427570686872 -1.2489940375564745 -1.0438386912159214 -1.028430705936138 0.9894061881305483 0.9980671744541634 -0.6024572724736028 0.7605559174973034 0.31523052382510164 1.0937111729364575 0.6936961321611381 -0.5458472577047508 -0.03359336456429704 1.1212128267055619 -1.1066171559828162 -0.9862377837667082 -0.16944656403217495 
-0.48186508572179065 0.8895671551544261 0.021349066964463287 1.174103024043549 -1.0096555524268498 -1.3392709542163543 1.2348569009946098 0.9977487272634831 0.7316998940042561 0.6657211800298634 -0.3016523485339233 1.3885567258667124 -1.2215757688746645 -0.19572778252148224 1.104331168882947 0.5603637522195372 -0.6233451879871775 1.0542554858138402 0.5174849178588161 -0.05543435784124082 -0.6677702200176985 1.153455907243582 0.6860821489132889 0.3788426114529043 -0.014545662162052915 -0.4620142272252672 0.1385797345953254 -1.3780358557153716 -1.3943367138738596 -0.42044097830436683 -1.3858021271478962 -0.8989546644793934 -0.4303731394584261 0.6541092908899409 0.4109089144260156 1.1342666879477645 -1.4900081807913206 -0.23270755286590822 0.12870464272098897 0.09165547761839858 0.09599173873728456 -0.8395811826223795 0.5095008351495756 0.4002586195939318 0.5011424940911252 0.03894788861631891 0.44851505976242834 0.7581978093801607 0.06298573206259298 1.0938682494028131 1.1099369115888518 -0.0290603921281215 -0.3036255489054882 -0.008117229716743474 -1.2222056519458704 0.9145564064341057 1.3607788116350399 0.41322605033794135 -0.9949671825039027 -0.9185491752988513 0.05176368407663224 1.249459796671234 0.6874440595920159 1.0565748096343148 0.4944808641742842 -1.2643306776687075 -0.05562950818774742 1.2764454319284144 -1.0145996312124919 -0.08994978285113525 -0.9133288299201422 -0.9693062267971011 -0.8090675291102318 0.11195875506392589 0.6962563468336047 -1.2975716541528257 0.5444422149571986 1.1452919305511624 1.4787538070330961 0.5534250332457364 -1.4687481204629211 0.3321346523867344 -0.46289895431099015 -0.7572460990176183 0.8670411856803305 -1.1348321721946149 1.3002583142648858 0.2113772523287019 -1.286227496961889 0.05486445302252485 -0.35429436352088717 -0.6426098559677638 1.0062765575863097 0.13658594071652988 -0.6174381369031623 -1.2885487652554006 -0.8829716129442634 0.48111128647608753 0.3338118522886261 1.3713992976183544 
1.2337159673515943 0.1511724706079008 1.329776658202057 1.1190831819309557 -0.5509202025172665 -0.27964333159013266 -1.2081114764022245 -0.2450364082255362 0.2525197817148588 0.6130698441802491 -0.46262277048687045 1.2951071011424597 0.13953896463381643 1.0133830292702475 -1.03278718598176 -1.0462277770385167 -0.12045172115682172 0.12596275793437178 -0.8503436386095756 0.609390729131549 -1.1213905471850234 -0.9805319422540543 0.6465853352180694 0.21936771226397853 1.3492157125568383 -0.2558103071623872 -0.7838643115477664 1.260368991696123 0.819422276393536 1.372308721475048 -0.11703478629050418 -0.2706531765413467 1.423398634748686 -1.3523287764796759 -1.4785591460797645 0.1768455479652773 -1.437711895491527 -0.547294510555732 -0.3332460841003431 1.0195348606902215 -0.7024664827786188 1.1384673678571748 -0.5541573957814085 0.28383499924463285 1.465623994951216 0.8182722594306043 -0.25182860542312363 1.2511289810850714 0.7372684492742342 -1.1806012160435257 -0.7810184921744615 0.46305029464045594 -0.6054052251351975 -0.028280950513710493 -0.3864010097270983 0.6868990175520507 -1.362046126915856 -1.160853550259349 0.8552652461509116 0.5273414420889168 -0.8341380157936834 -1.4160577031791486 0.127817918425902 -0.8315911766140576 -1.202205194896242 0.9188303969181537 1.4090730324229823 -0.9153565989584477 -0.5594517688569266 0.6579064320694957 -0.4350422949539265 1.0135282982890248 -0.22596869950089685 0.9881515055083124 0.46838327564313675 1.1594767601889504 -1.3683035590702857 0.032420851992677815 -1.0597176535796224 -0.742124153926421 0.02442515154205311 0.9290315508259263 -0.20070360308923574 -0.21837757968899507 -1.0272861932191026 0.8640852804224566 1.4760072150057222 1.1762084103179826 -0.02341482634410174 -1.0985062633562779 -0.06086927159589051 1.1731734531532017 1.1140194227860798 -0.19255367779263047 1.230094182176443 -1.3391970616328097 1.100567666190206 0.9496348043066034 -1.174440769380214 -1.2223891293224487 
-1.1829106032350796 -0.595732051889341 -0.9325050600581681 0.7608944142686145 -1.0146400590486857 -0.03666460319390635 -0.27327961170395726 0.9150089815866647 -0.6194488210069005 0.6380336967129023 -0.32767807177184305 0.500934402045896 0.15991836005560775 0.356818611909433 -0.4549059172747279 0.26704938625159735 0.12382479977705721 0.8755199740634662 -0.12649036748900339 0.9771480013799156 -1.3184835034724074 -0.2252259547622012 -1.435179281732901 0.720519769410787 -1.156029703437181 0.40460471383369695 1.2693737426083265 0.8547331407679261 0.6701253165156607 -1.0892553685862076 -1.3320433593721275 0.28753860526663966 0.4845493386679048 0.3151669773353356 -1.3982778811137027 0.1953708109542272 1.0054336601199738 0.14759490182870524 -0.2362631243594969 -1.2756867008198878 -0.17941429276064297 -0.13979477802520524 0.0748958192038957 0.2373508931944964 -0.5952550447476047 -1.4792894918596722 1.2458613168330652 -0.10471054111796826 0.33039017913605156 0.9546158141502111 -1.1401240720979418 -0.6721033303340368 -0.026363449304373968 -0.6158394095895837 -0.7156726526117331 0.2861055748916488 -0.4012010953736121 -0.3660160415176161 -1.0425110987824335 -0.7869136565476922 -0.6373196051523785 -1.1505221972223738 0.5039406293984335 1.330335922765088 -0.36090632810562634 1.0630111874120178 0.9138713844024559 1.4417606010513595 -0.8961679014717244 1.3857992303067228 1.3501830124756355 -0.28496270539935475 1.072443793313674 -0.26920590062491995 1.2121304870608804 0.6127538205163722 0.640268326588931 0.7804033035247687 1.3252547541760136 0.6881183684887057 -0.8865332293994368 -0.7212241845128319 -0.9199420581406453 0.5483201237210457 -1.0377241996088244 0.03323747842612493 0.42565919160651244 0.9488277157009622 -1.0235153251281213 0.31433239116039685 0.4674055340241687 -1.043798882542082 1.256114401388656 0.7735381391456595 -1.0683317101692704 -0.277859538743049 0.5954371545910843 -1.3226722247361489 -0.958155118891982 0.5069889938232115 
0.815671238377452 0.5155535208196397 0.5059482202097036 1.1305079983467308 -0.461291369892784 -0.7481590692037167 0.4519350332482581 0.38701556130430387 -0.04996034558971477 -1.269147517476831 1.169138821071295 -1.114056131982753 -0.20834606573922396 -0.5355659035705169 -0.26108389434987017 -1.130213860696548 -1.2568398619617702 0.6440766073782764 0.355807820940309 1.1550145172740458 0.11818685360120655 -0.30863615162337715 -0.12910069405478308 -0.24992613701565256 -0.04497186415473485 0.001129132329085633 -0.14964286108439956 0.6088009311887134 -0.5266954877536197 -0.49831449256517224 1.2733604949842119 1.0518022548304868 -0.2980419555446037 0.39824314339475597 0.9654398382566705 0.45766673538790437 -1.0563522262925955 -0.5887815195355958 1.0321836324492717 0.49175994789720173 -0.1801680811751686 0.9775215992388933 1.0220400202515065 -0.037564173518185966 -0.14443940603383393 1.3631645038506837 1.3474594941273286 -0.33180273245086794 -0.9686666440841779 1.4385385330854112 0.2453924982080925 0.5101624285174331 0.8228713809199995 -0.6343149457881471 -0.895762334961049 0.26165563278526327 -0.11357347083469382 -1.3268409126533487 1.1259860248854046 0.3207423815948802 0.5423246559596864 0.09090600643532613 -0.2803579416447562 -1.3085924146593244 -0.9909615886260158 -1.3948712050353074 0.6241176088300089 1.4241196212457528 -0.8097130938324805 -0.16966495919340982 0.7841780427807725 -1.4916654997796135 -0.7564429340391581 -1.0947677858679543 0.8897312428516592 -1.4898684062411385 0.41265105978386746 -1.2838601776093421 0.18825006783293452 0.03751457757986819 0.7081493197294514 0.6974398769724309 1.1655709502074247 -1.3916772210330333 -0.9744748829274723 0.8259044122974971 -0.7570524466186147 0.1120587091231303 -0.9120348101567453 0.5051780055628331 1.4058768987924082 1.0257814731056567 0.4008907371029668 -1.4854425045164747 -0.3502130627245739 -0.8630789475682709 0.05322461263038272 0.9778894608266637 -0.5286023702555581 -0.5952734289661328 
0.9299244644965191 -0.760346441851198 0.18175436401750353 -1.4404060656251718 -0.5298252717364622 -0.8945699809796173 -1.1060513435250743 0.6842918555830871 1.0114820408726872 -1.3320149341282739 -1.388668594388932 -0.37565522602508294 -0.9760498276598142 1.1015574720462609 -0.9586387744282476 0.5846615482834783 -0.6435031439798364 -1.0960710479360058 0.7851912720643568 0.13608954444620286 -0.17591993704996287 0.002464892605680425 0.5159299312547647 -0.8208146632117794 -0.24864405050911023 0.9319551710940228 -1.2958313300786517 1.1373284904738652 0.23646582419515322 -0.22269078437041778 -0.4784586458796208 0.9358252400209417 -1.1999777722914144 -0.27676750114216153 -1.2688493882246428 1.1532174079934747 -1.4925319435338957 -0.4782373147845626 -0.23275887834759115 -0.5176210564492038 1.4565734366551026 -0.24293802587807378 0.9018049932134352 0.3811915744328318 -1.5010703194255657 -1.1815871106175515 1.359950402891864 -0.9447309976545801 -0.7539463085555235 -0.3284661726609135 -0.6763636464162243 -0.2116797968537876 -0.7966649993030117 -0.4699081478571756 0.39541266902911487 -1.287691387594908 1.164351585084089 1.3080431707308386 -0.4207896540054141 1.0578443047529458 0.9098537573645886 0.8044683483726252 -0.6448871854243144 -1.3148030818243999 -0.46764391096191354 -0.37597070870377747 1.4015179201645442 -0.10561558409683675 1.4667257128647213 -0.5944092362479705 -0.4050011933531585 -1.0657329725829803 1.3349308010144978 0.9069719789443275 1.149854532726778 1.168259988432742 -1.264019794312454 0.3403210881344448 -0.3917834471473464 -0.5601203910741988 -0.06491378227469531 0.3987263273079305 -0.35668139038603686 -1.2598032570539757 1.1129410942447477 0.11895101332939119 1.3519944250888307 0.8054786837500069 1.340638574372978 1.412705600638672 -0.23796557908830943 1.2465502590126831 1.0134549212981925 -0.055271995936768105 1.4233087374653313 1.36298239743187 -1.2082099351300777 -0.6774525957814692 -1.4706600333477802 -0.38464357867027343 
-1.4355490852455723 0.9663102502199961 -1.2060960929576081 -0.2813722433444823 0.2338479845602851 -0.9382048835422022 -1.4290664911885782 -1.0834859143419302 -1.1766623758577253 1.2277276012246678 -0.46370723306979267 0.4830722033407808 0.15830377256504294 0.1570913663503347 0.639723632985561 -0.8716760404744905 -0.7530663532413245 -0.9271352637359683 1.2901717251607059 0.7831385974403601 -0.8191424666254153 1.222890127359983 -0.08086220238830424 1.2115047688384502 0.320963103665411 -0.07036887996677335 -0.773797716699646 1.3549129188245452 0.6947953066899328 -1.396037836533844 0.7139399042343881 -0.3996773880527943 0.8616881319607336 -0.15875008163246154 0.49254869337996027 0.7254805128919153 -1.2674733554916304 -0.4292956650902965 -1.02014800537991 -0.372215975683522 -0.4502685398662523 1.3138431984325216 0.9950914812150025 -0.25877539673061756 -0.5270825525056835 -0.9142043406378272 -1.0071762977941852 -0.7191419187224826 -0.31935739806237023 0.13394361957976325 -0.6252192031890433 0.2913007738526995 -1.1100881985103654 -0.7571913431445979 0.7998021894854348 -1.4772027022018845 0.6734136001603929 0.296623592878975 0.9738283788140691 0.02863982821855403 -0.8774500261588147 1.0022505021511239 -0.6702446437548181 1.2927859228055691 -1.1921677544785183 0.22480099909133727 0.922204049063759 1.479186013512003 0.16843309482153385 0.3426125524639098 1.4833273890283363 0.27705491919539327 0.4207865491400366 -0.08204282722612347 -0.2278674324872714 -0.098546071446468 -0.36785178041294464 1.468103908124259 -0.42498567370574775 0.6231351412896827 -0.6550387572828783 0.6806126174538422 0.08850980727964378 -0.4113511780208175 1.3693517988104547 -0.5230152404364519 1.4406093844427603 -0.7195673764019328 -1.2978845877500544 0.5868082503161566 0.2800145830960075 0.815084412456262 -1.1674134196876884 0.5540763186812411 -0.20526690848736756 -1.0970128092623215 -0.3876487832128507 0.8567203981273458 1.291906871664062 -0.9907590322494416 
1.1752806479194933 0.7247223611598023 1.450196986875863 1.1557107746494217 0.34774784308593765 0.6934069060419553 -1.1115430754409312 0.6640870772268774 0.34102238471293017 -1.3146883950944817 -0.317115355547608 0.051551702477752905 1.1900842545230308 0.4562280359777751 0.11648979883570411 -0.46493651348946224 -0.28256681448804494 1.3309306332685698 0.4033269433875107 -0.20733411895631704 0.3864918526016985 0.9830111307360351 -1.4726073845043584 0.10250222880313896 1.1750171253466168 -0.21122323296593612 -1.2709388607588628 0.7738700094092322 -0.8448949463576023 -0.38099703405836216 -0.347550559691259 0.7350499927135465 0.8267082867040904 -0.8116924584103689 -0.15902092773794876 1.1460205694356815 -0.9097718341611649 -0.7570102964039624 0.025738885443379725 0.45720246522637104 -0.9792287066541084 0.6461734199595162 0.8432223782629786 1.0761220071413717 -0.01125346720100319 -0.8471267547225229 -0.006667987295444534 0.9752228968042976 -0.7287570401612012 -1.0595412987025554 1.3647367837813185 1.4033977520349754 0.6041706936184794 0.8363158015921648 0.7388413085330459 -0.13723036459304724 -0.2097550766106025 0.8970694357578414 0.5678715328437673 0.39833400361367743 -0.18862299540774574 -0.9047252016009568 1.376773128424074 -1.0086577159135408 -1.2919425623518268 0.6787271513380284 -1.4223354687060037 -0.12965364267305296 -0.47494430148234595 1.479764990055455 1.2093522702668147 -0.9350282527498878 0.2665265751757249 -0.7862200365627414 0.6193137233591937 -1.1336765361696262 -0.8805645753025512 0.6579680215394859 1.4777828690526609 -0.5273704771798035 -0.4454074027154938 -0.4251379852531958 1.1641019825403318 -0.46053456846823054 -0.9933984440425064 0.8766917109502314 0.7475829706969811 -0.14977134450910876 0.8028622757866427 1.1628154398245427 -0.7599150985850112 -0.771594024252607 -0.9762345256925984 0.5331233637498439 0.400884393284648 0.2612997686847096 -0.3117803448406901 0.8229440482662318 -0.6150706509471912 0.2624209169543887 
-1.3841988970245809 0.7306923642055723 -1.2754934029337859 0.6829250513787588 -0.9935159117059892 1.2793282805673059 -0.1287105793456482 -1.1440704718342511 0.8874964280960076 0.23539892866355944 -0.246458340047334 1.2994015473916787 0.8973922804361939 0.6619107081642825 -0.3468861308310227 0.3974225235671562 -1.0172108330024394 0.30025227719830916 -0.5998236549447575 -0.043327248727948076 -1.149132197186412 0.8023280070703642 -0.5098312364997295 0.2777425463057237 -0.5156298837164545 -0.9300432791864566 0.3429587167432429 1.305755881836319 1.3630670041944908 0.740214952290729 0.6228510364188408 0.22504033501189727 0.05300366593826621 0.641884140902654 1.431821968845522 -0.08604286744587425 0.4161000741801048 -0.4151047024931491 -0.8395796952098646 0.1743894918351631 0.6840313318629924 -0.8252409329548533 0.20435198528573728 1.3462807432813415 -0.27549087185472465 0.5081397661567867 1.3109158564923509 -0.9224703046803696 1.17197123497617 0.3457651659708039 0.12594012192426138 -0.1954915444590081 -0.8988349651401935 -0.27729094437050933 -0.27475770837310376 -0.5254151750307775 -0.6934715422628552 0.10415015529164201 0.09483173698315002 -1.1076923779435135 0.31595361693102153 -1.1761533022035202 0.7364441737142322 -0.22217131211574556 0.7783007288722112 -0.2572867188503105 1.0981999630222363 -1.3631641520196554 -1.3483831733484162 1.3137599517548464 1.3974298164568368 0.9951292199667268 -0.060037867370376405 -0.5621561791723986 0.18879250917545934 0.8789525103697567 -0.20148290786648293 0.8047436042909475 -0.4123442576692455 0.9967125474627295 0.8785707526552846 -0.09118244104577122 -1.054818284066717 -0.5116167635395128 0.5944461789527328 0.940749464265257 0.15438391025085224 -1.4236229581559852 0.6831669176560181 0.9611140322582373 1.4619163619232376 0.32012962843899745 -0.8357118719265287 0.9252220619267509 -0.5357236050950502 0.10152986629147395 -0.7672758178302199 0.8758395940430049 0.20790774973432213 -0.7037220901948333 
1.2928476561579887 0.40790636646959944 0.7200763622376831 1.308587822791207 -1.2497463654807193 -1.054919074529789 1.2688739046537592 -1.1401837285674552 0.00906688430107951 1.0201673827676938 1.0743798867713066 -1.3747394587761417 1.1628581533926203 0.7781902361096052 -0.710063148026298 0.9859040691080923 -1.3214441784996516 -0.10100835998432003 -1.0474021771306576 1.2415975528537373 1.383460293320263 -0.061438330731680535 -0.5415772737586336 -1.2576212416983628 -0.7882481936090721 -1.2067369348074934 -0.07096410963868378 0.3410570236951495 1.2659657646467992 0.22760401622771476 -1.2356519179222638 -0.7266641180387529 0.451442820548937 -1.306845814467835 -1.2111720951333282 0.638298465037984 1.2562894406721017 -0.37057060252373547 -1.4171192985377206 -0.8988652701203339 1.003274914655028 -0.7329869324416045 -0.753531631682528 0.10501652210542131 -0.4066394753980347 -1.4166451909154847 0.5878256066989264 1.0123490959865042 -0.010482386977208772 1.2509884306702377 -1.191726401121765 0.34493086286915037 -0.7567162153216928 0.2906775026258041 0.12179169863776391 0.24165841514712252 0.09019045656343452 -0.3362710346961659 -0.8061111817311731 1.0619234582579893 -0.13324309225774353 1.3228165177177527 -0.29165245268050943 0.7652159816935803 -1.2442782289111631 0.6610296175419224 1.0797831946263203 -0.37408543209622885 0.8536954768834207 1.2327214498300962 0.46764128488987683 0.3275880882012149 0.6073001260928763 0.16966048664936537 0.2075239682139143 -1.2739200166648355 -0.033261971374924156 -1.4840638087894722 -0.4256462645061527 0.14622765398843082 -0.6653414499946237 0.7129516852764234 -1.1053270949256615 -0.5629098044820195 -0.02703179255207493 -0.13882110529962607 0.6166320573842797 0.45497826933529384 -0.11866344197589883 0.15157088525882062 0.8741618385827582 -0.5057696764587403 0.6771115213722095 -0.5643095303294057 0.09530215433412209 0.535377914459397 0.08345761005596167 0.11773504421503596 -1.3333833500389647 -0.9571398185659499 
-0.9119877462783346 -1.1509652367036172 1.2940345388085364 -1.327868313476587 -1.080476707312932 -0.6379252859955356 0.8857686823301677 -0.033130419371625724 0.5581254151993214 -1.059799171801359 1.4310631489333876 0.29146813227718293 -0.746093122300792 0.4864062669602613 -0.33859089058274494 -1.1311192735311881 -0.9383434457147013 -0.3776662505999175 -0.6235726844290652 1.3748382026231978 -0.9100892344149092 -0.49209933659492217 1.400072884390639 0.5722190403340882 0.11532119660615568 0.23945704579677288 1.1546624556597433 1.4407623594679972 0.9255721205480493 0.4365945955047557 -1.0095464223282402 -0.12233429576741578 1.2538334588075812 -0.7343909279344712 -0.25853863263853494 0.10948150360219326 1.161631964130774 -1.2260364644415744 1.3778352233297848 1.3681887774147787 1.2233720144237652 -0.5197473742538365 1.498688835967206 0.011736289517276507 0.24130011877876384 1.4559274504724895 -0.613674213437373 0.377826104121402 0.22843162513257526 0.6784957394053873 -1.3885241495249072 1.374722130017901 -0.4040691605430819 -1.1811579490502264 0.7990630917398706 -1.27022000774602 0.4846909630315189 -0.3754216185320563 0.8151508707476964 0.6069245594238989 0.5922824031367289 -0.23821013140262906 0.24717965042470563 0.9336673640655154 0.8307149902343891 -1.0339146419869987 0.055160257216449515 0.759064819423278 0.3580638947518245 -1.367082890679799 -0.4640545478132743 0.3102876041434879 -0.7100635653119131 1.1076558842901083 0.9885964455737899 -0.27486460747043834 0.9258346077490659 -0.8858827112314899 0.4568879203888198 0.9157284627978309 -1.229791589247644 -0.6674844714590218 1.2523051630760333 1.3909383787606238 0.9348204167004697 0.8776431879407172 -0.22557466026845663 -0.7500715994127645 -1.4353037718601387 0.7968637547382631 -0.714680188087559 -0.6097172274735829 0.19274134117959157 0.6549099419820733 -0.4664119852579471 0.3005627104457426 0.6928848935324391 -1.0049689460297928 -1.2025449228066176 0.6171840502558551 
-0.3063465673607985 -0.7673177704378018 -1.2220127981530156 -0.7679797763972115 1.1169109666796335 0.8486222685280392 -0.8504706344086912 1.4636093541588864 -1.1986228782106019 1.393174656160856 1.477002426023742 -1.1576374516294268 -1.4056997577848775 0.7316424962251858 -0.28926551333472816 -0.23582430484590483 0.6695408725546551 -1.0864442376334273 -0.19661180458453836 -1.231093898893959 -0.9467107697516463 -1.235240715859657 -0.7160277913678826 -0.8636146595140343 -0.768139636537984 -0.05515455740574262 -1.126465987782672 0.598140385163262 -1.0601832183243614 -0.5674287761662321 -0.4135566213004416 0.35608213907245884 -0.41396599890616964 0.4910740568466561 1.3245421086675637 -0.2204169300400277 1.4224359976162981 -0.6923146972068888 -1.422472609712638 0.46783703964734125 0.7928499221029297 -1.0280911547612759 -1.0512438307728829 0.9720960528691047 -0.08465355285269491 0.2814686252921461 1.3988808905406636 -0.4457680190499123 1.3121118482901308 -1.1644292104067346 -1.373757622844504 -0.9625888276878012 -1.013731338973644 -1.247727378355465 0.794730372701146 0.6945077953987013 -0.8206441541415884 -0.22046229638679282 -0.2835526023084973 -0.12841412357983847 -0.42911819406011026 0.8132105957860136 1.452003034523696 -1.3433472876139838 0.5915192055981239 -0.8265417959485014 -0.5712558840764114 0.8313445729600202 -0.5904150128258862 -0.13019206095583377 -1.223654291481756 -1.322003279485304 -1.3850031619614058 -0.41705901463533046 -1.0462911665679209 0.4901296924411958 -0.10841051807541313 -1.2088807455728277 0.9804633594236726 -0.9361702179642082 0.13483065719123877 0.5129041969228053 1.1524866215260796 0.8092853675737075 -0.5115063623270723 -0.7135195983879831 0.10306270890993804 1.4842894596497087 -1.4583466314730693 -1.0686540893631622 1.482073586342661 1.2725903926559508 -0.06459504181934413 -0.005080268064488808 -0.04888361760649373 -0.6184868824106756 1.0827739895046267 -1.0243109068989564 0.09515031991492777 -0.0533845447099606 
0.6285878383364715 -0.30254275908518 -0.06995745427172985 0.6769695760577306 -1.1956612815955383 -0.06911700158771467 -0.7158836463034592 0.43017160760312456 -0.17230457152510256 0.5218478330999611 1.4446432965573182 0.7749257927395193 0.6759889580888992 0.6321777259551119 1.1917688269400082 1.4203063527253403 0.6132033785996809 0.1528524056693959 0.8815629951231648 -0.27834448905213593 0.7580639549794355 -0.4893133001894663 0.7607955312842066 -0.47027104339854786 -0.20502127790393293 -0.7736482703043829 1.1620954224067792 -1.4546741640434413 -1.4547205385790132 0.21515908134597508 -0.21269977536162524 -1.1195774887913414 1.4813837755087487 -0.4968483804583508 1.1144063495539906 -1.4453300359027506 -0.4969717792727432 0.4503657164195934 -0.27061661179137353 -1.0155023726412868 1.218640770626338 -0.28542440965859633 -0.24039448414294462 0.1026852680310132 0.9241248647984672 -0.6613836147975081 -0.058515927913234074 -1.2177616642966824 -0.2678505914921372 -1.1445871508927008 -0.37020160832870774 -1.103811612539457 -0.897532217968934 -0.40516258562802787 0.03875312886877705 1.1945948935438364 -0.6336777811501478 0.4095571061380948 0.15217472088816728 -1.0723323123503745 0.722836884879447 -0.5286411463193372 -1.2476319558338598 0.6451991611063649 -1.368690859242129 -1.004382860753506 -0.5076919398301972 -0.34693792649607064 1.0849929009437156 -0.2881552003786374 0.5990763616808024 -0.27839891088592006 -0.4318442351796315 1.1161483761022122 0.5200825502611977 -0.968698596514955 0.36361951677786525 -1.402765833897444 1.2069625018572976 -0.32396806828939395 -0.18245340705368568 0.10171719994685834 -1.4408159374285008 1.3811275476810068 0.8957871213979655 -1.4587850269618716 -0.29308195227227074 0.42429942979902024 0.8502634645139171 0.6438558906289726 -0.5087427705879306 1.4753871028247718 -1.4628480278480311 -1.3281022660279 1.1054012799084076 1.3911511241836658 -0.8898757085204548 -0.8227438674136642 -0.9969535012395957 0.7323075553603364 
-0.5569775781615005 -1.3554193238335202 -0.5357690014962471 1.239216173029208 -0.1078192988593923 -0.8899881775993789 0.0455935850579422 -0.6877083856362453 -1.2759184072436527 1.4581473982693443 1.4440199147236263 1.3697321218978467 0.4139211954538485 -1.0913170400607493 1.2884628115665755 -0.2780956215373909 -1.1840128436232469 0.14302058577327548 -0.9003192522611969 0.9081842203235676 -1.1823617421742176 0.1369698060657035 1.4203678156530668 0.48465661739006827 -0.3827426500469466 0.38121141922761576 0.7927730138990229 1.1013208376491048 1.1175708421338426 -0.7430301687837954 -0.9624659866972816 -0.790609978660156 0.9950318168361251 -0.47411085349768844 0.34203026200042613 -0.24524593790999974 -0.02997084015124901 -0.29409784956000523 -1.3563242796981472 -0.5093841310181104 1.4386884994914761 -0.19439884411971514 1.381583895452199 1.1065551904873647 1.2921470874677916 0.43417052966141023 0.3025681770747162 1.367758416427944 -0.2427909698747999 1.3282510861545394 -1.0771297416100822 -0.9121518466911597 -1.4407177408327543 -0.935368012344856 0.5467713483817466 0.5770024971062766 -0.18690454487070626 0.27444451433565575 1.0269714286228042 -0.07811465790960755 -0.38124774130896233 0.5082495834329649 -1.2677807115643385 -1.0728292632339589 -0.4461770589399037 -0.35178334078329737 -0.14529476922129864 -1.4386769904986638 1.4453986449520628 1.1519592179705305 1.0877014567326029 -1.1549770692455874 -1.048441694384806 -0.8974196041992342 0.6372236557117288 0.45606363697602753 0.9635595772404676 -1.4301411020465196 1.1400424690193875 0.6638626987998604 0.5784747281219029 -0.15032433290181282 1.0971268430345695 1.4737420292893795 -1.2229177343202533 1.0961960886748887 -1.180824557229621 1.1890846520795704 0.1877587278004744 -1.0873357013100038 -1.229689506233322 1.2837973511431657 -1.2632703782024564 -1.4271008151905917 -0.978472530161844 -1.2345050737303944 -1.1039808338402226 0.832590443015803 0.8914055294743626 -0.07633074062866783 
0.5731244342454029 -0.6179544779984052 0.34368764329658363 -1.243224496792733 0.6885029049493269 -1.2643312010672232 -1.2149767702974954 1.2331866365957485 -1.0987115606913138 0.42415568511115925 -0.5945490165136718 -0.8011562765801566 0.5480193377473804 -0.377319534751006 0.4233529262324665 0.6559670936905627 -0.6390636268504684 -0.22214252374517052 -0.4611120872995322 0.2258970856084742 0.8826299584728704 -1.1398364061243373 -0.1276401749486488 0.8016974524952307 0.750300406925787 0.9743279150055874 -0.4280543684193368 0.049768409684075025 0.03799583961165014 -1.439204969226501 0.2504745335884871 1.0165608232268584 0.6905954826569641 0.22199805415419768 0.7106917805070204 -0.9824988682461767 0.7659329578208387 0.23318167792182407 0.587376885083134 -0.7652202484895329 1.4611639174429134 0.28838538418325166 0.35936254754328306 0.008536826881873107 -0.5320549139225789 -1.237863737976344 1.0112496624165717 -0.25218979918285145 0.7162336368125067 1.4423584718523343 -0.24752073145880274 0.9956705511031004 -1.0740829782202699 -0.22747939594066444 -1.2680639471493445 -0.029028737443882874 -0.9232385284493235 -0.2068437994317 -0.8178497441927143 -0.4010141100701131 1.2986793770774916 -0.9415206766016906 0.9023520436080443 -0.5596671280920866 -1.4108356209410067 -0.7215845471070481 -0.046207918239723776 1.0099709162673878 -1.4132884972148756 1.0869743315388605 0.44026715246008313 -0.08427858950278505 -1.3372024495931614 -0.40058362662451397 0.5038643858319213 -0.35279942159289895 -0.36037491435651714 -0.5981237977672389 0.4345737055708807 -0.8896953102258917 0.9837070400582303 1.1103294922717284 1.068609885870837 -0.7520292150642063 1.397396314730949 0.13131866501575226 1.248853428776493 -0.6198928501390432 -1.2756345330748693 -0.309599011658236 0.2385449603636172 -1.4302542259241515 -0.8366196598560237 0.8028568857618837 1.0105028862952248 -0.47504297232714476 1.4979045853786304 -1.3330013262396891 -1.0659356166195608 -0.686108353688544 
-0.9775383106156113 1.4218656650926877 1.071420483883647 1.4591760647915468 -1.3727315439888297 0.5111839006087117 -0.3815429102043116 -1.1763467343070548 -0.41749207231941626 0.3935820366348852 -1.2857823714984153 1.4044547690083444 -0.05169535056874131 1.0753119523888632 0.2865640276081885 0.9016511199808269 0.6734751954284179 -0.14117050875077525 -0.21312632703586318 -0.9311242574441153 -1.3529162209607402 1.21459170933108 -1.178936783030132 0.06807955834143578 -1.2539783463091918 1.269807741573359 -1.1634231321320114 1.4718858286843013 -0.1266514896774361 0.36487514777325675 0.21959428025891112 1.3781195637784973 1.3785093553042183 -0.5797770958400921 -0.3540014706857243 -0.18823396158784234 -0.24348290392865168 0.31577306668656724 -1.0373390254635528 -1.1426240468834588 0.40087325483240566 -0.5074330867243182 -1.1262039826683434 -0.47831384196876364 0.6285622499864779 0.1282500365471765 -1.20164081724928 1.197486243970419 1.221816855234886 0.43382645568080114 0.5529878642684348 -0.8029539408786465 -0.9998276883529811 0.1284115681851651 -0.6696362965249816 -1.4248703683871713 1.2448988885648886 0.8242451916247919 1.1039698550875923 0.11369164728148241 0.9108725734549888 0.5180843942911733 1.3169231692447294 -0.2684086559724467 1.2257563088724255 -0.5691269231387431 -1.1275481538845635 0.581185783180709 -0.2106696545286469 1.499180805062027 -0.31680578500696704 -0.9256684143621059 1.0427212263457084 -0.4614549270395682 -0.5021254999801266 1.371406002020311 -0.2669443157019137 -1.3903770755717546 0.7099938748880568 1.170422716015417 -0.7088445809478996 0.011865464126749391 0.37388270025343473 -1.2073646109462182 -0.21557797766041634 -0.6557104213110044 0.4140009777744854 -0.13668203824802594 0.8623846418868953 -1.045930340648535 -0.5722437312061802 -0.5162730960112616 -0.11790083751837113 -0.8472189572630162 0.6607613551002398 -0.9728881430001435 -1.1526136424562041 -0.08425207576927297 0.5975569894666074 1.3602998195559013 
-0.5242328785398429 -1.376144567837231 -0.5177699258591982 0.5765265915130477 0.19590765994867776 0.2500246983768808 -0.26105051926855105 1.2153609627317206 -0.18090004459705034 1.3288264966466592 -0.20669149520285357 0.3869550470794838 -0.7058802785375401 1.2477270810116456 0.2954976087488568 1.1994141634644695 0.5451790375985879 0.7857034114432642 -1.108675244671836 0.09108925342099394 0.6264792683158431 -0.1907602470517611 1.3653694335362765 1.1487920246740764 0.07795791809949115 -0.8501732655088787 1.487878865155556 -1.1014873948636206 -0.49924684424088417 0.029875021421368553 0.3881294769984127 -0.8735287835240346 0.9714965430465843 -1.0345189193422 -1.2630617031595222 -0.9157682088957116 -1.0161199019412495 -0.14524616729009798 -0.5502808135387632 -0.053743131843861924 1.1440294209640607 -0.0405646034446292 0.018940400831357174 -0.3783212160692351 0.8530503421285038 -1.2946766656113842 -1.0489496004398795 -1.0257884472288188 0.6857044771203027 0.6635232005036613 1.1179002363124413 1.175027562715369 -0.8814987231722167 0.7298361234483246 -0.8635989764477955 -0.6969305133372438 0.6735845021108835 -0.6063926952399397 1.162617311131858 1.4156676974122249 -0.5733769198581511 1.080136418246826 0.7277064529162369 1.1394813411051605 1.1775052577626655 -1.1377268987243303 1.4530757984404943 -0.6223199365179193 1.4019683388203283 0.36709572121995593 -0.3391587115408823 -1.00606868061219 0.39038476166870284 1.4525927599776125 1.0431304295642105 1.3171571056843785 -1.263240905511902 0.19704215978332051 -1.330015900518581 -0.9868280363935317 0.5665770758454789 0.9303054266656741 -1.2994262840239443 0.2902128079467112 -1.4135145927327835 -0.5584725641897491 -0.7838405877584947 0.5450197526247949 0.20186353384852795 1.1217568647584408 -0.38432327775726005 1.4145248105124044 -0.41981139964869607 -0.35722543471182977 1.0060510297267702 0.7753551002854664 0.6386767211429896 -0.1650583613279144 -1.0207022312372538 0.5292533619170272 
0.49787464169050805 -1.2957780643109902 1.106702028446592 1.0434915030986827 -0.9652924033292759 0.04929907227814738 -0.7061026948793718 -1.2643620184979265 1.466695688807759 0.7890092447329341 0.33794060583946817 0.062227276542460255 0.3571444632383691 0.16346392105955287 -0.9071582497532238 0.9141175650616424 -0.882746573742217 -0.9881189368027821 -1.3750309021508296 -0.529842428457065 0.858186394083074 -0.20768716772191043 -0.702319031900655 -1.4825661346629395 -0.8707980595757062 -0.5280132163859789 0.25330358764818534 -1.0051829611550092 1.282202400070682 1.4407395495282482 -0.5442710372457356 -0.12313957013433052 1.345722177449618 -0.4718280293915896 0.32471712536851927 -0.6008328691500021 0.49254487110704726 1.0952572673464862 -1.0869373061272385 -1.2092138991114685 -0.3081056741209715 -0.4215156416770768 -1.0068420186335025 1.112855317865164 -0.43327735116187355 0.3385479362003513 -0.07629732944147444 0.6710010745731722 -0.6188661792745307 -1.4130477100631762 0.959442396408743 -0.014223336948491646 -1.4741580950903201 -1.2232696385293167 -0.15932080874169463 0.9820921773664354 -1.2510542095004389 0.12191951552888118 0.6266967951396925 -0.3687841422140327 -1.1459171471680432 0.9612943182082547 1.019281926821092 0.7615673502964133 -0.3629266837643749 -1.2041147058745159 -1.3039695266517615 1.3400739501267338 -0.9606480388883718 0.593971587328402 -0.7022591541630189 0.8865541013275083 1.3130346721891872 -0.799497267770933 1.2240738192739218 -1.424433974783451 0.528994528416336 -0.7353764535393011 0.05806716146227134 0.9629613518496755 1.2541771681672664 -0.20491459629989875 0.21380695033012673 1.3584414273178718 0.5530271614194704 -0.2459959244214567 -0.15382118546139523 0.06902501560674205 -1.4312892280096758 1.3953417968561876 -0.3905257765418904 -0.6525886313128988 0.20422268296865956 -0.41603804965891733 -1.273843415683444 -0.043723097638537246 0.2487964323989298 1.1516450218625824 -0.028036178272124106 0.8893706507512336 
-0.48653101826954726 1.4919494739407952 -1.3926718592125416 0.16628475816999816 1.3616757992817912 0.12823416879555496 1.1698613340969382 -0.8968038689014635 0.343049017246671 -1.0466135241095231 -0.5156280487866557 -0.6901553905516269 0.13461989890938844 -0.9791556662018374 1.3067489017368958 0.1468955059265363 -0.6956005653406868 0.00348045660260643 -1.179348869620458 -0.3958136048098404 -0.13922317418864483 -0.5597813218053133 1.0964067966396345 -0.5685599887673092 -0.8450974960877188 0.7999955855532584 1.3559132866372765 -0.029228655747976343 0.32803380171005075 -1.0711454069512842 -0.2079296270757184 0.6366322056733892 -1.383318716647227 0.7705623850577548 0.8002230864309378 0.6931483595697179 0.5991010973016462 -1.3257602215577569 -0.41431501986882907 0.20727854666476123 -1.228116543519978 -0.5413674415900237 -0.21931213088818502 0.40555511966638785 -0.09340707838848691 1.3292153508965578 -0.6178608284023187 -1.4724140593826034 0.38134118927289024 -0.8468603180806624 0.40146080053776423 0.7423126374827564 -1.2570708919384077 -1.3317552018339835 -0.0777996654145998 0.3413315460131765 1.3496868339210613 -0.02174802964805949 0.6971776828165196 0.9741835724287538 0.255804258044412 0.11574219513195289 -0.1767893777446342 1.104421977455339 0.11674820461757424 1.2015245696290873 -0.36224720782910713 -0.5014958028376091 0.9238814648030531 0.7728022308563226 -0.7961931943395486 -1.2180553312880882 0.8663897571655352 -0.2938031933213641 -0.4279965622978612 1.0612476794001884 -1.1106978712311075 -0.8570641913273171 -1.1580776964635724 -1.1175734972785516 0.724259508362636 0.9927169762989292 1.0636324316864527 -0.09453920877804149 1.2184675848583553 0.39093682623953324 0.6650597420496751 -0.19998640166283324 -1.3885668677020755 -0.7965033329417319 -1.131035623940092 -0.4956059843234167 0.37651006464169795 -0.27226586053537255 -1.343123475143457 -0.044284161939882806 0.8171416921929512 -0.03980809381784025 -0.8062874863713432 1.070972266129878 
-1.4841656387493927 0.482580388952479 1.273629897734061 0.07680686713230164 -0.7204899937561398 -1.022587113736015 -0.5454525636087004 -0.2811396541724053 0.2959261554173192 -0.17770024767221138 0.19901449295231777 -1.2719152594772063 0.38528406955463446 0.8801714189921314 0.6319891051043263 -0.6316489142613688 0.2923158140709553 1.2865016783937988 0.5336728784829888 1.0640204959921065 1.1214884223920205 -1.4795396199652138 0.3034260264474173 -0.01695414086340597 1.3405087268081368 0.42991118438377735 -1.4188587915282411 0.9907725140082255 1.121466214619266 -1.1524182389942272 -0.6626546566962269 -0.09807238662856972 -1.3762814809926824 1.2984638186075603 -0.4349594400668222 0.5988268712989974 -0.6606175279995136 -0.8695945575859315 -0.9542057724864915 0.7922509532580739 -0.43843819643566645 -0.2754739429678524 -0.4837120276743707 -1.4784262052018649 -0.025155889189813326 0.8962072184728408 -1.4534714134467965 0.3206437924576567 -1.3559984580353697 1.410683348137378 0.5716189498830234 0.41960027559701346 -1.4065435102039614 0.09339714916441932 1.2536294414438924 -0.032053466062005556 -0.5716513920336268 0.328984640901849 0.83541339643769 -0.20504971344890824 1.46663194542648 0.4689953931443037 -0.1589820077521121 -0.43410261273202616 1.2477160960950302 -0.8763383214045295 -0.6674826612738726 -1.124615854052935 -0.06573906530465358 -1.3942182277770925 0.2939993906275534 -1.0902125828753542 -0.5513432965662012 1.253291713149956 0.828731567009667 1.3223923285507824 -0.9336943961977028 -1.2564445601957372 -0.13430803760313298 0.16846300342993226 -0.807476559145937 1.1934919421123862 -0.6698995445910857 -0.16746853090475267 -0.2246398118189716 1.0491697030568603 -1.4237882155121175 -0.018185224026969017 0.36637748190355574 0.030245099298893047 -1.0995866156330454 0.16589413147556814 -0.4768004534150827 -1.1631236789623336 -0.7537123411019854 -0.3506346328503051 -0.4591946791848078 -0.8971597730012543 0.7974777278825906 0.666847324385678 
-0.886927101684613 -0.8540410250756677 0.02064039577907145 -0.3940019112154339 -1.17079452256775 0.556938779998882 -0.9622860101244426 1.0237932348075909 1.134811441202278 -1.4556117477293018 1.0882933489831919 -0.8191598231806302 -0.6513288345627621 -0.9045091257170027 -0.6554035465546775 -0.7440312456016279 1.037213972183953 -0.828495464612146 -1.4307290632264427 -0.5185611657102972 0.9866091162945126 1.1002487326360164 -0.5505712392674096 1.3480212665923674 0.004685267809938675 1.2015907714644838 0.6043188441662521 1.4666367638409012 -0.12134154014814702 0.06264688788667562 -1.4017739964335851 1.2244172636462862 0.34984702806398293 1.3253886381012543 0.8602031185721098 -1.0579878449611317 0.22457609010502805 -0.022949460890881953 -0.07100753423248066 1.4120445169370972 1.3465453338323887 1.119097749287229 0.5604967222219167 -0.9818044276871137 0.9209097107338723 -1.0437359717117247 -0.6260714783860177 1.403932552896283 0.5124129434807904 -0.8755630167932368 0.16203961118542073 -0.9117966431074008 -1.1422159047659297 -0.5489684919269556 -1.171940976410676 1.0018187340121165 1.4584225746728092 -0.9371641856817684 -0.29965260794376364 -0.5767930947852019 0.7437536298343006 0.9131431593457333 -0.13321761392536133 1.098862207582247 -1.30334327866274 0.7426343378747361 -0.7902370361123771 -0.012754293650988546 0.159317960494983 0.2637160246772497 1.4585747273459087 0.12936292181488956 -0.8643139297732328 1.254610731225062 0.8672230439594275 -0.8898694468540662 -0.00968610102179364 0.12547943735627057 -0.6301062520979805 -0.21569364555788686 1.1307972535947144 -1.327822245355262 -0.45122827950550887 0.950331627254546 -0.7354514091731645 0.38575823406968246 -0.20359207843115362 -1.2467457016644856 -1.449348491621156 0.4532892485659111 1.3117701547665033 0.16918390958997975 -0.6028055312444013 1.4586169265706905 1.0644773190809882 -1.221554243112455 0.6447419703218102 0.07077424051355716 0.6763338683608756 -0.2501024731748061 
1.235475010514444 -0.4807942122126658 0.24743455442200857 0.08311875269858786 -0.5443701473867053 0.6195911435502488 -0.3056393217747497 -0.3921647093134917 1.324621021822498 0.4740192943879346 0.26896921046125655 0.051860466317970144 -0.6618059311951633 -0.4450580631329747 -1.365010944798962 0.7628589520216933 -0.7401819443217974 -1.4663159713209484 1.348658248658937 0.8811379531556143 0.20369988741511164 -0.38860732469024717 0.1268916080994251 0.5377131967946264 -0.8413083830017363 1.4612579004094832 -1.3103369158486566 -0.8709964958448864 -0.32768803754035525 0.7194534912926294 0.4953846531489997 1.1640086019688844 0.8574781473975155 -1.0558030700590262 -1.494425370789306 0.7840122668706527 -0.21713698405338747 0.43565745716498305 -0.1837648768150953 -0.841717106576227 0.6276583710177996 -0.10578939073304208 1.3667889737416514 0.2622566258102713 1.4869880422188724 1.0513540776823127 -0.7539479578834672 1.280051201036333 -0.7231865996805309 0.2755432463049269 -1.138713494972678 1.2658105836120632 0.683058854746694 -1.4128103985923486 1.195213208024005 -0.7472722913731814 -0.33458622701394247 -0.14703912244865544 0.47201242087378004 1.4741416911669538 0.5929742903263091 1.447908881465618 0.5768364413027561 -1.4090463833074887 -1.134606156729483 0.25079507671973644 -0.05522252625074012 -0.44962761398080575 -1.045916797252875 0.9075929909847359 1.3542821541186352 -0.4080019865470995 0.5902612062317687 -1.2119972106270347 -1.3196423448298813 -1.0330757272830744 -0.85921775722473 0.3316869078144386 1.0648312456567388 0.04094620774332467 0.628760638653919 -0.8136134153048422 -0.2993342293816607 -0.5297400856558598 -0.9472397188054921 -0.48686518378440635 -0.35706766707765114 0.1873611857224982 -0.3756374019407569 1.2643710760669054 -1.4011222801177987 0.4684917748378212 -0.30408677911675625 0.40680768680396606 0.30837565448461246 0.20435807914321172 -0.15140818204360526 0.9301706160771498 0.19324544965298973 -0.8470933541402466 
0.6870556469719908 1.3868772106363922 1.2285127322001304 -0.9548328317889233 0.6094237840689177 0.18853380685590324 -1.2254079838032106 0.8834736920208387 -0.9973340607342799 -0.3130590578724657 0.3934292781197126 1.4601613146667742 0.7002223319611514 0.13637237544747957 0.6357515055956765 1.4830653944475205 -1.3051346093222211 0.7442514246059957 -0.5540046610516206 -1.239836706447534 0.41868038030126065 -1.1100406943668333 0.6036838117257122 -0.24693920559560112 -1.5025856796814794 1.4089122470280104 0.23502670625122163 0.13502188232174978 1.1765908084036127 -0.8672766238698146 -0.8151481666493366 -1.4797980322788726 -0.21145310291937186 1.3377339475705994 -0.9355746061028019 1.0196662320713954 -0.7430486752285677 0.675712360865338 0.7281999962536623 -0.6117258280766026 -0.3942166217831171 -0.7524641719485241 1.494352492554507 -0.20665175629275936 0.8044525053949734 -0.9358446143851928 -0.9829954375258533 -0.06409454066633101 1.389743759751376 -0.4841323880753892 0.5645056671000177 -1.3806000176922504 -1.333427650666372 0.32696822599970526 0.7816384834449871 -0.6159332772583515 0.4673037619760313 -0.6338329050208295 0.21709671485007412 -0.7285847515011017 -0.19026648162135038 -0.4958601629919981 -0.8267904235409319 -1.0326360863700024 -0.7350703775614965 -1.032141754266845 1.0656469021030976 0.3049030190110907 0.5959273346175418 -3.0052428240426467E-4 -0.6566532131489553 -1.0736127040746883 -1.1589907002683177 -0.31120020226418516 -1.0771542039630269 -1.0478819151146914 -0.04756086963990377 -0.44775236435749294 -1.3181906716808218 0.5691285044414571 -0.7142330119787151 -1.410871147141133 -1.489388599029291 -0.5639971567856098 0.14138500361743275 0.060994126246396684 0.8830007024857753 -1.18985074166017 -0.7552006661335166 0.0342076766701239 -1.3703262169170563 -0.14706823797390228 -0.08912631916689495 1.4381213020070993 0.5038962003206832 -0.7116171271232875 1.0759661599808452 -0.2859068539109025 0.40079539872961634 -0.6583844250930299 
0.1553619798232319 -0.5242492143861 -1.409499945954109 -1.1515130598455996 -0.8555961940624327 -0.4193770280839671 -0.6760851239103409 -0.10684538656116872 1.2619462417926801 0.27492470907712147 -1.314276760498701 1.023268825908822 0.5533789930592085 -1.4035452232912327 -0.2697683191415176 0.35732505935774994 -1.2379140997010054 0.826428073184451 0.8403502209980925 0.9831207025589842 0.7260969881785664 1.0986618615032617 1.217882783825894 0.8429905781665042 0.06247849418831955 0.5744730520428771 1.2625018242494515 0.6264717729579418 0.6634785666578411 1.3441460230643552 0.5604573045214536 -1.3510450800094405 -1.3795585797569099 1.16524942633524 1.461264905287093 -0.8096186838759114 1.4321163261572558 -0.49736941061357265 -0.6393361153457021 0.8278670029812291 1.1046750222117574 0.9347903637324272 0.6114257876759285 0.5310653917020299 -1.2679007761970293 0.007118540725074755 -1.247842205870817 0.9639819036048224 1.1406722997582739 -0.5216052773678969 -0.11522248193524198 -1.2338514873826014 1.0784443603468183 1.2318002342969285 0.48278785161833776 0.07790703922010823 -0.5363916110332063 -0.5529598651721446 0.4019121475078353 -0.007654316910444884 0.2157911289315443 1.0086011197878901 0.3401452397349268 -0.2353275420304798 1.3995262173619354 -1.2716049776058502 0.8230412766298967 1.3162990078742913 -0.10552177284696848 0.9057215867692391 -0.09576646166919942 1.355301268105627 0.10840732849266725 0.19000037517864035 -1.1279737538233356 1.449933774314981 -0.06807952444829976 -0.06523311618772833 1.0614310354515497 0.43036130108434645 1.0229997758921092 0.8685260910177762 1.0766740317494667 1.4405611794303594 1.1368856809107484 0.7956257024537374 1.3390320209500601 -0.03864646743419766 -1.3837984674333448 1.4549353412063162 -1.0903976275366956 -0.42478571588698966 -1.2475195246634485 -0.28781572468133537 0.581099005427145 0.0633852720922793 0.8618084562818947 -0.873597205060794 0.7696004323709421 -0.001858362361526067 
1.423312194593175 -0.2844816168696993 0.4318102837624381 1.0130477468343924 -0.1894151657781007 0.21036815250404448 1.4698812904482847 -0.6308267737073547 -0.255548970048194 -1.198307194816046 -1.199753398748676 0.050027770548473266 -0.5827035228011578 -0.6081902251957956 -1.3431861855754164 -1.1089007220009688 0.8613851257140553 0.42452590265403656 -1.1818446444972843 -0.7051051855793385 0.8756508669152898 -0.8389930168443066 -1.3662752004034617 -1.167300867977483 0.8072806550328182 -0.9673212310663751 -0.21160989813230172 0.3432800151390369 1.3201301900902553 -0.05963075663819253 -0.051691261531296474 0.5623171117658943 0.7889858414281031 -1.2645942431719996 -0.13790321531230493 -1.2208297836216262 0.07209741498938603 0.035950398139411796 0.9070634430096712 1.0414161846916472 -0.1574032755957262 1.4936715994863594 1.0440990827097234 0.6416742483945402 1.374049487890268 0.18600480317806642 -0.8352103677817618 1.2560811572184971 0.3529104343019821 0.1111129392030051 -0.8526145036970609 0.404481493838762 -0.0572963889237084 -0.4279778389617682 -1.3654537201091321 -0.632198796254652 -0.9025760308782447 0.9913101311016849 -0.7759315997120342 1.0616450587283444 -0.22749971376263622 0.6463990244588683 -0.4884405175779966 0.5505930164762253 -1.3404167544943044 -0.28420796421288963 1.3718841769825425 -0.569141815246094 0.3138768409358472 -1.3679621657925114 -0.6707103467549607 1.2280088506905615 1.4559278314573219 -1.4955725365890231 -0.9253008823969282 0.8010862549463887 -1.2702457619576721 -0.849240278149811 1.2806652931915696 -1.1669393602894131 -1.2375369852094653 -0.6934753466150057 -0.7492051633439918 -0.6350459283637152 0.7206922014730535 -0.9498094774151701 -1.190445185235789 1.322589635830453 -0.31931739808694665 0.22886832778162056 0.046418517761264946 -0.6331723613756812 0.4518902226107502 -0.698582267251778 -0.1735853343669232 -0.7458627754117372 -0.6777656178710744 -0.722138751302156 -0.28333980240891493 -0.6534544682631033 
1.4497533882842977 -1.2755270211164071 -1.097093298127391 -1.0243770730878854 -0.5076189613176768 -1.2801428549978147 1.1099832568331753 -1.2733454498311605 1.4074690086636819 -0.167303000999276 0.49530696505183003 0.30936710270174134 -0.11124105390793354 0.6796622728232196 0.07119077524515131 0.9107439883923045 -0.7545944219011004 1.1346454002758888 0.5771769593912353 0.9547496308671538 -0.03650214492586784 0.5391378662639101 1.1028652367276497 -1.09412294149903 -0.019093608062444353 -0.5156983826550673 1.0605610136852375 -0.9792388780876142 0.12423404839961609 0.44882840346474523 -0.47327356596836706 0.366185906609358 -0.4980941291248217 -0.580541683584711 -1.3864340307062055 -0.16938185458827354 1.416744175115241 -0.0235242313097902 -0.8235583288036719 0.8694143218140075 0.5329743326310173 0.7978445001278949 0.3541895654426387 -0.11135679837981526 0.4347339816927261 -0.4596099510429411 -0.3453018301683924 0.790133285107245 -0.8313907487234716 -1.1736866983137053 -0.09100336517949474 0.45885992897471645 0.6737192978567909 -0.6437365846420661 0.24864029105344068 -0.5811351688179667 0.5080658977118601 -0.6219454135282863 1.2463950135117614 1.2096886509217124 -0.3124765726459398 1.1550300959461028 1.227333724247416 0.17686769452446746 1.1038952771488517 1.4893358584244516 1.0551542511290137 0.9237633600422686 -1.0315294169465097 -0.6460651013849545 -0.7671553167246916 1.498576059979515 1.3637060367791052 -1.0036665736211883 0.700498947515785 -0.7361480857223717 0.19701124945238932 1.0746404873756326 -1.0373858522437667 -0.5943197567038189 -0.8618543999766726 -0.08288084266187051 -1.193011237108326 0.9215904573259844 0.18154395957459485 -0.10207501560286529 -0.0495066467302254 -1.143774103621139 -0.6677928010703791 0.17804857539779628 1.3862800805728452 -0.06031198825966244 0.9263352805941137 1.1315935662638266 -0.2834698976897488 -1.4387361376225076 0.6859763645952349 -1.4826125251965778 -1.283957395331543 0.48249809636305363 
