Network Configuration:
	Input Layer Activations: 1681
	1st Hidden Layer Activations: 100
	1st Hidden Layer Activations: 50
	Output Layer Activations: 3

Maximum Calculated Error: 0.439011630469451
Lambda: 0.3
Random Weight Range: -1.5 to 1.5

-0.1402074407657913 -1.035094636811972 -1.0126249957595497 0.8101310335757677 -1.4605610201099497 -0.8071862990814209 1.14054579322133 -0.5020991636834808 -0.6823057424613638 -1.3823513919674268 -0.3825612449341891 -1.1640273988997245 -1.1488260182821173 -1.3837631081136597 0.6901841335646269 -1.1289513408852736 -0.9230344860229612 -0.8951243590090343 -1.256933605725157 -1.0928904645357136 0.14545226383585722 0.5986622823855186 -1.434669493793009 1.0873595449099496 -0.10640701865711981 -0.33474991765285317 -1.1669168545595765 0.4026055482407078 0.8832824793035032 0.2400003063158831 1.2287236541189537 -0.7268813763123912 1.4725698268423613 0.6776183087049401 0.5707514993790904 -1.10932919222781 -0.7261497359263959 -0.6225076493318896 1.2251102681314645 1.03021109565735 -0.7531713572560064 -0.11145648076751849 -0.36707733119250224 0.710158446269617 -0.1442900842677266 -0.3863331852938707 -0.9795613195241427 1.2637126942235084 0.8690501020126247 1.007209274559663 0.7659827483827487 -0.8454789375619383 0.6897490745340158 0.5541691962176226 1.3565521945889258 -0.15141541973463868 -0.9275084285215465 -0.26224825753024367 -0.3253209763210227 -1.1335238170883448 -0.3402832629848732 -0.6349390252556398 -0.7586606674824891 0.028745682588132905 -1.2627783140716837 -0.9426689138725488 0.6404650366991398 -0.4676272883318355 -1.0590273460383435 0.6693241640573876 1.2178757005417065 -0.5749977517738681 0.40471573518966125 -0.8169125043332639 1.0069074531771007 0.018950585215382076 -0.523854498897924 -0.9138889129289206 1.2227598601224576 0.4996255395524383 0.6783023030916587 0.6343681028482517 -0.2763256005730403 1.395891562155022 -1.2053509039842443 -1.3740763508478033 0.12696586648916555 -0.00416286445368123 0.35995946440108 0.2100743636905156 -1.0218180469453815 -0.250706647279036 0.8026254645984365 -0.2884738966572939 0.2007053810691832 0.9752925108403928 0.6709730810667999 -1.032902478146205 0.25628806275946475 -0.7932454817132216 
1.3740943244875816 -1.348821411172886 0.9050498783179388 -0.9189123674373265 -1.191117477466159 0.33386007991970373 1.3530294378775407 -0.5996330359769168 -1.279595490132374 0.7980398678656917 0.07133001146617904 0.38060507455004033 -0.10590046258454568 1.0870289292562296 0.6409029109618566 0.4802330379596076 -0.14703087409941898 0.7721068588123189 0.818295837623256 0.022241748799527776 1.306359246452911 -0.2755363957779741 0.9498884379664618 -0.15556675347908222 -1.3414784247802185 1.325720116405851 -0.39098192769010576 1.119223159939827 1.4397220940156628 -0.5034570265380601 0.28005302717456426 1.2849422057486006 0.7672382001077503 -1.2080465438674517 -0.9519201192014337 -1.0032098268849372 -1.4882831918787078 -0.7128185565780247 -0.6127789662772223 -0.46796403762571787 -0.5517598112890877 -0.5868229285115931 -1.1060422806865684 -0.3037285650208799 0.6116143989691765 -1.2820140303013408 -0.6796709282827267 -0.5530836296085816 0.8982810331530875 -1.3366645808416646 0.7876005411585465 -0.8202041311587392 -0.9940146088614942 0.4774258725194245 -0.14042926125390792 0.5781601697037256 -1.499431968489686 1.4963028960973415 0.09082656091807635 -0.29347441751943887 -0.9312569653451179 -1.0512029286200868 0.7933324303575844 -1.1377900501541018 -1.276462694751423 -0.768184586428791 -1.378941303531998 0.354685595339674 -0.23353078479852168 -1.0545980436689006 -0.40811603600730884 1.1946495501134133 -0.20123289695608215 0.3566738352001055 1.3015684186220415 0.6984063175389558 -0.5870864921539286 -1.1855528310149035 -1.3371481997692785 0.6353443767507351 0.48738811084451733 -0.4483163046017378 -1.2129010383057777 0.9681502755897321 0.9053124793147854 0.9304528302497309 -0.8672082602029262 -0.39900128525859574 -1.3436810265955907 -1.352425243334005 -0.025834040988221337 0.46490820364165375 -0.050243659670071036 0.26027318547054384 1.2918363391815715 0.5665372770043696 0.8926178861868745 1.4279423453797815 0.6091998688993898 -0.4718710473852305 
-0.028686478846880598 0.6878996979821363 -0.02877558787095794 -1.2305532280566103 -0.7217749859347008 1.3351694004599044 1.3923597641737162 0.1471650000736629 -0.43191912126011306 -0.7863133106455852 -1.2084156441442553 0.151564634281021 0.2545586082408867 -0.34480619402910523 -0.24246563510534475 -0.7444076843696239 0.6957904404393733 1.273669831456763 0.5035967762113084 -1.3628689153229883 0.45622941999912775 -0.4027402489713677 0.5618461796825678 -1.3588022773553061 -0.018004677872558533 -0.3607558545622711 -1.294102822811923 0.05098045542768452 -0.5874071553373302 0.40820215860930303 -1.2263978276883862 0.18974625614979385 1.2163391160671628 -0.28381882670955627 1.4065112140932206 -1.3280055753218558 -1.3715632220320233 -1.422411332319047 -0.9172961176106457 -0.821539773674921 0.14724513724261926 1.3920729706217434 -0.2170766644981029 1.2030983017855132 1.1109948328735744 0.39461909947102025 -0.6241046693246003 0.8505669605234709 -0.22580277408552962 0.46336993309028623 0.5170385810472942 -0.5331603482202766 1.2125387122069335 0.7291830630108286 -1.0814031537167803 -1.1954190043619495 -0.3279068021598119 -0.6076893872206094 0.970847370088255 0.18005858605958475 1.0830369749139404 -0.019062726356129746 -0.9627222714950001 -1.1270415515743477 0.8078440881614615 -0.9433405275049472 -0.13350601175023522 -0.34869384490970406 0.46604124390982754 -0.1176592808511618 0.7379664215094648 -0.9141584172523763 0.9159168848715298 -1.4545241353276832 -0.6364545369041504 1.2915147132430789 0.48640954011771703 1.3000610831666803 -0.6562744671171821 1.3648343898355892 -0.4044659003844167 0.2898810623140248 -0.5271361523224217 1.131363368778901 -0.505944034253478 -0.08202011566329734 -0.061478639829734325 0.1665286834413927 -1.2669247286836574 1.023617438934153 -0.42119137643543075 -1.0073432199852017 -0.6563097330413845 1.367709512065699 0.648556892787025 1.4784977734547669 0.3543815872884962 0.4246236880096861 0.17771931665401414 0.5200116433660694 
-1.310590719900432 -0.635244096613317 -0.09764313351504854 0.5367087901807204 -1.1075226112941943 0.3318827888741102 0.08658370491569052 0.9779265778740912 -0.9855570365087749 -0.1561739411278102 -0.5191758251176333 0.3686612329622754 0.6922097042272417 1.0065343927322834 -0.8121545225328146 0.7583971021005016 1.4883932991548179 0.21499547900773303 1.455084013777097 1.1427642224110652 0.5030238987609296 -1.2786067988024108 -0.18361372877192775 0.454878266424232 0.88134750641508 -0.9325566860437245 -0.8305688528261513 -1.5020952072354963 0.6993508205080506 -1.3005737600988385 0.7552439166582237 -0.015833622282029034 1.496049305890015 1.016552344067668 0.6156832873937621 0.7246635283834406 0.6852692674006988 1.3236008698516064 -0.37656927329025597 1.4670671505889141 -0.9017837050054291 0.748614835738809 -0.5763650063961334 -0.5418086909052827 -0.6459866947679243 0.7599969239404117 -1.4869551963344865 0.8883251884742089 0.9320809147596604 -0.8981717067911397 -1.276674629968344 1.05789489679889 -0.6129542640000335 0.7473148552242641 0.5261966375320979 -1.0141052236215948 -0.7978519124384653 0.8898174837003859 -0.9834996382206624 0.9137435412211294 0.5511293229086746 1.3526128210693167 -0.0417658128285884 -0.09097125631701629 1.3788304584546691 0.9329108248754958 -0.4025012745682287 0.3876970760122454 -0.39934343772515407 1.2803900153863912 -0.6212673935064343 0.11163142948136921 1.2817971974852809 -0.712386402557201 1.2928953997601962 1.1635879099791862 0.3169553715328108 -1.2702491931605358 -1.4095912732814306 0.010884237783101481 -1.0715872021587798 -0.2149546568635478 1.3273993521134955 0.06677296417332276 -1.393476465934516 0.572437608034291 -0.8681290724037887 0.4938723215120383 -0.30923663997040457 1.293486313753025 -0.02022993823190863 -1.114287626873911 -1.0680084006939787 0.2935669858074209 0.22184360083732707 0.5617991892641554 -0.3201567296819887 0.38920833829845164 -1.0156827248936935 -0.7425133597887339 
-1.4808129292190404 -0.8880597553340899 -0.8325643886807342 1.3439782837213483 1.2743201985758301 1.2406342184186911 0.8342465744454041 -0.5650649678459769 -0.06152131983973957 -0.8256849649587865 -0.08422562838346452 1.4705745044336025 0.4452141976585274 -0.9710496441334174 -0.08831322081016829 -0.30076675177571993 -0.9727456520324678 -0.20465101533262028 -0.26997226426523746 -0.3425934677548358 0.513447952786704 0.07164818329078415 -0.5699990007878355 -0.7869139605129731 1.2559936746627256 -1.0386311042927323 1.0152042578237872 -0.45524697256290214 -1.0119763119643579 -1.4606941948997283 -0.9707784381059414 -1.3935779316604733 0.37976132220570136 -0.3429061025074725 -1.4812647803738253 -1.4526140728305568 -0.24031062676592554 -1.424252514348367 0.6861247431410761 0.9422089317111416 0.22040045546677578 0.9612485712641003 0.0049105945586481944 -0.7580121335205248 -0.5549612467394004 -0.18094708024937672 -0.3321533633852107 0.9094962406924229 0.5589765001571216 -1.399356949339136 -1.4676335163334582 -0.6511582752519499 -1.4854008321182497 0.9674209109826937 1.047220303568112 0.5940385458816985 -0.631428230285107 0.5690905476610085 1.3494567256990033 0.4159885001637399 -0.7585035572246838 1.0594885111945282 0.4264390414909468 1.2339030493961936 -0.3542425741871637 0.12922846229191534 -1.179055983527592 -1.2041777746642863 0.9660818906794417 -0.06954280155426043 -0.041107446143939345 -0.6979779016696227 -0.3470742683808632 0.08459702982714873 1.0316935177455746 0.5576874754822126 1.0669151335559992 0.7126017036304682 0.5596329825129975 0.3205643881100462 1.4423205895758933 -0.7173831900877822 -0.2552607477211771 1.2728803433964064 1.439971842597543 -0.9679071047244768 0.8197765490227327 -0.6340594976758389 0.07452765446774265 0.6675184774489116 0.26652154620323926 1.0942313747992223 0.6443722354235617 -0.784899923798613 1.41173412984773 0.42689360160541906 1.3308049587875792 1.4131150621245196 0.028019328913531268 0.02063379152941475 
0.018545488455265366 -1.2017389840637518 -0.12217467868455754 0.7251479744831804 -0.2932610131245544 -1.161965445238279 -0.06623688098165652 1.1129975031405535 -0.75139162498349 1.1062968187396962 -0.6451807824127868 -1.139219754027725 1.211133769704682 1.2900043317406142 -0.7325513531653461 0.238943807717766 -0.7659886869276256 -1.2426249149493362 0.0970534654390011 -0.48635087950422234 0.5089982125924387 1.0435040751038476 1.0155577037119305 1.0380681504327414 1.2127282654099498 1.1706373269566344 -1.310092464157213 -0.3880461709614364 -1.1403285619884826 -1.0204274433576503 1.3288877857788641 -0.7307858359795123 0.8832046151099904 -0.47566006438297015 1.061225444507767 -0.3929495405983325 0.10950338655727755 0.7197461421448823 0.6566750054160483 0.08311989979081806 0.23154226776014358 0.9838054282225028 1.2597630413102638 -0.7497268852919005 1.3069987821925384 0.11264622683104025 -0.8498591050940009 -0.08629852597554627 -1.0933314292669172 -0.24571410256628504 -0.9937755831402668 -1.1914019813827479 0.5047466416776085 0.5590897944856187 0.7483164395471562 0.22945886295902743 1.284999580679621 0.4499185373448278 0.9101815166658378 -0.3050550368890421 0.6422202975763514 -1.2506584309435997 -0.5596451820554724 1.4269356920764718 -0.6827877704265863 -1.0270646527644187 -1.3676050900391374 -0.01173092118500816 0.88902190359005 0.12826607946501525 -0.3094013589498285 1.0732287142275407 -1.1315447694702079 -1.3461129294289131 -0.472884447495711 1.3512672697464683 0.7026914573186239 -1.1514464838971394 -1.214409638865654 -0.2050945585016202 0.28999036697837915 1.4937790446095673 -0.7005363156212328 0.16651274847205172 0.2827919770453236 -1.2764281528846102 -0.5097790391472794 -1.372527460461608 -0.48425147792512374 -0.27598764128505576 1.1244927925485604 -0.815409141094223 0.45972087676964324 0.37960451568311154 -0.3245608789849141 -1.1210725177707181 -0.6572951077529803 -0.960468932784974 -1.1066521640021585 1.4378176665347604 
-0.8105419205729827 -0.2312516284478437 -0.30591169751821107 1.4797543987371473 0.5860551959061469 1.1351001225015052 0.5278862496898195 1.088742666608011 1.017177073027249 -0.3085043662480658 -1.088858110175124 0.565961864200078 -0.5269239616858138 -0.4252712557309999 -0.9798957475298045 -0.3557731344119496 -0.7811130245805904 0.04938402430031267 0.15767586530099026 -0.10352746846633579 -1.2830945371512215 -1.0767324112048255 0.9333522963448523 1.088793557464167 -0.5225364181661905 -0.20831969416684254 0.8435965108860598 -0.10941034797523766 0.5931638334735169 -1.2143901140277262 0.9644561734746234 1.028827288120443 -1.3121077944213948 -1.1311567349616638 -0.2683261536854002 0.8017608614595995 -0.8740535453318563 -0.7059037316575097 -1.032290781477021 -0.8116490766439014 0.4787802108434403 -1.1042207326530509 0.2105760408581794 1.2993598132332085 -1.1280144532714331 0.8244562170711336 -0.07092337672397041 -1.1068291781421473 1.1783513635883445 0.9455496471634837 0.9472073251808081 0.2653052995666625 0.6953289754142076 -0.7010202062898726 -0.8508294648403751 -0.3785720725392117 -0.7747543673238797 0.8491787126866853 -1.3127951078854965 0.6624778628449943 1.3488077609720106 -0.47748928670677787 0.04546313856197353 -1.2131448246917542 -0.9917989634913483 0.06270013835788987 1.359657916439436 0.8206277221415889 0.06631651169518725 0.7449109563712298 1.3926241085533428 -1.15508094322778 0.7036538262336594 0.734096367794363 -0.10758939864756903 0.5254153709944691 0.33958318107621277 0.08691832252366857 0.6660884346884578 0.8787178183606265 -0.25707541380228793 -1.3197056051396017 0.14903086254341164 -0.3962323812759676 1.4092865552502 -0.7898683195426928 -0.26361216170172597 0.3678831592281449 1.060726513626133 1.3666848509537597 -0.6836802976419883 0.1746161494648211 -0.6072284107963649 1.313114526400481 0.45290282527568476 1.0609063708681477 0.670643089524175 -0.8755340131202011 0.2664145468411022 0.19872548300961412 
0.09480859862036196 0.4822241422886289 -0.22552945139583727 0.8022213619760643 -0.8728733685648828 -0.8972701292265257 0.7274687425465628 0.8724347152539815 -1.2600768065215704 -0.0710273016856477 -0.27917506593991454 -0.06837514996979922 0.11285100850861214 0.8659677385133352 -1.2164470618230296 1.1360162748613818 -0.7944225406578177 -0.29714848329236027 -1.2036546229205027 -0.2602827754433788 0.47598836421345236 0.4389431724840482 0.3196337098412086 0.8002641265048128 -0.5076527892827026 0.7225123170514722 -0.5114532530483873 0.6289454426290062 -1.0982270696804999 -0.6817323768711778 -0.11842888102907174 -0.8130285279964661 -0.09894303755371958 0.31431348944545734 -0.27442250675351604 -0.6181464192383734 0.21261886854977002 -1.1258386077006646 0.23962396056044902 -0.47690283607630485 0.3786498415285387 0.8232937121755709 -0.998235071163216 -0.32107905804117665 -0.3528285001536191 -0.22102780731474286 0.9955471845281827 -0.38597895265314414 0.622251195415281 -1.380450799645398 -0.07284064895858156 0.5463942402647044 0.40819093941078366 0.7206566414718412 -0.6052564150206619 0.7313550931552876 0.8497506268170872 0.7145389835101 -1.154883796793872 -0.5314026711731034 -0.8592680533831477 -0.2942936327111027 -1.3944156251701063 -1.234198838298995 0.0628062262467914 -1.035042731687867 -1.4495362190421555 0.38524243314042234 0.4408403353489364 -0.9806965281239125 1.173343715515653 0.6018648337991054 0.25410583873068165 1.3241415655828406 -0.6154085935383703 -1.1689598828250065 -0.5602872494144595 1.3656108399569589 0.18436705862679106 0.7589477121178074 0.08552646018770721 0.7766562075798888 0.004734007999453891 -1.2054687092785492 0.8619775839474411 -0.5643719228053266 1.263277092778201 -1.1354422891975142 0.03328031159620461 0.8732894632521346 -0.9900222258935586 -0.6784553256183156 0.36277039454446763 -1.1390909184766669 -1.1839450224440722 0.7611802771707427 0.4511215862928349 1.0266597837234273 -0.1464945232977355 0.4043472021641157 
1.0573963819478818 0.4575091510142061 -0.9461330006460412 0.9734527392776992 -1.0440301600896469 -1.1027320729012442 -0.2790302629638668 -1.4605234264830897 1.3656570723113306 1.1697004555358348 -1.0556707526745626 -0.9741736055439801 -0.7222222932225616 -1.320180447769687 -0.2113112271575067 1.1154261061555015 -1.3838181467625532 1.1701545527310875 0.6175761008465643 0.971749728512632 0.7497030873057993 -0.04065958875786211 0.34400219324923376 -0.9728301095387484 0.031151872622548243 -0.1566721191923827 -1.29547227652913 -0.34424434580919266 0.5227269792542154 -0.47058082679736346 -0.8817847226309187 0.2617512167478329 0.42934130475513255 -0.2907468147892782 0.3666176669131874 0.9901003673515294 -0.6567225828629134 0.4793599065721815 -0.009338887862897945 -1.42686258712602 -0.021385453833431267 -0.26882760073974393 -0.3986135702232104 1.2557394144112533 0.1491950063122085 -0.9496262530301559 0.28462791765859186 0.6628400070134585 -0.50449363123237 1.202649764028003 -0.5466286823915594 -1.007038759087819 0.6286202187848343 -0.5986658960848119 -1.3188739287902813 -1.3366963622485202 0.015059106590051184 0.31268073135751656 -0.3483439542659934 -0.9182422913063591 0.28812784479573705 1.465414172559429 -0.0947613914158415 0.8490421517535964 -0.6072802888839134 1.2155192138581226 -0.42010419641719404 1.113387389561899 1.0022808955307372 0.8307816990726039 -1.2530928567362967 0.4231037483784707 -0.7697275804606581 0.9824083941787474 -1.2689082705548136 0.1822439491307509 -1.036138360702851 -0.9440930425990326 -0.15641735817888408 -0.7288253333317549 -1.4643369903500778 -0.09423387047289127 0.8179818227586325 -0.44588954525678176 -0.6892929737289347 -1.468943267566435 0.21312960895907912 1.1518132127475058 0.9901841210647335 -1.0315902796206409 -0.4014559732281499 -0.8986647265697972 -0.8941463471850389 -0.2744631472501529 0.8273758048650341 -0.01907694315835703 1.1461031319521808 0.5105939057453942 -1.2800512259533445 -1.0576717481862574 
1.4624857788876613 0.5983962219148203 0.637793997459041 -1.1789023750282912 -0.16087006323256886 -0.7033366107032553 0.13580081188717152 -0.4929201621989474 -1.1892830472985327 -0.5444163607292009 1.0709552635375734 -0.06334641643340876 -0.1821469119273184 -0.332228109458829 0.386079594869959 -0.8907207810818429 -1.3760445761054525 -0.4126890900965329 0.40272388487431 0.1532636783008067 0.6790555057354226 -0.6755373710043872 -0.9039813400102001 -0.7360653100900572 1.1011521915231686 0.2880823211851125 1.355499368608634 -1.0841514307651237 -0.007413401497905881 1.0109488646647462 0.919933689991934 -0.627642461035819 1.0209378011724235 1.1887353851568547 0.5590503310841346 1.2046387495384852 -0.5661100187797716 0.2656437848902641 -1.033533836564423 0.7950037382989713 -1.028119365882058 0.2176462730922287 0.33187210979949927 0.18996500841871863 0.9617432756339096 -0.3497976905573391 -0.210281869363336 -1.4318924121625618 0.32353610681980693 1.2716082977298973 0.28712456478711557 1.0711572530379467 -0.8936132861680166 -0.5781577330798646 -1.1302244595468343 -0.5419897904522938 0.5557929986960315 -1.444294794422599 -0.8382617386417299 0.5700657429839898 0.7859091679250255 -1.2467644653501169 -1.4137620621309757 1.154583344329049 -0.4362011613771487 0.30507779577191313 -1.3556265185974665 0.05849300520247351 -0.5119882100556278 0.2716756026569921 -0.8676862173659087 0.2982664785308388 0.11133421366625057 0.13572431001032773 -0.7616780680580417 1.321775170974088 -0.3839596630703743 0.23049444544364484 -0.312977484280872 1.157206238076948 -1.2734091994642414 -0.6364122580674411 -0.8051887431177351 1.2917103444529328 1.1532825674590412 0.27923412784673673 -1.3190324661404194 1.2480803817851134 0.7757614034297308 -0.9912053012736618 0.46004507880394774 -0.48475164257519515 0.19117364430622905 0.5589503873377188 1.342190929226899 -0.5343241171930359 -0.08040699291645571 0.33962742305352395 0.8082601488668878 -0.33864969040259185 
0.9931498187552349 -0.23114077069359987 -1.2002905559475576 1.1926524631271358 1.1113204862448998 0.08809236308691573 -1.4056762056176852 0.17662601442137793 0.46085923778108145 -0.6314193246855612 -0.3602591693093943 -1.3677950565720474 1.0171247636695913 -0.1351064833346406 0.28835325401107254 1.0478729884975237 -0.7962123785353162 0.11716040010526338 -0.8030158190057946 1.4710523669818736 0.7985005293325697 -0.7959098039058253 1.0246807438260808 -0.24344118496941836 -1.4261504837112233 1.4337794892471083 -1.1968144084627939 1.1489797441421996 0.07790559815190998 -0.6185838583417235 -0.7354351254909324 -1.0406361173710668 0.761924160203303 -0.624505798484853 0.5054332477505943 -0.23720530238333612 -0.3132360449757134 1.0503426210699955 -0.5122459294838274 -0.23335208538014257 -0.9646609384182201 1.441794406428701 -1.4124794941916718 0.3647247654049482 0.1960751656116431 -0.02644499131933613 -1.1348846165952708 -0.24204991724188388 1.353485851650201 1.1321815882234123 -0.7262221933326929 0.9740247543710457 1.120079857206696 -1.2964741108819908 0.7237004466452203 0.302175943883861 0.8556641332919671 1.123406203451673 -1.112039030998124 -1.3531525352241784 1.1006276093019154 1.1731445329811359 -1.3386178373535973 -1.1454764063193466 0.7133790191185542 -0.37115731689027714 1.1189710662928605 -0.5396038102703888 -0.21587428171002765 -0.1301039308570328 -1.333616826172594 -0.18520541234303622 -0.6046387940999033 0.07968449405163684 -0.6966716013129635 0.28684821418974815 0.06420084961572116 -0.2536939026571493 1.3936774674898031 -0.38703629004398216 0.5122333941776455 -0.6667863863568767 -0.3634971367320771 -0.43480552516259346 0.7167038933972854 -0.2588142823251349 1.3452688394153454 -0.7837549610435962 -0.1468992450529827 0.9936358170313359 1.1283073095386884 -1.2831109259220368 0.8520995728002638 -1.5070711325815425 0.9935742206435104 1.4821752048428585 -0.30383245432601846 -1.4022005202367736 0.35453300920456393 1.3719673696351213 
-1.271527575575366 0.7742662389406265 0.008796715374116505 -0.2906256554977231 -0.5811087837814587 0.6464548972097771 1.3085447478249645 1.4037054050736284 -1.329927491013106 -0.3166479401920726 0.3604290336254411 0.5041939414534442 1.1801379666648613 -1.1000311846842632 1.39234775696813 0.6016417865965472 1.1601635240484751 -0.3262663824720989 1.445253270242028 -1.0587623819553982 -0.5463341641752291 1.239690962037406 0.6563673059466834 0.9301257216799494 0.356870144296607 -0.22569023361169316 0.34629460036339593 1.176768395862294 1.1759365232793315 -0.8934946289413048 1.2576291938313477 -1.1915401347352115 -1.0066361196244076 0.6797693468640431 -0.3955958249103238 -0.5907349024227351 0.8926810579042479 1.463207640261001 0.9302910520121913 -0.8737310324432348 -0.3826871250830893 -1.2178518131536553 0.7125950337336077 -1.1705680871660475 -1.1423104674694327 0.3796455057990107 -0.7003683884375106 1.0371426527972734 -0.7052377940971191 -1.034293243106314 -1.4103079905517062 -0.2529619623594263 -0.19010921374940762 -0.9659408732841462 -1.2920802225107229 0.9572438562306401 -0.8768096903387242 -1.1181321138788831 -0.824309706612661 0.1211663179777411 0.6153135709337734 -1.0837634233056408 -0.6911509747030826 -0.6843343770113265 -0.049588950189655256 -0.8336502112997287 -1.3164438651980268 1.2181401932837879 -0.6278911288868911 -0.1893619526347656 0.653855347232487 -1.4665846428257414 0.18966028988616254 -0.4098597742509246 -0.7175961608129883 -0.84422949954745 -0.4843960290405367 -1.4344085261629136 -0.22684653634740956 0.7415744361781484 -1.1898232213636168 1.2456592341626709 1.0078785797000365 0.4046306863195871 0.8312142704204811 -0.5817403641720041 -0.5887447778732408 0.3388729723109999 -0.04421598048593386 0.20489528360609993 -1.4130636330398982 0.7827552503747335 0.672699383598173 -0.6841036500336726 -0.6943712869883794 -0.33241764200551305 -0.8291517943964359 0.3091157776277786 -0.899245483843536 -0.024636783009441488 
-1.1961911071477955 -1.349829477439349 -1.4490355333383005 -0.9544695206133893 1.1243744344184203 -1.0885653248758866 0.670071384343965 -0.548371932166065 0.49139350653434344 -0.6966139904852293 0.6995990281888547 0.13722464783961233 1.4835240846513595 -1.1112624663369253 1.0747946629270806 -0.5097706367847917 0.7676763274453967 -0.032850973949293594 0.6161161565686595 -0.4661609537255831 -0.40997412714633735 -0.9097193192398328 1.2905878710552392 -0.8703569266761684 0.029237129699641224 -0.029916522142648005 0.07237450130962142 0.5519252734307084 0.573099845461356 0.11742632082538365 -0.2117618880012757 1.359827588255894 -0.23369111591013517 -0.8436310838132417 -0.6624706123159283 1.045474225236385 -0.8290058106132315 0.23642832924736806 1.2737845001989534 1.1391148096620278 -0.7226264389055164 0.7608353294498035 -1.1511655835641967 -1.2730026930850034 -0.937515338385998 1.4263420422912825 0.5471516177252345 0.1552176180311436 1.3551027896918866 -0.005823410930867259 1.09212748761356 0.07886027878395878 1.3655377408749119 -0.7884203759755536 0.07160626598483877 -0.3638987425156074 1.1808001156930448 -0.08963182911795144 0.7141305995770961 0.9397878266547561 -0.7259162429257345 -1.0579695140205332 -0.17087210075408732 -1.3788463491290268 0.6785794977551232 -0.09643153894397902 -0.7293021885555662 1.378581548525177 1.407071904457314 -0.02593848035751582 0.6006933771618979 -0.9284571388320271 0.1107654066226148 -0.29968222210772705 1.2684983680381985 0.4767125472092181 -0.8006018722253815 -1.3541376185658083 0.5385767320398598 1.160882781470447 -1.1429244391393427 -1.1734519534931913 -0.8426748192219531 -1.0162227792489456 1.1811912627200036 0.6697535568379691 0.5554840480502649 0.7674562188065959 0.7182456379377947 -0.15563859934914162 -1.1414843816132976 -0.7627104351318674 0.260762211575698 -0.7250100534178124 -0.6921317469497379 1.2928817645128683 -0.4224695601460939 -0.07783870452156966 -1.4018268723371918 1.2505841198417116 
1.3572393882995715 1.3915699913576993 -1.3205028959299177 -1.0707578518797776 0.21738018018774227 1.4069693256950313 1.1313534282074826 -1.232782665927912 0.819136545795258 -0.3841765165929095 1.3026066061617758 0.2352404764978761 -0.2251236536666651 0.605422732600785 1.127763974176688 -1.2418698632611187 -1.4510790069750767 0.8847750248062537 -1.0053454201559562 -0.2422852533284427 1.432792814010267 -1.1809452574268273 -1.4166013293558912 1.2206390350345284 -1.3219939691579854 -1.1704568347325839 0.9887878621628148 -1.4051303504692592 -0.26580539111423196 -0.6460811526350854 -0.017154300065703943 0.26923358231230365 0.661514358391251 -0.6548061989869528 0.07465957518995261 -0.44123912382669195 0.8260191880048183 0.32925723144433733 -0.2622025317358927 1.1529707257197583 0.3748281053541242 0.17359701014536633 -0.38510543589068585 1.3196779845153719 1.208912465688049 -1.0839806999120731 0.52236960519857 -0.10340314904703635 -0.7937885154901098 -0.9853035484636022 0.44377989372305743 0.4760320567182078 1.4566862346990772 0.7736552406532519 0.8610081519257072 -1.2347332217994105 0.09527191509390526 -1.271156818894502 0.5390754995952752 -1.4782739712160047 0.9726614733484056 1.080356666509145 -1.456063104779253 -0.1306513286400007 -1.210608727165971 -1.2744852902584267 0.7544996722845985 0.18865775926086595 1.0009089531486512 0.5423378610666689 -1.1945637164307794 1.0847795363236836 -1.0921457301739221 -0.5820640023255214 -0.8663078823913434 -1.3303936339135123 -0.7592783219013806 1.1048325794652012 0.00696782471309481 0.6263979584803694 0.6345716181333594 1.4638051352195425 1.3537942016241615 -1.4536768047998723 -1.312616711742973 0.9214396884340955 1.2703948778969987 0.052094025455246246 -0.7434280080321354 1.0644177314528245 -1.2601772408444396 -1.2848261376087693 0.8078152792342985 0.7369100123360421 -0.3256815654884368 -1.2343876302483532 1.2810116481994887 0.695650130551264 -0.4869351899639267 -0.9419426860203832 
1.1820547798158816 0.9024153578524602 -0.17759456958243403 1.0015881786105925 0.7637478302039925 -1.1475235049155137 0.21871941574981718 0.5301794939445027 0.7850364163808149 -0.4757692679364152 1.14578043507425 -0.004806674359118906 -0.8554089424593483 0.8705063033413626 -0.00868870048095443 0.05478497352954667 -0.6908863080932494 -0.19912242456651225 -0.21446967580454598 1.040802221033913 -1.352163908135541 0.7543379038563112 -0.6318893536075043 0.10962486319104037 -0.7925716153618917 -0.9563971702156091 -1.3022612617517602 1.0586111092875292 -1.1869805349468148 -1.4188300309892556 1.3603774219880695 -0.8619658387716909 1.2436325082266286 -1.042022370470867 1.055487782531662 0.3815452835000506 1.0478547684126278 -0.7493701862787177 -0.12688802425349133 -0.40730625533981424 0.3155620565288283 0.23887077930276976 0.7527001606362693 -1.171600312038764 1.1026909144084034 0.9879534658488702 -1.3885472190578132 -1.0495581887442105 -0.12150285186837939 -0.06079166305678161 -0.10709637494171838 -0.9136844031520222 1.1130743285660778 -0.6985124448574155 -1.3320330185528593 0.38618727363992555 1.3314898481108377 -0.9328100964500602 0.04433886438038937 1.0699260574671323 0.9844820370155621 -1.2805103983476918 0.5332578526518997 -0.6537947629058275 -0.10218624679825518 -1.2912218543059737 1.384487982600644 -0.28366494188029756 0.9860881814562659 1.3347233237325886 1.1410001424607947 1.477099862883749 -0.6135366470419654 -1.2204515196429266 0.2530447037630063 -1.4494446482054246 1.0170935856833703 0.20367653249983605 0.37196080971450196 0.10850872658432369 0.28682487849086213 0.5896104486531153 -0.8340059614998552 -1.2599815977190243 -0.2552236118045844 1.469121713783341 -0.06382748100343298 -0.03177389072012874 -0.2734267387053281 -0.711692209206729 1.4313242748060455 -1.079219625314189 -1.0344068335618064 -0.34132945256851926 0.2644687992215163 -1.3507549409523516 0.2296426813869596 0.9570524905331241 -1.3187729910318673 -1.1627942102285358 
-0.08592978201424166 1.1461066215421287 -0.8489876262435426 -0.496020975770128 -0.17763100728413664 1.2896612657307016 0.3086471295118545 0.5795170145864443 0.6326385608491153 0.011339653450129016 1.0494754154647776 -1.4549583231475351 -0.6411564394631577 -1.095768814024992 -1.3492716665746198 0.25373250092796884 -1.1266858361188412 0.4237165052562742 1.3449150719643834 0.0052483173580328306 -0.6396991915211386 1.382201572835662 -0.2663817587440602 -1.2502459736879596 0.6643658210094988 -0.19063386381681427 0.49310439237723724 0.9168250690866157 1.2582057869606953 0.4784393577999613 1.1772305690714588 -0.7471920853476439 -0.318810958315085 1.1792904872116616 1.3693635949160081 1.469506975531619 0.6425951872975836 -0.9564420148975958 0.025092622299524546 0.5025519875617966 0.6987609413394547 -1.0770612844536083 -0.6331022968380823 0.8875249925680545 0.6145340595565218 1.067933993886754 1.007419298545852 0.6138517430874461 -0.3750829918594469 -0.26161871683992943 0.023984522303191837 0.9497660707078773 -1.201528178504166 1.3701337859320528 0.423979130438574 -0.7441299136450994 1.0093950498130217 -1.2645409701576444 0.8438907457612602 -0.503248864432346 -0.7971896980303439 -0.9075769383594828 0.440662835850016 1.3406939463353527 -1.2626273405595763 1.3648301494484154 0.27237027575215383 0.3693026412517909 -1.14750892618104 -0.09665785861436713 -0.869113595159677 1.2759748391434504 0.09121880040635297 -0.5180254609892141 -0.6550160876877993 -0.04471125554971346 -0.5028334497098784 1.0180718031587597 0.3943422802002546 1.3061286172957278 1.3261852713777342 0.30162918319821314 -0.4123029758319923 -1.0501234865480453 1.4278033996396513 -0.5658290180487121 1.094750969268059 -0.949326451101752 0.5357029191956919 0.6841237720268861 -1.0745793727140494 1.4879157159692453 -1.3567253637957049 1.000871717480025 -0.8949528076265333 -1.1025812956241634 1.0067379629448958 -0.38828619690436184 0.7111908279230486 -0.5977474981911991 
-0.022801117317034814 1.1297370304805612 0.8798733873575734 -0.2804064335608731 1.441281057883801 0.48993887443794937 0.758503165997756 0.876294762696082 0.3948573738794106 -0.8547017296726648 0.14994251144207957 -0.6406139118336132 0.7232192566334251 -0.3244133683929792 0.49450832932837996 1.150357078003361 0.9957293244866872 1.3016176478689117 -0.7403733621155115 0.47039296091596344 0.91778338625713 -0.6174009602630397 1.130724977769088 -1.4248891318527162 0.07353760827434604 0.7860368471243964 0.5973165043457535 -1.1419949884979512 -1.083583494020956 -0.7631280123417391 0.25435229906924206 -0.9390614866624595 -1.0486356317814975 -1.2761458748841075 -1.4859137766568422 0.9968309953605136 -0.46812702715327953 0.006950059873232557 0.5752831366158798 -0.02772442837255046 -0.44438130506595663 0.410874454447077 1.0935594957704755 -0.5481114309557872 0.7864904605572743 1.503457244698921 0.15844372857730019 -0.8532319382775676 0.6138300830465042 -0.4957171798408912 1.435461748641816 -1.0595872859525552 -1.3191999750724488 0.504114044829078 0.9945201603132005 -0.40310091492528355 0.7187330477567441 0.840513263875953 -1.0164252712797037 -0.4791340144748729 -0.8253162699758404 -0.7466640032210542 0.13202456347798863 0.012511763030032883 1.4947105728847256 0.5431941407021103 0.7619603519514281 1.0855055345213267 0.5873678108167333 0.7651392965569361 -0.08573532782161437 0.6924013607008314 -0.19313968219230426 -1.4598217070268502 -0.18012202645956338 0.23408975565242107 -0.9725701511832207 1.4192795047511455 -0.20098572452910396 1.0948906607777205 -0.3405850711756595 0.45014627492135695 -0.38945209221460225 0.0911701185472672 -0.2186552808860444 -0.3432520772399255 0.7669895064299713 -0.8202047217951568 -1.3816138724661433 1.0922117696911982 0.35287308271568557 -0.4116224787457263 1.3713630053076615 -0.12118779567607786 -1.0505324787544907 0.3908936981366658 0.6268237121152557 1.15388932872321 1.2085927193809403 -0.603886446100536 
0.14963374040269878 -0.674784823861927 -0.1277035227666066 -0.18818539660107195 -1.4023187614070183 -0.27936991402456024 -0.7644748093316568 -0.851031765982957 -1.4810378561284356 0.9732490146415029 0.09897034908746492 0.8296872169354893 -0.5559613194919208 1.0255536734189628 -0.42339963132072334 1.4609594169924345 -0.3163787994176692 0.06986124207441996 0.10501873352545348 -0.2812775961676139 0.5063677789726079 0.0872261376896053 -0.48449890607214735 -1.191113465940149 1.001251331313945 0.758143587411812 -0.6955317800944215 0.2290834098775499 -0.8684317847809381 -0.5576704698187358 -0.39893780490750025 0.967755260975306 0.7424290170060411 -0.36500087239315643 -0.8819728806048025 -1.35663686452196 0.977205786768853 -0.6958950423080393 -0.25211584581823576 1.0786251666586562 0.44147639794979765 0.9680337598566986 0.46300162299278186 -0.9760680945894958 0.2783547641331513 -0.77720243898168 -0.9868262555283269 -0.6696292527910174 -0.18353626970096176 0.9332879795810184 1.1740051952110053 0.11318168876347741 1.075669251097986 0.6518150289966136 -0.6619246143796084 -0.00701546676765883 -0.2453512289202027 -1.25000108577531 -0.24411723254480114 0.3827779535004017 -0.20310458785220312 -0.9282839496353752 -0.23661522124537931 0.32344905127413787 0.24543941410940656 0.30040070972078803 0.2537931448994688 0.20890714380743877 0.1400930540955481 0.9569815460664075 -0.5954422566356954 0.9242389528426537 1.2561955825358295 -1.1483082522564634 -0.7321125969307068 1.1552770497262583 -0.09911032615658467 -0.734566569498736 -0.6958731841878766 -1.1109816348177792 0.9547246532391183 -1.121157119083438 -0.9380300754978986 0.7339025391614658 1.043151616129695 1.0310457134545763 1.2390181844639085 -1.4940294712178335 1.1369043588792076 -0.38874925185128206 0.04055696893296784 -0.7055691979974179 -0.5639216772082702 0.3651715515375975 -0.7085069504477812 0.22348304467038774 -0.6493658954995905 0.7738992635315026 -0.8144549247699501 0.6187273522051712 
0.9774351289038686 0.7782545294368636 0.5943718059429867 -0.4087831995265287 -0.7672950891286211 -1.2716409052105568 0.4739318255346119 1.0478281017248787 1.121323913338016 -0.25492264606924325 0.1648340097692491 1.4016150021033753 0.2993555759963748 -1.438835252796121 0.09273518928448739 -0.05125880149319063 -0.34412747587277526 -1.0538181353078273 -0.9475430874928579 1.230859984672306 0.672741159547084 -0.49664781655054785 0.7767832211750277 -0.5041783137166085 1.4483319489955941 -0.47006307759931426 1.071708554850372 0.4404860554797843 0.19311076355365148 -0.967224359824611 -0.6085034300316869 -0.12399254716192384 -0.9205376529006369 -0.8793370941398801 0.6155211362286838 -0.10479466783560902 -1.1675191921144452 1.0915074442895034 0.6172477164248028 1.2389314808223935 -0.5690777132068052 0.19607443173252312 0.8690386980600028 1.026100058098694 1.13078070605941 0.7162152737040896 -1.1304214673335997 0.48271444191958196 -0.36637842913483576 -0.9808329020657879 0.8211241708606423 -0.40809584900704665 -1.2663290124742095 0.9011999467492261 0.7707369946913596 -0.012061517973519061 -0.408774955538173 -0.17149752112883807 1.3560938568986924 -0.5153787131037342 0.17213375746285728 -0.6372832689205171 -0.1936063833844212 0.6417517528406794 -0.24629141588454656 1.0968185234048267 0.015859670145336457 0.43318662393765944 0.8324218535008808 -0.6188330739712663 -0.12356547318138447 1.277541609233282 1.4117373842931393 -0.2943486708420223 -0.5338404392503073 0.4877165778223338 -0.41633658258428663 -0.595122943615568 1.0613614071145845 1.357479931589935 0.995447222270683 0.4514828378745492 0.36072597243173304 1.4509275171492277 1.085478133475681 -1.2449071788490464 -1.4525381947024558 0.8724950105371011 0.8153711123998887 0.4241543193476084 -0.19385600032796535 0.07824227776747748 1.4104259551295597 -0.5514365462545873 1.4774515025521553 -0.4896339495532644 -1.3434875652299925 -0.03282913373212544 -0.07153527411191817 -1.2494673462000558 
-0.7210269161798809 1.2251195509066721 -0.84658697307863 1.4213977907033875 -1.2087185488428906 -0.9563291309259743 1.364827652041787 0.35108186639531974 -1.1888861029003182 1.3779421871990325 -0.9822563564767538 -0.10875172354680544 -1.2928517393530763 0.0034470068301893533 0.46556895996225217 0.45818632606801235 -0.17787036852178942 0.9164095647566677 0.044353817121207624 0.73522081509214 1.4719870338336523 0.06276626372181945 1.2469061648820883 0.37757689536665257 -0.17368319169286878 -0.23681448212204395 0.09130021569598012 -0.3612499235615104 -0.8359978821760117 0.046226265662510105 0.30951363041657376 -1.3302273255019283 -0.14766048425191247 -0.49654662119447923 1.085506135003815 1.2910801626748079 0.3033359904076811 0.8497687647023126 -0.6174134082051443 1.10645779928569 0.07221805102268075 0.889491194932586 -1.0767907340856708 0.1189464048693709 1.463180684197268 -0.9185916972059727 0.9591025048617947 -0.14332081724415124 -0.18926309050846787 0.7542836461034907 0.4845985132323899 -0.47634178172385394 0.05810635453460384 -0.5976089745979425 -0.10978282688598483 1.0771873851219316 -0.6467897291990131 1.063538704832522 -0.06106139455260495 0.08702451498410485 0.5502444452043045 -1.2717138868090583 -1.2087051604527257 0.1251212213076402 0.717244293640911 1.065311574938231 -0.30934050166695287 -0.5990840304087032 1.0733801856537186 1.1576050075485733 1.3597838668034836 0.168477737494246 0.5945341843952784 0.4949592528460599 1.0048295409233488 1.234989791869067 -1.4032379414638925 -0.7059204005148211 -0.5775144743814679 1.343693063869258 0.9027624833853225 -1.1079796014278742 -0.10359704484825706 0.1166931478261258 -1.471513651669175 -0.019851716485508774 0.9156943094311973 0.7710392174819931 -0.9236575609270709 0.2842883805164427 -0.9934698466566395 1.125533040689653 -1.1373330227303788 -1.270411789857832 -0.697364894516237 -1.2119080008715293 0.06182152376354131 -0.6688755691927906 0.5268331001668562 -0.89252335599732 
-1.4309581219486243 -0.012245989902412957 0.022272207774262327 1.315384143079689 1.089904902819099 -0.5577203043288927 1.1589745616911595 -1.4459820329060518 0.9977133795900603 -0.9912735646278685 -1.175418161917991 0.7646422706221884 -0.7855501614877858 -1.172406541602954 1.237098945131555 -1.545343948531623 -1.3773566212083932 -0.6041968570434877 0.02575420015544034 -0.9735822574648261 0.33795607780879955 -1.3909587257421232 -1.340520531805973 1.0724215549082627 0.6424482045631094 0.765137006218162 0.5873915557215343 -1.3459806399246486 -0.5612728303129824 1.438251529513698 -0.04339118210083039 0.6206122615723707 -1.1420981010195412 0.6105605333972429 -0.8652461511159929 1.0383681739366188 -0.8472478682042904 1.041505965143371 -0.2142283134959423 0.33958726294274666 0.0830041642704467 -0.6023342790559272 0.557466872271241 -0.8022676721718779 0.12949457591318936 -0.23267308072690088 0.4586322384019456 0.9840406410786798 -1.2123289465561653 0.5751297539096255 0.37538428118304645 -1.016624033838469 1.4691006004971254 -1.0318485003761229 -1.1533846440442466 0.19815948880856332 1.3621423403684505 -0.7394629141614776 0.0927515649624008 0.9916806413180382 1.1781292746538856 -0.516938136343662 0.9514773545001234 -0.428618682496926 1.077704470050617 0.4688536397500346 -0.3938003088290767 -0.16840511481692033 0.9465085995368442 -0.5832551701487296 -1.4081071840211945 0.5156914222430501 -0.9906726047051846 -0.5577708661636372 -1.3053281824622973 0.16474164151795184 1.0173956311985068 -0.34007009040872627 1.184364097468165 1.231660780976811 0.8387836779585225 -0.6460810886434584 0.011548616163015486 -0.33853993407655775 -0.14300146980173406 0.009949001572705674 0.6345234731637314 -1.327293834104696 0.32144864587264194 0.39661832671260383 -0.9332151458870607 0.4182202752782033 0.7551935666784578 -1.0634937469394614 -0.32434931526488386 1.340226570478844 -0.21732062787246106 0.9849552485414877 0.4127638900683665 -1.2173448463173075 
-1.189988089079836 0.3218220020340349 -0.7754103356119225 -0.1693848160100254 -0.3254944513571377 0.5546033745377863 -1.4062773370951667 1.2754898914179347 -0.7090747097511816 -1.1131819562107153 0.3227563699693179 -0.6936542959958064 -0.2458435763731621 -1.3422314041719374 0.9892697245224513 0.9269415386258576 0.6620864096058944 -0.9876404538113052 -0.24789166003590418 -0.41636524230059696 -1.116105057963301 -1.464928260187715 -0.7744801389867858 -0.5882817874965056 0.9978355786758648 0.6241458137640558 0.004253003162509405 0.3814075790854885 0.316961206735773 -0.04003222020094638 0.9148508487828001 0.4255018334619258 -1.0352081813125384 0.646850525380229 -1.4528588700857652 0.871189561893244 -0.4867931184351365 0.15560331278424464 0.534304614153688 -1.2522671711596967 0.013571230836876407 -1.436700082125392 1.0425419111266898 0.6393926028812839 0.19974948368625411 0.05877134902306286 1.396078303079432 -0.8607235033056626 -0.8327784755310431 -1.1860121048900882 -0.5067361161469107 -0.960707927456976 -1.0211181526890838 -1.4074357752715791 -0.2183687914020012 -0.03306139223313306 0.011507998535120894 0.5162698292296208 1.3250960885342349 -1.097028475813833 -1.0938323315175378 0.0835074837955798 0.6026293984913792 0.8718283156523358 0.2730244503814181 1.5107445719123238 0.6147838464833859 1.20519746953879 0.9836581153645997 0.6538102816185847 -1.1444879134851569 -1.0417273172974968 -0.4404040790111459 -0.2682687888889941 0.02715778030870529 0.9163821850133949 -0.657345860038001 -1.2168190168866058 0.0072197443929048 0.3492941628499615 0.07418259603589203 -0.020788074530135828 0.056401427836283616 -0.6502964103258106 -0.5206345281767345 -0.12127377007353501 -0.6593702468904931 1.3513901388096632 0.5669975432219209 0.20826187416431818 -0.35489205045085076 -0.4057035447970836 -0.4718958581543223 -0.6247587057623005 -0.34043929531946954 1.0159937798323506 0.22730816211003635 1.2651251545676667 -1.3727073819016955 -1.5545178763543852 
0.8922865982491606 1.4556909779411138 0.05008803617355885 0.1948818600582024 0.07713230698787818 0.3037556032187596 -0.9192527871280446 1.4597950981614336 -0.9838031225269713 0.7336575810930579 -1.1755570425547632 -0.2953157522142274 1.4976384066239834 0.9716410486391477 0.7548964383745794 1.5329396809391982 -0.5662226404155425 -0.5382641442439713 -0.18532309031953637 -0.4338832407785956 -0.35756022102843277 -0.5802373805496395 1.2630504951315256 -1.0464676201246732 1.4074702356001072 -1.4082688471854536 0.4086124629242024 0.4275148349982111 -1.2441244972826295 1.2616915538718099 0.1730598358231572 0.2836790339488197 -1.4635994447422431 0.7812334021397647 -0.5165482003706764 -0.5692636627092347 0.6830520294161003 -1.3783976132191194 -0.3881766671003859 1.4565185402900516 1.267072185990622 0.90558741847148 0.11164209585112571 1.2538286646604917 0.1938088384285268 0.09410372451152917 -0.10279798196153635 0.6725762588680242 -1.143737673376265 1.0008919589559648 0.8175692440133121 1.4863364793322096 -0.38223422050635175 1.318345322053194 0.5503201270726985 -0.4528627590358085 -0.4124351972490567 -0.8208147916896543 0.16809144438605741 0.8954163845731447 -0.2563777050266591 0.39529819845445174 -1.0374436178343687 0.6618519299795778 1.28402106801337 0.8044470812884386 1.0184067510750563 0.22910816158019529 -1.2909996017767411 0.9201882082417242 0.8418180406122853 0.2202535483448681 -1.3011341369131872 -1.194915739646945 -1.481573158307104 -0.4212882990418907 -1.3532336425901335 0.5920182441152889 1.4643291709828385 -0.6128593152905033 0.6022026142382273 1.4674554275989558 -0.3038861737439744 -1.3411309568863723 -1.0217431613140386 1.4697532062793583 -0.6751878010106381 -1.3136298025210873 0.8166452526335699 -0.1286889510559796 0.23674352794641168 -1.2842248005999966 1.4589642705807502 -1.1177347126869541 1.386870757819799 0.3114135276071927 1.0392091376690773 -0.9641723694969965 1.1141755919098446 -0.6004569645790254 
-0.058916941337006846 -0.5971789959323459 -1.0943160939587273 -0.33466310747058703 1.385550773427945 -0.03820504763826603 0.7368827878372931 0.8631074540326313 -0.001147978699020237 -0.9617413921215604 -1.4071983815860922 1.1679159131539287 0.5461458486717077 -0.768666084391519 -1.1590062728737893 1.1258500095278428 -0.9372974227298977 0.17980689694645535 0.03759993967127972 -0.72252527332828 1.3061270655950907 -0.4755130873067454 0.5652474682965904 -1.0255638950046646 -0.6193234020107476 0.8546879054059989 -0.20836583924502153 0.0526186567150627 -0.13504216127810434 1.268783899795354 0.9594101517072408 0.0955280881423276 0.7232956830859402 -0.6688349703431201 1.439343448350651 -1.13958944144875 -1.4961426891859997 -1.073941369470748 0.8980285983570705 -0.1568223994608617 0.7478840696561802 0.8071097714664093 -0.37963138828505794 0.3000985744926722 -0.3884601104681402 -0.3256174098375795 1.4469312426735619 0.5074882517417276 -0.6679886961259621 -1.330395993851129 -0.3231007392250833 0.0190229309812111 -1.3650916961764756 0.668511525432952 0.6297096442373622 0.15653259446684675 -0.7065590955943678 1.4728957281769026 0.5738276219498809 1.11577494121203 -0.26342375022869563 -0.7730169038604897 1.1936509241361086 -0.9026748721710643 0.021854020908531255 1.314868517171784 1.1932613900504918 1.4905813409630062 -0.9847104934690385 0.7518349373504998 -1.3014488610240216 -0.20137155059480039 -0.293182846946601 0.7874424613453034 1.142014395116868 -0.7938106361591301 -0.7478812474400439 0.7494951086213343 -0.7952569468383246 0.012398647223398163 -0.3207253151276748 1.043183970596986 0.5790819986705292 -1.300516379133194 0.845944175542946 -0.46166465042413274 -0.6004590923412173 1.023812682437692 0.8119229064193224 -0.14198615277283944 -1.1139915767699298 0.1803300292314782 -0.5717571294158964 -0.22269213411544717 0.4498642793119427 -1.346665829628615 -0.1422565426753279 0.10913505035453341 1.1466977111199772 -0.5148203681731228 
0.5815846477290443 -0.09513050059726069 0.6703644507616059 -0.2894124137713708 1.3630287479795877 1.215975012282164 0.5801911149837838 -0.830577212270744 -0.37804889963119015 0.5694324936109608 -0.26061847125633003 -0.7732926635155581 0.04374579399293002 0.5877599305475417 -1.3346893352368738 -1.1249381275092414 0.6521273636432513 -0.20543058584888182 0.03175640552258962 -1.3259555315306129 -0.7231663211340067 0.018676506652839018 -0.6506722343576279 0.40339328614115844 0.9874388748939464 -1.4791144039221091 0.5404049078618848 -0.7900268168527887 -1.0817194460204989 1.441592829478215 -1.4226492937647564 0.5027889319741947 -1.090900706513231 -0.44496042163915417 0.5144726824535433 0.6564040163983269 -0.9547732278455718 -1.372176966612481 0.7466933326289757 1.0702618331643612 -0.9900844090468657 -0.9373752924346 0.6336866132292412 -1.4295725919290958 0.9938140601460784 0.7962218621875394 -0.7479739796175969 -0.3850529458148371 1.1554648559675313 0.7079170356595861 -0.693626157082431 -0.1512976847800372 1.4057927023958412 0.8693089018475795 1.0600459502716608 -1.3294645507311926 -0.9622487759094783 1.3955619906606482 0.6152027752295959 -0.48043626366980635 0.539503195350784 1.1950148988101792 -0.2413725094289041 0.285007805652179 0.016031368626856165 1.2734504888072145 -0.20165131646654205 0.7408718619784809 0.8997603153654349 0.8273781465443751 -0.3440270397364639 0.9849580306146922 0.12944807807067155 0.947511727650567 0.44051139091054475 1.288463209993101 -0.16175672314595038 -0.4802615141989878 0.6758317247612348 1.1133343438680698 0.6428074338869868 0.8782352861236641 0.6224540665895626 -0.2827698406778648 -1.2487899447948663 -1.0438422166274475 -1.0284321977953332 0.989433681496531 0.9979666089367704 -0.6026354063072782 0.7605559174782845 0.3433227860669801 1.0990251057422442 0.6942755888623202 -0.5457537045315369 -0.033593246326889536 1.1203444488128145 -1.1066206153946214 -0.9862242977930792 -0.16164979962787263 
-0.4733004000666355 0.8896456412274532 0.021552897494731275 1.174290120087201 -1.0146052971603703 -1.339311988402785 1.2353837392468303 0.9984559929494448 0.7316990477599092 0.6657214594228724 -0.3018489415918658 1.3884273189310476 -1.2123370420218944 -0.19572816243925695 1.1043311688841644 0.5485534047617308 -0.6243423076254728 1.0543963024571663 0.517405489911311 -0.05543989530283448 -0.6678611590508768 1.160751992298283 0.6860272125912139 0.3791301977641504 -0.014484731100648964 -0.45622776141476507 0.13835076342588173 -1.37796658747093 -1.394485877619838 -0.4204448723453591 -1.3858021211946026 -0.8987926473397057 -0.4330591312364403 0.6541202643877165 0.41102998716667294 1.1339651285025496 -1.4894440857707978 -0.23260051616124283 0.11374376419416227 0.09165547711646366 0.09599174131649905 -0.8393536423758988 0.5095007395243184 0.40043886547503177 0.5041321440031551 0.03883042582156029 0.447441250186903 0.7585064546175024 0.06068262350566624 1.0859278574004125 1.1101306384135854 -0.02906585288590676 -0.30427686444445173 -0.005088688326747399 -1.2222006901347295 0.9214540478675771 1.3568555810443599 0.4132264905663153 -0.9948790058839606 -0.9185465516985115 0.05640203927926623 1.2494443620259934 0.6840505602901863 1.0563511569164605 0.4944808376220502 -1.264054150596064 -0.0556276549108721 1.2768048506382157 -1.0129045913493648 -0.08995019213449408 -0.9133205648905468 -0.9694808717201766 -0.8090640108544481 0.11223196527611479 0.6972673886551021 -1.2975716714057535 0.5445461109952743 1.1448511708393454 1.47878900595649 0.5531999191105866 -1.4702659323737313 0.3319494019775469 -0.46289895431108274 -0.7579668448807575 0.8672481588847244 -1.1348377156114173 1.3002570277851375 0.21140515115249212 -1.2866342339068901 0.054684350382895354 -0.3542943635364898 -0.6396113767125159 1.0112701664648909 0.13720000098162202 -0.6173412160747701 -1.2885486569009272 -0.8839070858563135 0.4811081738772218 0.3338250560164171 1.3724771852670279 
1.2390512900928767 0.15124130401752245 1.3299748216075828 1.119263005508267 -0.555393096238563 -0.2796840203894878 -1.2075938403257387 -0.24433797723222048 0.2525195195726726 0.6130701299211808 -0.4628236151665088 1.2949769792209136 0.15279309665941174 1.0133826555096686 -1.0327871859806623 -1.0482400221086554 -0.1207897237594409 0.12611419232663168 -0.8504249186659311 0.609384994125421 -1.1215278541601648 -0.973317912340068 0.6465322061915676 0.2197335523388848 1.3492783027033632 -0.2569823498941669 -0.7841087490799273 1.260437001425207 0.8192697295683471 1.372304752096039 -0.11703478035634234 -0.27049697357594815 1.4217172049948326 -1.352318485362504 -1.478434641575695 0.17654763179881783 -1.4363978102397346 -0.5471882670961132 -0.3426350479082875 1.019534860175574 -0.7024664801534395 1.138701098236546 -0.5541574923162897 0.2840246633897159 1.4662284850533982 0.8181667589990025 -0.2528961222261637 1.2512957097821018 0.734691518799519 -1.189870105819722 -0.7808334879404308 0.4630447431964418 -0.6060657685739094 -0.02448949711627023 -0.3863967436591267 0.6953136464933848 -1.365543458756396 -1.1608531159860112 0.8553597037472183 0.5273439885484205 -0.8296741123172675 -1.4160766244229235 0.12460811257178256 -0.8318051768996828 -1.2022052208929095 0.9191057615277718 1.4090748815864433 -0.915092332171308 -0.5570775747287556 0.6579060493413561 -0.4350431093827611 1.0133481614045963 -0.22596429493672202 0.9842431346461665 0.4694059278195227 1.1594767427052124 -1.3681873915696274 0.03197543500160261 -1.0596812762141987 -0.742389288314876 0.022778402263195968 0.9288473602188443 -0.20070360308933594 -0.21915734717854052 -1.0270778794506457 0.8640804657738863 1.4760059525645035 1.176236467530741 -0.02382886435711227 -1.0986802619127005 -0.06086927161082741 1.1739514180125301 1.1186791948011872 -0.19193769453877096 1.230199160656313 -1.3391969275160536 1.0996040475273992 0.9496315167125401 -1.1744276617276057 -1.2265701458364013 
-1.1778654605927303 -0.5956638061865738 -0.9323117320261518 0.761083813797429 -1.018180075618424 -0.03670517344539411 -0.27276048422806726 0.9157820654878898 -0.6194489597202882 0.6380339772519672 -0.32788002229638863 0.5008052939965019 0.1689622635718452 0.35681823698923887 -0.4549059172733331 0.26515434376034 0.12364370690120571 0.8756725044672925 -0.12657485488689352 0.9771423313642245 -1.3186401451257894 -0.2175900720753739 -1.4352323641969402 0.7209110690174472 -1.1559675444622382 0.40407086516748647 1.2691286402073867 0.8548069324574511 0.6699790646840076 -1.0892594132607283 -1.332043353319957 0.287708535901616 0.48248949124593793 0.31517855934461564 -1.3981504713237096 0.19506337206602908 1.0064065812805927 0.14769957963434283 -0.24609984402122503 -1.275686701379299 -0.17941429034130182 -0.1395574705660881 0.07489572097829053 0.23753742456642046 -0.5932724357964989 -1.4793703147478923 1.2447708679560352 -0.10457065909072241 0.3273721837221483 0.9456408488062906 -1.1399178456502037 -0.6721089033140879 -0.027031981451053847 -0.6130548460421639 -0.7156686962126912 0.2937825586511028 -0.4050712974662517 -0.36601559064550726 -1.0424109201638423 -0.7869109848805919 -0.632891534411157 -1.1505417521575212 0.500559602908066 1.3300991341726194 -0.3609063535323967 1.0632912995294268 0.9138732093384133 1.4420488947270451 -0.8929698562134423 1.3857987966049314 1.350179763782519 -0.2851562131071641 1.0724484420065479 -0.27082285122452054 1.2131779401807303 0.61275380271039 0.6403898313480219 0.7799475280778759 1.3252843897367235 0.6878759647327742 -0.8881593504056583 -0.7214226307339701 -0.9199420581407424 0.5475452316514077 -1.0375171722916263 0.03323253448075158 0.4256578446811826 0.9488569470924291 -1.0239275903001144 0.3141625711718736 0.4674055340095965 -1.0427541258783528 1.2610207303500172 0.7741615879717306 -1.068233294626315 -0.2778594040677915 0.5944914154708274 -1.3226756192366014 -0.9581428026037625 0.5031188174185786 
0.8234420216740875 0.5156361217254604 0.5061488932939031 1.130694890332949 -0.4646901379664872 -0.7482011582319139 0.45246585436704523 0.3877548046347945 -0.04996054640014531 -1.2691472277306277 1.1689341260121318 -1.1141881192444942 -0.20060723654579576 -0.5355662779674366 -0.261083894348693 -1.1319728262559803 -1.2571236393574912 0.6442354272918454 0.3557300790946385 1.1550087005817222 0.11810188566901698 -0.30119935786614 -0.12915740425179373 -0.24964333977861788 -0.04490696993137879 0.004310374671277665 -0.14988689386545562 0.60887446552705 -0.5268479694219982 -0.49831868913954647 1.2733605011657627 1.0519856960795286 -0.300688159614565 0.3982540964205912 0.965570516685265 0.45735901507701343 -1.0565554994465398 -0.5886764440175892 1.0216966228705837 0.49175994736643436 -0.18016807862583747 0.9777465704133197 1.0220399224669645 -0.03737444436011123 -0.138961087731223 1.3630581906561976 1.3464021343738248 -0.3316516120342854 -0.9715538322760168 1.4299406080552044 0.24558674952992507 0.5101566890279071 0.8221893357210955 -0.6314478535957774 -0.8957583252020899 0.2694023671870259 -0.11748625663820064 -1.326840458114811 1.1260843613715141 0.32074498484970276 0.5466617767209087 0.09090693339153222 -0.28366765571300706 -1.3088163206344954 -0.9909616144497346 -1.3945878691577631 0.6241194270947616 1.4244177227302866 -0.8080933571635387 -0.16966536885937555 0.7841752749488852 -1.491851669991276 -0.756439381341775 -1.096552542737534 0.89076063826907 -1.489868424670877 0.4127720590277971 -1.2843032037084905 0.18828355496238744 0.037250487252726845 0.7064434542937457 0.6972756085281339 1.1655709502073126 -1.3924827505627828 -0.9742610662058819 0.8258990195470065 -0.7570537741065336 0.11208779718189425 -0.9124504921120135 0.5050062224310864 1.405876898776662 1.0273289741040466 0.40564621547378543 -1.4848169024157776 -0.35011380825784616 -0.8630788102685304 0.05229529573798442 0.9778862197744528 -0.5285891394516689 -0.5990455364886837 
0.9373349466362014 -0.7602670932725695 0.18196563594147486 -1.440221626408863 -0.5330554773804965 -0.8946113195903822 -1.1055461604892505 0.6849894688670461 1.0114818664676817 -1.3320146453680817 -1.388871979050638 -0.3757906222334742 -0.9668189779077823 1.1015571052117112 -0.9586387744270711 0.5831105283591373 -0.6437783983223481 -1.0959188693958783 0.7851173472168235 0.1360837679660123 -0.17599604898115223 0.009751282249546618 0.5158782323400734 -0.8205243236757127 -0.24857999800562333 0.9344033262192688 -1.2960726014707793 1.1374007265008959 0.23631387481608188 -0.2226948293094179 -0.47845863990354826 0.9359899291885134 -1.2020153927496668 -0.27675676279685796 -1.268723378808325 1.152923703955288 -1.4912418543839263 -0.47813406236771505 -0.24243726309746177 -0.5176210569637268 1.4565734392734915 -0.24271278059840576 0.9018048959261905 0.3813789463419607 -1.4970846095536714 -1.1817056097290017 1.3588904550630494 -0.9445863888610397 -0.7567564593786971 -0.33674424069051817 -0.676172312026277 -0.21168543409576662 -0.7973381432216027 -0.4664213581654028 0.3954166497275952 -1.2798522228143012 1.160717900540386 1.3080436322523916 -0.4206958922441678 1.0578468663877396 0.9141447449761331 0.8044674273908233 -0.6480894152450019 -1.3150234770663756 -0.46764393670640036 -0.3757076604430878 1.4015197083294746 -0.10534064921389909 1.4685153577418946 -0.5944096367710864 -0.40500429720132614 -1.0659099363903153 1.3349345062602442 0.9053361006826939 1.150829113414108 1.1682599706545655 -1.2639000686137096 0.33987541968128493 -0.3917507725149957 -0.5603759202775537 -0.06658204156851955 0.3985458044200651 -0.35668139038613755 -1.260589226222892 1.1131408506634441 0.11894588948654729 1.3519931312013158 0.8055071270386157 1.340266752277554 1.4125368348458915 -0.23796557910412364 1.2486243093088232 1.0179933476020822 -0.05465288315811825 1.423406003777888 1.3629825275896945 -1.2091301657313056 -0.6774559090488962 -1.4706471786769588 -0.38833577627811494 
-1.429115004522996 0.9663912770868842 -1.205903457199608 -0.2811863487676614 0.23091530493054277 -0.9382460604731073 -1.4285476665246641 -1.0827661254761647 -1.17666260214928 1.2277278835246244 -0.4639010844810112 0.48294485423504774 0.16330603503190072 0.15709099249358016 0.6397236329867655 -0.8674925153175455 -0.7533098775246228 -0.9269929141234299 1.290090687276732 0.7831328626215021 -0.8192452544355038 1.2302250475804892 -0.08091606787170394 1.2118001774327318 0.3210239953587954 -0.06793414599292474 -0.7740264083258636 1.3549890542701204 0.6946463070189175 -1.3960418810243747 0.713939910381256 -0.3995049312281386 0.8569371811830925 -0.1587391122614907 0.49267517146390727 0.725177952604479 -1.266852255943388 -0.4291903935277251 -1.0302699703107714 -0.37221597620617136 -0.45026853760062846 1.3140705566186266 0.9950913864991565 -0.25859029640413256 -0.5216820812310654 -0.9142962969804345 -1.0081963184378704 -0.7189948651724574 -0.3224820163224652 0.1286191171629804 -0.6250245400482695 0.2912951076627705 -1.1107908244065798 -0.7551992042495524 0.7998062286275465 -1.4719537610251903 0.6693814705353276 0.29662405361755095 0.9739382372267041 0.028642431796727666 -0.8730271628187806 1.0022482524239509 -0.6739794588675599 1.2925622263553453 -1.1921677850954109 0.2250788176463722 0.92220587219989 1.4794703239325973 0.17177178794176376 0.34261214265059275 1.4833246344792554 0.2768742974719189 0.42079016331844143 -0.08225670301722253 -0.22681316310696775 -0.09854608925830394 -0.36772178032823083 1.4676760866147833 -0.42495299510421275 0.6228887213494299 -0.6566110740907075 0.6804443792720875 0.08850980727954115 -0.4120980408484545 1.369556573841793 -0.5230227969587576 1.4406081042727923 -0.7195388786070809 -1.2982787329806895 0.5866364855696221 0.28001458308092336 0.8164657025302039 -1.1624440526686177 0.5547237997781505 -0.20517195983678782 -1.0970126840196244 -0.3885819706976984 0.8567172341063772 1.2919178512856702 -0.9946194954482733 
1.1819853416734443 0.7248005170310116 1.4503944825243489 1.155895580312305 0.3440607947094987 0.6933657444218406 -1.1110262523275136 0.6648055149714159 0.34102217030401 -1.3146881124749648 -0.3173144886685515 0.051422920356871606 1.2003488150256445 0.4562276691424664 0.11648979883691842 -0.46595516705653856 -0.282837078532409 1.3310782947507465 0.4032508673529378 -0.20733976238001176 0.38640049628250633 0.9903325030069606 -1.4726619741257272 0.10279271734274102 1.175081410317819 -0.2091461234359635 -1.2711816234806148 0.773940687331175 -0.8450447587404716 -0.38100100360819017 -0.3475505537000585 0.7352160240988405 0.8247075834421023 -0.8116814991597932 -0.15889566613540745 1.145721202768521 -0.9095887476162655 -0.7569070401551301 0.015983231497547674 0.4572024647029802 -0.9792287041152266 0.6463969337956571 0.8432222839718782 1.0763058384329147 -0.007598808005402744 -0.8472242981004865 -0.007691670943432234 0.9753694477988194 -0.7313941043660657 -1.0682786996844968 1.3649320884263816 1.4033921458134129 0.6035097718120368 0.8396537733597537 0.7388452778041923 -0.12932905068762543 -0.2135906993724105 0.8970698831721645 0.567965255495372 0.39833658632405494 -0.18429609325502025 -0.9047266185849077 1.373600296624886 -1.0088814713888863 -1.2919425868951495 0.6789987514964634 -1.422333680571384 -0.12937497818503496 -0.47306247892581443 1.4797645802836983 1.2093495930524485 -0.9352071068854014 0.26653019802047434 -0.7887508115385944 0.6202884990121642 -1.1336765536620228 -0.8804483021237662 0.6575419144685158 1.4778146409452881 -0.5276333763654562 -0.4470305848043668 -0.42532043682742465 1.1641019825402286 -0.461302784605825 -0.9931905713219392 0.8766867876196789 0.7475816712210156 -0.1497431140368863 0.8024654583007561 1.1626470248989027 -0.7599150986003674 -0.7703656416233928 -0.971613509179531 0.533728582840278 0.40098243606668715 0.26129990264817227 -0.3127002333428603 0.8229408662202546 -0.6150574980368715 0.2584293591673681 
-1.3773467879458567 0.7307707641461213 -1.2752955560495054 0.6831086749747964 -0.9969551665376117 1.2792862191419372 -0.12819885927236666 -1.1433535670516075 0.8874962452834634 0.23539921741772132 -0.24665652891098394 1.2992720634324737 0.9058670713347394 0.6619103480386294 -0.34688613082979763 0.397266412878184 -1.0174686486157616 0.3004013290444855 -0.5998970998850719 -0.04333301049328214 -1.1492184349799972 0.8096857324381898 -0.5098855589048787 0.27803222275664935 -0.5155676959679525 -0.9281316000210437 0.3427241586210467 1.3058278349012666 1.3629149460952779 0.7402109817839446 0.6228510423541113 0.22520549868839754 0.0503975533985243 0.6418951058428106 1.4319470181355467 -0.0863426398799601 0.41617908706336254 -0.415003404165174 -0.8492183342088573 0.17438949131058534 0.6840313344096733 -0.8250175048598933 0.20435189031033385 1.3464674551923737 -0.27168812847504753 0.5080422311398942 1.3098787041539046 -0.9223257829991452 1.1694116621194186 0.3379647578871512 0.1261351506038961 -0.19549711894553082 -0.8995057336633199 -0.27408675727867227 -0.27475382680776966 -0.5180661329340441 -0.6973609840004312 0.1041505962053449 0.09493018125964045 -1.1076898164976752 0.32013773298626935 -1.1761551232774003 0.7331364904976371 -0.2223950619338201 0.7783007029517316 -0.2570137864798664 1.0982017177750856 -1.362885514073851 -1.3460859675536279 1.313759542019901 1.3974270718664676 0.994950078426929 -0.06003424408726463 -0.5636988901693475 0.18980984636229875 0.8789524928286165 -0.20136183167388902 0.80430728063644 -0.41231456105937636 0.9964497833628786 0.876941474577818 -0.0913616095223919 -1.054818284066821 -0.5123871475461256 0.5946539160936923 0.9407437469975239 0.15438260839041484 -1.4235947165149094 0.6827670953216565 0.9609488680354413 1.4619163619080549 0.32135740051406037 -0.8312885781970205 0.9258424724873475 -0.5356254383736903 0.10153000029930585 -0.7681752536770903 0.8758363869755644 0.2079194938341409 -0.7076162637965924 
1.2998305412012578 0.4079839476397954 0.720270373771854 1.3087701544225459 -1.2531540768415719 -1.05496112745933 1.26937244082043 -1.139497171934961 0.00906670218995762 1.0201676663859032 1.074184586607304 -1.3748671551962597 1.170263699595631 0.7781898828428271 -0.7100631480251645 0.985189906487414 -1.3217048072533235 -0.10086149937266142 -1.0474733845792898 1.2415918343535095 1.383377221675532 -0.05415100590411566 -0.5416291539639494 -1.2573367831998603 -0.7881876978242836 -1.2050029451870046 -0.07119229649002873 0.3411274497021164 1.2658148502760949 0.22760004575716375 -1.2356519119373652 -0.7264933583706567 0.4487300549412526 -1.3068350750858853 -1.2110478444932367 0.6380037638452848 1.2571221271546964 -0.3704713317532842 -1.426708173314471 -0.8988652706317112 1.003274917128904 -0.7327683027333476 -0.7535317262732483 0.10520282750796517 -0.40297063312929526 -1.4167417198276309 0.5867954235821728 1.0124934624059596 -0.012956556308596765 1.2432459801478504 -1.191535188521837 0.3449253709660576 -0.7573784227133836 0.2940546808651571 0.12179550254192599 0.24873137241676888 0.08622628109538817 -0.3362705957963466 -0.8060118386041808 1.0619259783697508 -0.12918475488936096 1.3228154767982123 -0.29499338181719165 0.7649956527791617 -1.2442782549110325 0.6613072007066572 1.0797849143472364 -0.37380698009448987 0.8554710225405238 1.2327210493190228 0.46763864436777497 0.3274140917449269 0.6073036686750989 0.1676409523833636 0.20853347122596314 -1.2739200342049015 -0.03314100298866094 -1.4845009686036372 -0.4256174468380364 0.14596184778507695 -0.6669393574319874 0.7127760672218474 -1.1053270949257679 -0.5636657743126462 -0.026829833906196664 -0.1388270754274187 0.6166307812280094 0.4550064501205059 -0.11907466997343694 0.15140869692797207 0.8741618385678306 -0.5045512593305107 0.6814680671843517 -0.5636914091078095 0.09540188272074122 0.5353780468810271 0.08257839311479324 0.11773193436548403 -1.3333721426637786 -0.9606178781965088 
-0.9053266041553291 -1.150887442284587 1.294233165566923 -1.3276881170714443 -1.0838271176680512 -0.6379675015367746 0.8862629266255955 -0.03246755786943434 0.558125244767754 -1.0597988941247674 1.4308699588586193 0.29133937514069136 -0.7384543764941353 0.4864059145931861 -0.3385908905815735 -1.130591524681533 -0.938599215667751 -0.3775222466593643 -0.6236436887871923 1.374832540117429 -0.9101631861265925 -0.48489295184920106 1.4000216900185949 0.5724951101953935 0.11538185646169055 0.2416212131858644 1.154434833590924 1.4408337464434733 0.9254245336891401 0.4365906249173525 -1.0095464164930736 -0.12217023527033964 1.2507308035132956 -0.7343801784697477 -0.25841528488379556 0.10919056411935432 1.1627901997421095 -1.2259353497905436 1.368567391763938 1.3681887769155807 1.2233720167942572 -0.5195289307975979 1.4986887429225784 0.011920317331899176 0.24494380647010922 1.4558274865281764 -0.6146870626486575 0.37796551513360843 0.2257919600522326 0.6715628609938925 -1.388332780143349 1.3747166387815672 -0.4047349496069309 -1.1779405714020397 0.7990669873939514 -1.2634539027392038 0.4807781847354558 -0.3754211840956707 0.8152494282185531 0.6069270937190829 0.5963102320310983 -0.23821021040436385 0.2438161292479181 0.933448209016205 0.8307149633513576 -1.0336464442928814 0.0551620077206231 0.7593333911193259 0.3601272121958949 -1.3670832921269889 -0.464057430062429 0.3101174647933158 -0.710060076620791 1.1051543914193258 0.9895718327352657 -0.27486462499471814 0.9259560811303075 -0.8863108567594143 0.4569166006541812 0.915481172333591 -1.2313752547839112 -0.6676582173281022 1.252305163075931 1.3901907049437627 0.9350175904797757 0.8776369582260226 -0.22557593003493606 -0.7500436377288257 -1.4356959845260415 0.7966985777545902 -0.7146801881025939 -0.6084000038636417 0.19718543799474927 0.6555273581547979 -0.46631451588220485 0.30056284140912365 0.6919871460581773 -1.004972031491179 -1.202533302100546 0.6134262486003286 
-0.2996435391173024 -0.7672406403308459 -1.2218181892296203 -0.7678011449808582 1.113917812794491 0.8485807755240485 -0.8499718473701002 1.464278773987582 -1.1986230254082202 1.39317493844074 1.476809707794546 -1.1577643386681649 -1.3969066417659657 0.7316421357550783 -0.2892655133335744 -0.2353819100409732 0.6693046865096646 -1.0863033459606173 -0.19668818756991174 -1.2310995931711026 -0.9467968375766392 -1.2281536668782014 -0.7160796070962466 -0.8633397396126659 -0.7680787261351842 -0.052885233031849214 -1.1266952908795513 0.5982113250714507 -1.0603309157883458 -0.5674327458564535 -0.4135566155306773 0.35624494778173066 -0.4172795263171139 0.49108438424769224 1.3246653621395414 -0.22070661770662525 1.4231350904615432 -0.692215555270804 -1.4318241746283509 0.4678370391505475 0.7928499245295353 -1.0278749359486037 -1.0512439238047522 0.9722813750798636 -0.08046592050448266 0.28136601543737266 1.3978761305107001 -0.44563207131130816 1.3089714487487054 -1.171129571591095 -1.3735735738272585 -0.962594292522738 -1.0143923042573655 -1.2445596913711805 0.794734165283382 0.7015023887593589 -0.8244726836724898 -0.22046187285147167 -0.2834562000808282 -0.12841166076859978 -0.4248754316431858 0.8132100172549707 1.4487435744985009 -1.3435590852619677 0.5915191793485164 -0.8262852187236879 -0.5712541683314195 0.8316124642069112 -0.5881643206872802 -0.13019244575250233 -1.2236572473663743 -1.3221750706657915 -1.384999692862023 -0.41980071936212243 -1.0452952854844568 0.49012967495806636 -0.10829148962215866 -1.2093084772901495 0.9804964111006752 -0.9364231390690975 0.13326814600282771 0.5127375816387816 1.1524866215259726 0.8085450790129775 -0.5113092930886262 -0.7135258069302519 0.10306148076125723 1.4843171212646677 -1.4587189632112139 -1.068816011484954 1.4820735863277956 1.2737287607281484 -0.06012841714558247 -0.0044760223620711435 -0.048784023566566886 -0.6184867566718767 1.0818938054506808 -1.0243139254521376 0.0951619208842774 -0.05728869711603125 
0.6352754366302329 -0.3024688247549807 -0.0697666729855661 0.6771537971239194 -1.1990652273537663 -0.06915842007714086 -0.7153888581421256 0.4308442969136099 -0.17230471709195153 0.5218481122783796 1.4444520597509631 0.7748007081459067 0.6859420204699127 0.6321773664659018 1.1917688269411668 1.4195428227441238 0.6129669341232755 0.15299345683331622 0.8814859007007922 -0.27835009644409936 0.7579720029794367 -0.4821462134117933 0.7607449137360629 -0.4699951899602422 -0.2049614827190176 -0.7717395390206043 1.1618702804616243 -1.4546050648329376 -1.4548682567333513 0.2151551869912507 -0.21269976965663773 -1.1194186535652781 1.47864800721102 -0.496838083282498 1.114528145003227 -1.4456199576225253 -0.4955337708008833 0.4504668158133707 -0.2798839118749213 -1.0155023731478374 1.218640773054674 -0.2852073140752355 -0.24039457713746237 0.10286919009637062 0.926939262602388 -0.6614799950080168 -0.05952749491365776 -1.2176259599514145 -0.27079906793798775 -1.1520653793223221 -0.37001683813404734 -1.1038169703681093 -0.8981784446002076 -0.40153139846030445 0.038757018584158684 1.2018667537370424 -0.6374914038317848 0.40955752557503355 0.15226925333156321 -1.072329813795827 0.7270822092343876 -0.5286412152611061 -1.250819977776781 0.6449853021490386 -1.3686908848582244 -1.0041274145430974 -0.5076901899622056 -0.3466705782620949 1.086881894076128 -0.2881555831681174 0.5990735186889626 -0.27856881719579885 -0.43184078868201153 1.1128619800247295 0.5210949999065467 -0.968698613700528 0.3637361530520443 -1.4031944462201442 1.2069957738696526 -0.3242250635538591 -0.18400252628505076 0.10152739010204508 -1.440815937428603 1.3803929519430822 0.895981741924976 -1.4587906497118877 -0.29308317829515446 0.42432718919855433 0.849889326677501 0.6436907003960244 -0.5087427706025534 1.4764146929203597 -1.4583638492189817 -1.3275071310796367 1.1055027539456117 1.3911512497383736 -0.8907755981770218 -0.8227469252632958 -0.9969412361437564 0.7286154110985834 
-0.5505567609565133 -1.3553497714943674 -0.535576704080001 1.2394041395212765 -0.11149445583473841 -0.8900295139274049 0.04609411873532905 -0.68702235151681 -1.2759185534008708 1.4581476778181177 1.4438312541117584 1.369606375727482 0.42391727261308293 -1.0913174056836559 1.2884628115677899 -0.27869500410792025 -1.1842557448522082 0.14315881222048105 -0.9003992953270843 0.9081786013271083 -1.1824610008426235 0.14422380366993579 1.420317001271556 0.48493850133754435 -0.3826859616896446 0.38295172173554615 0.7925588998067608 1.1013902351415652 1.117423403107205 -0.7430340631237929 -0.9624659809458762 -0.7904515780424252 0.9920003677442532 -0.47410034332739526 0.3421520094143122 -0.24553892503443905 -0.02809264254225772 -0.29399276012419945 -1.3654993414900256 -0.5093841315347354 1.4386885018445894 -0.19417591993437253 1.3815838012195425 1.1067404437002837 1.294559703251173 0.4340805681567963 0.3015363627238577 1.3678964336124095 -0.24594627276103725 1.3206616010553132 -1.0769418477381294 -0.912157043241369 -1.4413507753510668 -0.9321048805313968 0.5467754350267466 0.5840541537893417 -0.19073624653111826 0.2744449344968786 1.0270658932080492 -0.07811208794737891 -0.37690693864605296 0.508248008077732 -1.2709805717543108 -1.0730474212962318 -0.4461770849837982 -0.3515282774071892 -0.14529295025722486 -1.4384141387049056 1.4472942878851398 1.151958827174861 1.0876988234189742 -1.1551486970622522 -1.0484381973091625 -0.9013010298396079 0.6382716342383836 0.4560636197925569 0.9636763838885573 -1.4305818477855263 1.1400764265246544 0.6636158002766974 0.5769635580638333 -0.15052270850170896 1.0971268430344654 1.4730255428724477 -1.2227234094094863 1.0961906073667043 -1.18082578632491 1.1891126415926088 0.1873847587690805 -1.0875071608231808 -1.2296895062475637 1.284504475477126 -1.258623779177002 -1.4265049350206815 -0.9783702142795816 -1.2345049544689697 -1.1049207483643144 0.8325873484663208 0.8914184944137689 -0.08040678948646263 
0.5794554662050452 -0.6178861039878857 0.34387505234900256 -1.2430291863539777 0.68435326646208 -1.2643722840057865 -1.2144615505539 1.2338980749802533 -1.098711682624807 0.4241559670301376 -0.5947417692158146 -0.8012816332820579 0.5577614457005521 -0.377319913487232 0.42335292623373527 0.6546448160272373 -0.6392951207575448 -0.22199851880507654 -0.4611978097738845 0.22589145963334667 0.8825109127263308 -1.132408472760336 -0.1276920391977293 0.8019910411080882 0.7503570172134661 0.9755637299704045 -0.42826909936792884 0.049837736733004644 0.03784612923026906 -1.4392088634144247 0.25047453947347526 1.0167267543840706 0.688146710452537 0.22200897734135328 0.7108145171092285 -0.9827994282534754 0.7680940567479676 0.23329278044983087 0.5782659408191407 -0.7652202490254568 1.461163919827565 0.28861759093425793 0.359362449914281 0.008722886717934846 -0.5300783907168086 -1.2379378502231027 1.0101755660621459 -0.2520511009757224 0.7132258806009514 1.4334985193640688 -0.2473255786949979 0.9956653536616927 -1.074712477854542 -0.22429787378698285 -1.268059612705203 -0.021675586748419254 -0.9271126655364619 -0.2068433745710805 -0.8177541809858702 -0.4010114196441102 1.303245598286054 -0.9415230823458847 0.8991729261968294 -0.5598938850404138 -1.4108356471732788 -0.7213191230716717 -0.046205995128462934 1.0102338048305182 -1.4118642888788517 1.0869739249295045 0.440264611878725 -0.08445412135462974 -1.3371988850637777 -0.4040315652712303 0.5049238998139938 -0.35279943878473113 -0.36025829933884107 -0.5985830243301904 0.4346090705045 -0.8899489925463845 0.9821643835769185 1.1101203442731606 1.0686098858707358 -0.7527634672499528 1.3975951699134987 0.13131381879574444 1.2488521543887703 -0.6198643638242669 -1.2760290720706238 -0.3097798407465532 0.23854496034941972 -1.4296868671746223 -0.8317002878995267 0.803454940203302 1.0106040205168405 -0.4750428501012014 1.4969060014733158 -1.3330045539762292 -1.0659213180507108 -0.6906996379106882 
-0.970902177826339 1.4219334730190814 1.071617183658204 1.4593791072390256 -1.3769035514841979 0.5111412088168573 -0.38100836180517295 -1.1755994384097797 -0.4174922043011535 0.3935823177809318 -1.2859800092536255 1.4043252494027614 -0.041309932471979526 1.0753115585456883 0.28656402760954575 0.8978405506820022 0.6732290824273907 -0.1410239252781932 -0.2132141089031944 -0.9311298760519692 -1.3530414267505364 1.2222875592919513 -1.1789909039277173 0.0683867635942764 -1.253919976321624 1.2715151386844323 -1.163645872594474 1.4719549010191284 -0.12680099550714422 0.36487125138652937 0.2195942862709726 1.3782932680173603 1.3768913288647 -0.5797657572753904 -0.35387742357927177 -0.18854595008957387 -0.24183033481790997 0.3158843558812493 -1.0471268218343175 -1.1426240474431368 0.40087325726285 -0.507200080214532 -1.1262040825458377 -0.4781272443168195 0.6305141350307917 0.1281694897175668 -1.2027437116222857 1.1976292055859703 1.2185560702622171 0.42353343903296703 0.553189834227751 -0.8029591998379254 -1.000453205768321 0.13191467735723836 -0.6696319917012495 -1.4167928074311067 1.2409779254788036 0.8242456273694332 1.1040620403869328 0.11369439481453672 0.9157455266527295 0.51808076388777 1.3138017470245686 -0.2686441113574933 1.2257562851712445 -0.5688569334818313 -1.1275462271673486 0.5814638832101358 -0.2094022539017262 1.499180382544089 -0.31680854069400766 -0.9258494204085604 1.0427249822067268 -0.464905433494913 -0.501030816477335 1.3714059847400162 -0.2668295734212911 -1.3908458080372283 0.7100309804153068 1.1701645412685802 -0.7104068390849729 0.011643636730265732 0.3738827002533421 -1.2081074245091765 -0.2153726212777295 -0.655714401064259 0.4139996683975552 -0.1366530310094044 0.8619835302537577 -1.0461113768593184 -0.572243731220632 -0.5156590079481944 -0.11267625548979111 -0.8466200198219096 0.6608660730909308 -0.9728880176272564 -1.153613443620999 -0.08425539404185414 0.5975718285723272 1.3556915911199234 
-0.5242328785398429 -1.376144567837231 -0.5177699258591982 0.5765265915130477 0.19590765994867776 0.2500246983768808 -0.26105051926855105 1.2153609627317206 -0.18090004459705034 1.3288264966466592 -0.20669149520285357 0.3869550470794838 -0.7058802785375401 1.2477270810116456 0.2954976087488568 1.1994141634644695 0.5451790375985879 0.7857034114432642 -1.108675244671836 0.09108925342099394 0.6264792683158431 -0.1907602470517611 1.3653694335362765 1.1487920246740764 0.07795791809949115 -0.8501732655088787 1.487878865155556 -1.1014873948636206 -0.49924684424088417 0.029875021421368553 0.3881294769984127 -0.8735287835240346 0.9714965430465843 -1.0345189193422 -1.2630617031595222 -0.9157682088957116 -1.0161199019412495 -0.14524616729009798 -0.5502808135387632 -0.053743131843861924 1.1440294209640607 -0.0405646034446292 0.018940400831357174 -0.3783212160692351 0.8530503421285038 -1.2946766656113842 -1.0489496004398795 -1.0257884472288188 0.6857044771203027 0.6635232005036613 1.1179002363124413 1.175027562715369 -0.8814987231722167 0.7298361234483246 -0.8635989764477955 -0.6969305133372438 0.6735845021108835 -0.6063926952399397 1.162617311131858 1.4156676974122249 -0.5733769198581511 1.080136418246826 0.7277064529162369 1.1394813411051605 1.1775052577626655 -1.1377268987243303 1.4530757984404943 -0.6223199365179193 1.4019683388203283 0.36709572121995593 -0.3391587115408823 -1.00606868061219 0.39038476166870284 1.4525927599776125 1.0431304295642105 1.3171571056843785 -1.263240905511902 0.19704215978332051 -1.330015900518581 -0.9868280363935317 0.5665770758454789 0.9303054266656741 -1.2994262840239443 0.2902128079467112 -1.4135145927327835 -0.5584725641897491 -0.7838405877584947 0.5450197526247949 0.20186353384852795 1.1217568647584408 -0.38432327775726005 1.4145248105124044 -0.41981139964869607 -0.35722543471182977 1.0060510297267702 0.7753551002854664 0.6386767211429896 -0.1650583613279144 -1.0207022312372538 0.5292533619170272 
0.5043681072310982 -1.2957040491250837 1.1068929642669958 1.0436661628663584 -0.9686745172600694 0.04925871975797987 -0.705602018367122 -1.2636923939418117 1.4666954971295492 0.7890095129752861 0.33775310617260407 0.06210279796471265 0.3641465363176268 0.16346356773582396 -0.9071582497520767 0.9144379083223042 -0.883002560768461 -0.9879771936950439 -1.3751025066200822 -0.5298478374638907 0.8580992009306152 -0.20070939911212532 -0.7023724680414282 -1.4822876931646431 -0.8707399011475937 -0.5259421342187083 0.2530839288772573 -1.0051153508284154 1.2820593296081728 1.4407358071557734 -0.5442710314638747 -0.12297887028186832 1.342839403538219 -0.4718174801995698 0.32483541407684835 -0.60112207471971 0.49209322120049476 1.095354518774885 -1.096324627031493 -1.2092138996026445 -0.3081056717766543 -0.42130346033761723 -1.0068421100478167 1.113031011800472 -0.42928316091203494 0.33845338113368734 -0.07728855784869369 0.6711421392156264 -0.6214502219578923 -1.4203910811620009 0.959628978581673 -0.014228615785089431 -1.4747941991651097 -1.2205150696643932 -0.15931708621421825 0.9886537891176518 -1.2548970074086998 0.12191993910953142 0.6267919917980557 -0.3687816872793503 -1.1416852008107043 0.9612918165716027 1.016047831688718 0.761353388656744 -0.36292670888706985 -1.2038472919882897 -1.3039678427035117 1.3403418597776646 -0.9585014886520221 0.5939711925691896 -0.702261701501336 0.8863861628012387 1.3130381507714082 -0.8008377114605452 1.2250354480044647 -1.4244339913599293 0.5291110460384593 -0.7357968717924779 0.058097260308174546 0.9627103812312733 1.2526391949968985 -0.20507818967267286 0.21380695033003638 1.357715631166328 0.5532292959098449 -0.24600167665879116 -0.15382242801668378 0.0690516933194963 -1.4316810462374334 1.3951830848269813 -0.3905257765562303 -0.6517060490101634 0.2087739866031974 -0.4154412372533889 -1.2737496439731202 -0.04372297051586892 0.24793330846671252 1.151642036717143 -0.028025141482847522 0.8853790623022711 
-0.4801934254645945 1.4920225430386274 -1.392471726407335 0.16645975974235394 1.3578543717697702 0.12819555296459817 1.1703504732140089 -0.8961458450410652 0.3430488321876084 -1.0466132477499623 -0.5158147317818838 -0.6902826608649407 0.14404615226444845 -0.9791560040321474 1.3067489017379426 0.14697616286797968 -0.6958626297280226 0.0036223578394887065 -1.1794135529229732 -0.3958191058096386 -0.13928989710687248 -0.5528709769086226 1.0963539924622088 -0.5682808032871863 -0.8450391708698314 0.8017146749464129 1.355693076896681 -0.029161379624515562 0.3278863911546267 -1.071149222511037 -0.2079296215102697 0.6367823037492926 -1.3861312648787634 0.7705724827818927 0.8003428717637038 0.6928635632394033 0.5989384917075874 -1.3256610242501727 -0.4232414220464855 0.20727854617573613 -1.2281165410556434 -0.5411509528239596 -0.21931222054811622 0.40573441520226633 -0.0903576599499983 1.3291016924330856 -0.6188343013715446 -1.4722753538562077 0.37917355544022124 -0.8541264438787869 0.40164063292522206 0.7423073559495506 -1.2577078841868847 -1.3287763088305091 -0.07779583483258215 0.34820016113099317 1.345893954020627 -0.021747606300784345 0.6972705034293306 0.9741860129552375 0.25964970031988016 0.11573989982116928 -0.17996560685601445 1.1042134744391645 0.1167481780258559 1.2017904858151067 -0.36224548845283455 -0.5012328219943769 0.9260335036448383 0.7728018548934275 -0.7961959279946517 -1.2182231083187278 0.8663933033216773 -0.2961278793729949 -0.42704161353452913 1.0612476626181917 -1.1105808363557421 -0.8574753298203674 -1.1580490070685188 -1.1178233956132761 0.7226980472985126 0.9925376354238132 1.0636324316863535 -0.09527123955066592 1.2186701460954485 0.39093109539541687 0.6650585246781272 -0.1999593885040877 -1.3889594952803392 -0.7966657958123983 -1.1310356239546517 -0.4940985821926023 0.38061012155701507 -0.27166552501053315 -1.343029582765771 -0.04428402692658457 0.8162582893514857 -0.03981108285837859 -0.8062758840123088 1.0671613667340714 
-1.4776833942616758 0.4826523682058509 1.2738216584682052 0.07698421052870623 -0.7238839521634564 -1.0226249254189885 -0.544964946107945 -0.2804728852586219 0.29592599671432296 -0.1776999770690307 0.19882845695183468 -1.2720396606061863 0.39276835484749945 0.880171066021091 0.6319891051054499 -0.6315923752619365 0.29206859229113424 1.2866418838651763 0.5335999274761751 1.064015098243022 1.1214013406526404 -1.4726413078731373 0.3033755061430373 -0.01667624301126056 1.3405655644817878 0.4320244680880476 -1.4190729973890148 0.9908405025137759 1.1213242588301382 -1.152421978145585 -0.6626546511465689 -0.09792107356826817 -1.3793703676596027 1.298474137518468 -0.43484201330113914 0.5985444044745981 -0.6600226152232118 -0.8694973052455686 -0.9634880379740774 0.7922509527651327 -0.43843819410031426 -0.2752593416333267 -0.4837121195924769 -1.47824891872165 -0.022037560315912343 0.8961097481671607 -1.4544642024120054 0.32078024011857076 -1.3588397785784863 1.4038558890974184 0.5718026123885498 0.4195950784815139 -1.4071767943970386 0.09605934948188567 1.2536331870763318 -0.025868303639066757 -0.575395674408584 0.32898507334391586 0.8355077000562351 -0.2050472732799437 1.4708884174609578 0.4689935483676215 -0.1621894503801825 -0.43431436281182423 1.2477160694544749 -0.8760810758934111 -0.6674809772730168 -1.124357529092569 -0.06347225419802086 -1.3942186127291605 0.2939967546115349 -1.090379762074194 -0.5513398200487282 1.251552586177742 0.8296852128167176 1.322392312100947 -0.933577551090263 -1.2568660764510973 -0.13427677782947875 0.16823080850289907 -0.8090032135631707 1.1933123392415985 -0.669899544591177 -0.16818890552850613 -0.2244474690169415 1.0491639071782104 -1.4237894378715539 -0.01815846691582361 0.3660083888635823 0.030086463627670708 -1.099586615647339 0.16766387380521885 -0.47231361079051337 -1.1625289661933849 -0.7536189623743744 -0.3506345070976528 -0.46006037316739146 -0.8971627958247649 0.797488651699837 0.6629363950524544 
-0.8803257855101677 -0.853971839102083 0.02082832674867334 -0.3938248610503825 -1.1745407767944287 0.5568993445306697 -0.9617937892767268 1.0244623192820865 1.1348112699290793 -1.455611479287319 1.088108949684485 -0.8192824011138661 -0.643236854285983 -0.9045094792761086 -0.6554035465535751 -0.7459330444060264 1.0369649927801556 -0.8283548327789164 -1.430801068173233 -0.5185665214651625 0.9865171329337096 1.1072001793907582 -0.5506225243123295 1.348298582247226 0.004741015502544388 1.2034882241607414 0.6041076021158186 1.4667013551697803 -0.12148311575686015 0.0626432218662345 -1.401773990791441 1.22457254273432 0.34757626684038445 1.325398952852191 0.8603192507590384 -1.0582730690944586 0.22482314788992974 -0.022854170858175232 -0.08038046339369773 1.4120445164420643 1.3465453362075 1.1193075578511344 0.5604966307333977 -0.9816287687728096 0.923462593965584 -1.0438284690598048 -0.6270634784913115 1.4040704294713786 0.5096613462757074 -0.883955729485054 0.16222290672339895 -0.9118017112291837 -1.1428229180760117 -0.5458258972541371 -1.171937328395997 1.008737406758795 1.454683692794882 -0.937163766118298 -0.29956208218632285 -0.5767906752625478 0.7480675586137717 0.9131409189363793 -0.13626598009180024 1.098650416875433 -1.3033433021129914 0.7428993778251884 -0.7902353861806161 -0.012491775168744404 0.16086681316571966 0.2637156397630238 1.4585722123012876 0.12919695283812271 -0.8643104739050318 1.2524141560545634 0.8682002887294316 -0.8898694630888133 -0.009573926319879243 0.1250572086654323 -0.6300746421641366 -0.21594009129701322 1.1292832106100126 -1.328001860078552 -0.4512282795055956 0.9496180213935328 -0.7352556941930386 0.3857533348315749 -0.20359329912920018 -1.246719190048819 -1.4497421159750843 0.4531338278394466 1.311770154752584 0.17023593657025887 -0.5983292356069221 1.4591965731699281 1.0645722486118585 -1.2215541159817602 0.6438944787570926 0.07077126026071129 0.6763450320893069 -0.2539874651761548 
1.2418845318288818 -0.48072524748763357 0.24762290240035606 0.08329860306535931 -0.5482058909638428 0.6195507620717556 -0.3051467793715354 -0.39149547026375364 1.3246208871972096 0.47401956418945523 0.26878331999726407 0.051737252661712745 -0.6533172653426407 -0.44505841544668595 -1.365010944797789 0.7617932251026318 -0.7404227783682645 -1.4661750505897944 1.3485844308996933 0.8811325429620314 0.20360628431315872 -0.3815329272357646 0.12684030308227737 0.5379925808265573 -0.8412528041163544 1.4625100410172729 -1.3105471062286946 -0.8709296766162615 -0.3278327574187138 0.7194497487968746 0.4953846586868587 1.1641601805849238 0.854872313707688 -1.0557925465289546 -1.4943075051064947 0.7837250291603591 -0.21645347792754077 0.43575667554156733 -0.19269385738380415 -0.8417171070783439 0.6276583734167596 -0.10557493915758212 1.3667888810268738 0.26243398905220694 1.4889786316885971 1.051268612521475 -0.7549596267505952 1.280186128298781 -0.7258838230154993 0.2676548579132578 -1.1385258895782497 1.2658054924751363 0.682442213589434 -1.4092613191939933 1.1952170323027407 -0.7404287838392318 -0.33839642939958015 -0.14703870203248098 0.4721052187404053 1.4741441820260648 0.5971697512501107 1.4479068116188354 0.5736994006066866 -1.4092624083797516 -1.1346061815981248 0.2510557284628237 -0.05522080817325996 -0.44936979100789437 -1.044130876084627 0.9075925982215662 1.3542795627676356 -0.4081693098164276 0.5902646664106258 -1.2146561465465062 -1.318648440754885 -1.033075743839113 -0.8591032598133207 0.33125519981574403 1.06486156670496 0.040689543119815125 0.6272464534263831 -0.8138034993666166 -0.299334229381749 -0.5304556139903481 -0.9470427731730277 -0.48687042673131503 -0.3570689026152791 0.18738824183575534 -0.3760208915527282 1.2642093992233656 -1.401122280131761 0.46974353785991707 -0.2995823059709395 0.40739411791469715 0.30847224050951305 0.20435820637244695 -0.15229349035689935 0.9301675818899503 0.19325715931410298 -0.8511124901646877 
0.6936045593542428 1.3869459132588586 1.2287008241110822 -0.9546490227224669 0.6053170780223157 0.1884944100897751 -1.2249099080418848 0.8841577809352719 -0.9973341991431862 -0.3130587880369911 0.39324177369358393 1.4600373729117315 0.7081767239315885 0.13637201642229646 0.6357515055968621 1.4818309896574346 -1.305373512698247 0.7443929171911959 -0.5540802869582986 -1.2398421004105842 0.4185831550600272 -1.1029124482216746 0.6036324156095785 -0.2466591147820681 -1.502530108977877 1.4105511301947307 0.23481689812881712 0.13508862179491796 1.1764476144824505 -0.8672803651857023 -0.8151481609860022 -1.4796466752517832 -0.213797588116952 1.3377446805282813 -0.9354563204417218 1.0193767839714425 -0.7421502461106707 0.6758135454891371 0.719081696373881 -0.6117258285870525 -0.39421661943507924 -0.7522459786375031 1.4943523981575257 -0.20647403491904553 0.8063328718335802 -0.9359259278620919 -0.984028339392661 -0.0639580998125432 1.3870216407390838 -0.49257893262895114 0.5646969559183587 -1.3806051090196905 -1.334041972018437 0.3300595523331346 0.7816423883717243 -0.6092193894150935 0.4634674229643383 -0.6338324757611665 0.2171898666515749 -0.7285822116111264 -0.18593289014252412 -0.49586154086261974 -0.8299282274537619 -1.032856396347171 -0.735070402689376 -1.0318757895239679 1.065648653600263 0.30516120138629577 0.5973924789023222 -3.0092496320212114E-4 -0.6566558354757139 -1.073781434430725 -1.1589872438532451 -0.31364048113087356 -1.0761684900757293 -1.0478819316343753 -0.04744621819655991 -0.4481938906081749 -1.318159622336058 0.5688856597666412 -0.7157472193110944 -1.4110698052876194 -1.4893885990293863 -0.5647141185667555 0.1415812714169282 0.06098917007033913 0.8829994517373125 -1.1898234666209506 -0.7555921308654437 0.03404299304870289 -1.370326216931056 -0.1460184624483715 -0.08446853171194 1.4387099853379481 0.5039906532404922 -0.711617000062545 1.0750621752433764 -0.2859099481588036 0.40080756274156454 -0.6625973412995679 
0.161867642218268 -0.5241795799838861 -1.409312295565603 -1.1513294087583077 -0.8596336508993166 -0.41941726021123854 -0.6755867294627835 -0.10616121576132229 1.2619460948664918 0.27492498365649537 -1.3144665337907182 1.023144865500245 0.5627944176434634 -1.4035455819185352 -0.26976831914028687 0.3555472483952606 -1.2381583895701918 0.826569537169022 0.8402744639093503 0.9831152327002525 0.725998907546711 1.1058482790073112 1.217831451357179 0.8432720147807787 0.0625355213761741 0.5758580188942491 1.2622864583193762 0.6265389156202593 0.6633313741475715 1.3441422806670464 0.5604573102631656 -1.350886399127759 -1.3815557656880066 1.165260385553657 1.4613835103458654 -0.8099090414413874 1.433434302536193 -0.49726626452884837 -0.6484215799625225 0.8278670024697111 1.1046750246190626 0.9350125641466202 0.6114256933127444 0.5312461008217678 -1.2660168489842132 0.007040905177428644 -1.2488779755558002 0.9641201571120671 1.138202886748234 -0.5302918140660152 -0.11502754217508572 -1.2338566597675495 1.0778235364999798 1.2352384209153566 0.48279184366376726 0.08518912930924841 -0.5401981507467603 -0.5529594381795367 0.40200507561099025 -0.007651732677887476 0.2200788911784078 1.0085997205017003 0.3370265346788968 -0.2355510670728923 1.399526192538076 -1.2713399725807186 0.8230430621899655 1.3165619952577747 -0.10406547780129749 0.9057211771973752 -0.09576899741418109 1.3551323280874323 0.1084107893579989 0.18698843651923844 -1.1270037973199525 1.4499337577471794 -0.0679652343605659 -0.06567355262209236 1.0614608834644677 0.4301059355670668 1.0214746628495457 0.868334169823298 1.076674031749372 1.4398374052807221 1.1370832756528526 0.795620895605494 1.3390307501555507 -0.038619114214296514 -1.3841911573135535 1.4547674160072268 -1.090397627550883 -0.4238707595063354 -1.2429752516470978 -0.28722653636161916 0.5811984105309395 0.06338539882649956 0.8608866847700581 -0.8736003294206197 0.7696131375735973 -0.005907743878506465 
1.4301118207784556 -0.28441147682082346 0.43200301708603756 1.013228749134566 -0.19312758796848678 0.2103270244490768 1.4703842017203632 -0.6301323087649371 -0.2555491126719782 -1.1983069199833274 -1.199944095430346 0.04990139692581639 -0.5747515161081063 -0.6081905846620161 -1.3431861855741725 -1.1108987734789793 0.8611376532672333 0.424665872114143 -1.1819190940914839 -0.7051106757161633 0.8755555996820359 -0.8318035517876053 -1.366327682859599 -1.1670159987200848 0.8073375682362982 -0.9655477999660956 -0.2118254835356426 0.3433473681604979 1.3199842993671467 -0.059634500141077317 -0.051691255683084116 0.5624798456582368 0.7870667787662231 -1.2645832671860893 -0.13778450273156434 -1.2211222881550878 0.07272687254591409 0.036051643053766534 0.8977055998198126 1.041416184180118 -0.15740327321861172 1.4938913107731193 1.044098987294842 0.6418541984138445 1.3769786192821374 0.18592005154724708 -0.8362621640831263 1.2562212456442647 0.35035578231445896 0.10230160127327645 -0.852420617145472 0.40447631985931926 -0.057916345663094906 -0.42486190461576157 -1.3654498287772525 -0.6249623005138359 -0.9063366129833614 0.9913105592040721 -0.7758389633211825 1.0616476139765927 -0.22318704459125277 0.6463965216993209 -0.49157477611214573 0.5503704325889771 -1.340416778396666 -0.2839420202882586 1.371885930079816 -0.568873879291793 0.3153823814656682 -1.3679625763810375 -0.6707130263960592 1.2278378070764207 1.4559313636312485 -1.4974413165840368 -0.924308932891317 0.8010862383326477 -1.2701311155369528 -0.8496909880235753 1.280695198286297 -1.1671900938730968 -1.2390487060543998 -0.6936547483826375 -0.7492051633440772 -0.6357636859048074 0.7208922920140755 -0.9498142975553665 -1.1904464470550922 1.3226168136219476 -0.31970722819507447 0.22870350624406496 0.04641851774711016 -0.6323558050709129 0.4564551119700377 -0.6979901090817364 -0.17348802948933176 -0.7458626515558879 -0.678668643485862 -0.7221418868515433 -0.2833275502726189 -0.6575163782117004 
1.456537075092233 -1.2754550530440423 -1.096892612855506 -1.0241919347465036 -0.5114285586570262 -1.2801839959828383 1.1104814028790426 -1.2726472725314257 1.4074688642526225 -0.16730271652847892 0.4951138142465713 0.3092371493689558 -0.10259358495250151 0.6796619205010686 0.07119077524632819 0.9088953023785485 -0.7548450774454633 1.1347890835209105 0.5771068518086581 0.9547439664956713 -0.03658391359838683 0.5464381725790958 1.1028132844099834 -1.09383353094773 -0.019035455873246048 -0.5141669959573921 1.060340504487189 -0.9791702737174428 0.12408399646981016 0.44882450929853523 -0.47327356010553523 0.36634678177487917 -0.5001505624797711 -0.5805309530111271 -1.3863114439390172 -0.16967580820764994 1.4175985286004371 -0.023422932694634184 -0.8327120792935034 0.8694143212933576 0.5329743351219751 0.798066371002634 0.35418947023187586 -0.11117187884279409 0.4374523595436007 -0.4597101002743156 -0.34635168953870954 0.7902734264768709 -0.8338322839357051 -1.1824252778026654 -0.09081250834943572 0.4588546458761057 0.6730852915507197 -0.6403996817414769 0.24864419008162156 -0.5736681708075917 0.5041964936992465 -0.6219449843858773 1.2464885097514466 1.2096911984965442 -0.3084080779979634 1.1550277785920673 1.224172321839506 0.17664625839284456 1.1038952523265715 1.4896067797227206 1.0551560065691528 0.9240315817476212 -1.03004653367681 -0.6460655010299274 -0.7671582043938813 1.4984018223316289 1.3637096739985057 -1.0059461678198662 0.7015201368162406 -0.73614810291754 0.19712858086717353 1.0741908978396333 -1.037356684251746 -0.5945765824698374 -0.8634178884729171 -0.08307575466518095 -1.1930112371084274 0.9208522160670642 0.18174532204288038 -0.10208008508646395 -0.049507908490074255 -1.143746034749631 -0.668194490944074 0.17788334605661302 1.3862800805582975 -0.059301461290955086 0.9306334712978948 1.1321986454107333 -0.28337241484674425 -1.4387360076008566 0.6850727862867244 -1.4826156865159195 -1.2839452039479915 0.4786043579317746 
