Network Configuration:
	Input Layer Activations: 1681
	1st Hidden Layer Activations: 100
	1st Hidden Layer Activations: 50
	Output Layer Activations: 3

Maximum Calculated Error: 0.0059025824686192285
Lambda: 0.3
Random Weight Range: -1.5 to 1.5

1.139364722345368 -1.0388387384046385 -0.5711727316802235 -1.449598559017843 -1.3277292649129628 1.2665968325332098 0.6046282047984448 0.9580243546399272 -0.35125461094115656 -0.7522556237144289 -1.402278172122597 0.48083962223917304 0.4371236875771957 -0.08072211601751018 -0.9355580850029313 -0.7712018330200516 0.6486947013811767 0.7151112085617669 0.524787729867294 -0.848607468238719 0.11320117673454153 -0.812390212379215 0.10494292834232978 0.062051880286711575 0.49892855980138456 0.907471190936409 -0.9447393982819918 1.293665286244651 -1.299930074827422 -0.5306334578299027 -1.5007600371015068 -0.46708765060848906 -0.9163390157794508 -0.2856905787351758 -0.1759124076694112 -0.1548947142509965 -0.9077421295167476 0.6427368107947757 0.24965239408936482 -0.6885968106011625 0.5537403469964122 -1.1825065266611967 -0.7799826198306516 -1.2603863746623163 0.6889363504811131 -1.0273858812831271 -0.8721253974922251 0.24947944450150503 0.3543759103330247 0.4135945025192959 1.009118972628977 -0.30372084158415047 -0.3184132568248121 -0.11021425568796389 0.5537334542073131 1.229995336188516 -0.10066080031026563 0.2564108702139619 -0.9134042700349684 -0.37534889471152216 -0.5553774276839923 1.497189485040811 -1.3558791130712748 -0.17071758039764445 1.2245810902312195 0.8584109296991547 -0.6391435424741936 -0.27471766437303236 0.13927169864271793 0.615083107149024 0.08984048144474972 0.910978695600594 0.5033955818059596 -0.5487316068083748 -0.9367368287513729 -1.3252821290297592 0.4002594736431694 -1.233446057549556 -0.8506997627394152 0.829912647479293 0.29347516774542415 -0.9612895523423771 0.7394927193580965 -0.7245465493974886 -0.28053751018602485 1.3002797423660113 -1.4257977163133448 0.21015633627523453 0.9342305847597926 -1.3319832648927052 -1.3562047540905497 -0.7096221500736238 -0.0573625700390101 0.7278226582962071 0.8041029487032327 -0.47094116639678757 1.364279807251672 0.6307137591426722 -1.3392091989539374 0.8351522133600953 
-1.098276764408144 -1.1770009443621905 -0.7022753458120872 -1.3220416563439008 1.357450982821174 1.4097946892942212 -1.3815894023652069 1.1299529725567254 0.18402798290149242 0.10034458435212446 0.9822703831929954 1.4373017637484067 0.9146386109404474 -0.5054517739860467 0.7425349921406826 0.5631882636450312 0.5317698058851706 -0.19605779292245154 0.3655729721441669 -0.5375697117273016 -0.6983004973334745 0.2601862749113161 -0.3378310580400458 1.5034604390397688 1.3195575858965005 -0.6263388660365767 0.4720202755856338 1.2701148393837762 0.04400771337763692 -1.2800340162051338 1.1459423410224414 -0.8298721384251638 1.2834248813642022 -0.8216498402316712 -0.14753240900924527 1.2708944133689237 -1.2734819096501042 -0.19735602627054433 -1.4515483737348405 -0.37814147888937644 0.1784010081808301 -0.1467210094157022 0.344831719923095 0.8447654426913694 0.523553187654098 1.3775235943979334 -0.4988375781189561 -1.4140210070752424 -0.7983121501624655 -0.42556230355526464 1.1944075914678538 -0.9546212122942823 0.8275915904546672 1.2367862371631466 -1.3953904232231997 -0.3913583179365041 -0.5777728780566433 -0.8206019854225256 -0.11749167356406269 0.4136345037836762 1.2755555586186786 -0.22870234639328155 -1.2145640837090508 0.9556042803337692 0.41792858947220074 0.8518797864288081 -0.4703268906661205 0.8635538001292596 -0.8415070942259235 1.0332197941730579 -0.12106735170104307 1.2530304889470782 -1.1127605088830907 -1.1551432709430969 0.060503634735915635 0.8969361594528977 -0.04239401659437497 0.446661267425158 -1.4105284675180807 -0.5768745557499572 -0.02900123512790509 0.4516270780725627 1.2499532216095488 -0.5928957477839484 -1.4980618130048315 -0.742986081003049 0.5224449133325801 -1.2374635912827523 0.5837043137623564 -0.7864462252376114 -0.7628724724085275 0.6702192261394502 1.025052835096901 -0.3457761904082541 0.4979652105531877 1.2498387190869633 0.8967531242446416 -0.007981438599551853 0.5354630383836867 -1.2416959506067806 
-0.962659488499433 1.0039676600485667 -1.1090936262839124 0.14934697634992056 -1.1527222612271193 -1.4760430867304253 0.2470853091994774 0.0672855488250719 -1.1269403060942804 0.6730871961238671 -0.1480700743392037 0.7117119012831483 1.2880307347807092 -1.4693113910620568 1.125205828882937 -1.223195556164877 1.2909842990851002 0.4566777538507525 0.8302758977643673 0.44560876375371833 -0.8638605801572329 0.4098219224232463 0.7623750674746923 0.5560616024944929 0.44678898582627724 -0.5446972010572065 1.4340619081145631 -0.6730792307197029 -1.2858916894564947 1.2029058474962842 0.9622559120270731 -1.2947855216557818 0.2864687288727309 0.04596008369442524 0.752986513679951 -0.1377912937607305 1.0032230584438728 1.3727034707188464 1.1412494635791541 -0.3447891988239017 -1.085273707218622 0.19409065765661362 0.6957133076058492 -0.11580016334724341 -1.3911928866127792 -0.5236922138189269 1.1912358476637943 0.43965830990178656 0.6485556503151477 0.2792455045125497 0.8263721224394107 -0.4669345539041824 0.681808506952136 -1.1704700922847362 1.3993776788768024 1.4803243849398684 -1.1334724502142142 -0.7598906638557242 0.9172560304529741 -0.21616342300483107 0.9704965485528945 -0.23333742002306604 -1.0009936916371487 0.9981393309378691 -0.2489840550365012 0.6240265844646783 0.9799140946005253 0.36021452470445575 -0.13732962918755645 0.06855492585051043 0.766463096711217 -1.0866420942602601 -1.4709170079084288 -1.1079160146936267 -1.1990041657247221 0.15360154560176012 0.03894334627660677 -0.3113866596237678 -1.3023096445127553 -0.34125899002368215 0.8590249541264835 1.0616645727936391 0.011813223595452529 0.3022181159468197 1.0966382926080538 0.7526837374049173 1.3326871146385515 -1.3589211500889302 -0.48497956152728916 -1.4384152956193894 0.13974668540784793 -0.6122035957119092 1.3217857700575353 0.632694712189386 0.8127426805981675 0.29864971459999445 0.39538136335212426 -0.22537756315697596 0.5353775503685535 0.8642163982118477 
0.36477622440241053 0.40931464542703805 -0.7097640311884573 -0.2950199071042609 0.5986646789153957 0.8012116146148868 0.7755757930277304 -0.7113685906884017 0.5870898674477782 1.0828474036122389 0.42119448988189706 1.3965079205722877 -0.9345318905687543 0.3570808390865076 1.0500445507864842 0.04489147301993558 -0.6876953343992734 -0.5844046209504506 1.2340600147719372 -0.24208326130538568 1.009882271244702 0.7208093023204367 0.6879162777130214 -1.253720891636371 1.183518026709399 -0.8744079484030707 -0.7106883070879655 -0.7662673341305253 -0.7850408810033217 0.3011091081365092 0.7566874528193228 0.3843016635763629 -0.44948104054473903 -0.038972707140996626 1.1264101307596626 0.12854813447595215 -0.21553221458067992 -0.7677819714134174 1.4538318911938604 0.031471711527452616 -0.6895590971001748 -0.24024650335738776 0.4266089788161742 -0.22778471920875468 -0.9722623711999487 0.9534687431584311 0.6007258850948257 0.5578620977587749 -1.2060996457599633 0.5595880290802924 0.25109282623100176 -0.6389139261136534 -1.405122378413225 -0.2531339143970294 0.702021050990811 -0.3872806755447118 -1.317373035885646 1.4289381976810929 1.4488535977158299 -1.2748077820277048 -0.08776883002642613 -1.2815465698062407 -0.9669413223974574 -0.9646375015702543 -1.085168809124007 0.481941652537083 -0.13876527000170386 0.7203633324083757 0.6533657868227833 -1.3487594990548006 0.027833552053842747 0.44132408882072505 -0.9108394875494248 -0.6970142446153008 0.24683464057322785 0.26474892448881343 -1.2603597759659966 0.767171087980086 -1.1083341381328355 -0.7117822532222343 0.8585195472388939 0.7388182658426384 0.7972075978306458 -0.9821374304082943 1.1126984794991361 1.2093002280186516 0.8731124975924704 0.010147973138503233 -0.64038347763357 0.8109240961415602 -0.39294038965690836 1.0521140206821562 -0.6892173800151283 0.9543912808558338 0.15730799775178875 0.07719353323202001 -0.4278856475763756 0.078990536950613 -0.17380411971822435 -0.48395218300063453 
0.5113751638157589 1.3243616457496756 -1.123766820312464 -0.2257030699836262 1.2330566069060147 0.9064075541059702 0.0019554557022546885 0.7109096900737257 -0.3479561748137446 1.3398998844257752 0.8393028298285335 -0.7307033523850157 -1.3390791537881688 -0.6356213910522904 -1.0239173401987196 1.162821530806426 0.7555569873184617 -1.3281526303807552 -0.8443079836118007 -0.8271975355733245 0.6196117449704238 -0.395758038759802 0.37369784578979826 -1.254190797272553 -1.469735730144342 -0.21417922471568004 -1.4660591614105447 0.7356392565815865 1.1414489510046106 1.1229123405233772 -0.5092178816166024 -0.19750591797733474 0.0454831963543612 0.6843307767426616 0.134179727293515 -0.6790949465798811 0.7928562711214419 0.21378794017915734 -0.8245223670986038 -0.06688812058863555 -1.2198465511020438 -0.7741636065034768 0.27428440143536637 -1.20104681991786 -1.0695936859809632 -0.5714175437654594 -0.11233896026392318 0.8080115470098673 0.5117703942375964 -1.0387974364703303 1.2251480967675075 0.057683535139208784 0.9395368675469604 -1.09575661853827 0.2767978382562093 0.10927438495754212 -0.09352087257124868 1.032546200120123 0.06393568970788215 -1.2534395609381446 1.3809101776297066 0.9091260714064109 -0.3903410793067298 0.6531307883206167 -0.35672693841935244 -0.5268096535539389 0.08928278937584641 0.8330884893066457 0.65472003955092 -0.07973288277159622 1.2056388333946797 1.3108159194360784 -0.5455738159885917 -0.9911022755254509 0.5918588886891057 -0.13907874127849926 -0.447512756864889 0.1331865673800437 0.6686078629225527 -1.0933323735472618 0.4525043534878028 0.19360413619354383 -1.2637678178577207 0.7901275241494192 0.8105133410899347 1.1011278954739814 1.2304484321453888 -1.4424192356618917 -1.337671149491564 -0.4940087589052605 -0.22468205932509888 -0.36087157622358296 -0.4189038074823154 1.081019125687314 0.04314911698365945 0.18562971139752177 -0.4722037830625069 -1.3825586729259522 -0.7779463516040914 -0.1982401889189079 
-0.6560653055546373 -0.8663029593790572 0.787210120540045 -1.1257167376918678 -1.1075512390661466 0.1487055784790774 0.3419053218890344 -0.6591442351951649 0.7595589306427698 -0.9045857696338145 1.0785046037600223 -1.4921449578908876 -0.3126075537468406 0.5363690748990076 -0.7832416344028493 -1.2885899833205958 1.456800914050213 1.051509048420449 -0.284223046382585 -0.215378712181182 -0.6724963055205203 0.7065059003417156 -0.7109661372268083 0.8487596381875041 0.7034466979224258 -0.21800069489108995 0.43401678823254713 -0.39550847448262116 0.6099301712982772 -1.1380910524121306 1.0674914523851815 0.4279117562966174 0.634611271897973 1.4605198820900527 -1.0900996785942711 0.3604769626990983 0.47796412141762296 -0.4607616148764346 0.4685110709009174 -1.1253246430017927 -0.7889694302907065 1.457358560659916 0.19798907941964963 -1.346436704635529 -0.931063048451307 -1.3461895250907248 -0.1579197940846428 1.3104512809642173 1.2512164102888053 -0.9340605907360359 0.7066910093125219 1.4890620123715879 -0.08529786669173117 1.2425325710391657 0.913280696823128 0.4522173457682632 -0.7298420406609596 -0.4299013746776807 -1.4386630414945234 -1.0397139324576323 0.09482307467100841 0.14934989591695355 -0.16661411175894805 1.3758337372499707 -0.1618335879715997 -0.132924986612457 0.721872494126851 -0.1368260203671206 -0.1724413981170931 0.8285117912288114 0.3754860534609027 0.6373933573150327 0.7089672031618149 -0.3788363060267239 -0.4535142113090062 1.0186070352913237 -1.2572201109941072 1.0503280848455097 0.943316596336349 -1.1981925169132763 -1.0299864568309303 -0.34455778638642043 -0.6006638006199632 1.0393470266142233 0.8303703436463021 0.07703269012046805 -0.42064119465475996 0.7371973884790014 0.0038963114852007988 1.0845020461748622 1.4382965738719105 -0.3468248185246877 -0.15930743842246808 -1.237047457391524 -1.3154359348518307 0.25385220584226514 0.9068430141161973 1.273669938198952 -0.9598510004064751 -0.675799582959465 
-1.4401732520930595 0.49939750810177463 0.694291654736999 0.6547645654165216 0.7406701491371602 -1.1869029062124492 1.137065988519792 -0.6536125994616376 -0.6891547673189915 -0.0012023686451779147 -0.9351038318506425 0.5032454175110561 0.7190247198810374 -0.9906215916846317 -0.42992509434635967 0.7409540439368963 -0.43713755441571317 1.423383346193496 -0.5084453726948864 0.5743462232360385 0.2161841119752896 0.4615958268858053 1.2498408098876799 -1.2326724895981307 0.4676462987592475 0.19625267607967078 -1.1065909605227167 -1.1330714972179943 1.2562665378670541 0.9070307607513935 0.679401056088659 0.7258887917158592 0.8753715863638497 -1.3263988103590534 0.7912093565982264 1.0806554976039542 -1.2740064324655247 1.362646780602038 0.19400504516107722 -0.48605936151909507 0.8725703315491377 0.3665514239812458 -0.8714957757087058 -0.05046624524108266 0.604397767068776 0.16325946493961374 -0.1770865042101471 -1.0132615710133173 1.0651613803482687 0.44405051790559114 -1.4794827767427723 0.37060234266859077 -0.047615066168053555 -0.5261295826946087 -0.08726315363595313 -0.9797107627790612 -0.7840032910787944 -0.21277727563351798 -1.3399668142730359 0.20444036683020353 1.3373450452164704 -0.6014193493428275 -0.4562927854816655 -0.9367974268101159 -1.1863750368074577 -1.3079055305698832 0.10066588015548233 -0.9367606723666136 1.05307444997095 0.7392560478773733 -0.3222797297489019 -1.4576025717726402 -0.28313457465565817 -0.9302474717430153 0.020690795467739158 0.751471730222901 1.2533370477681642 -0.9414423412462127 -1.4342396010086416 0.05211227546112429 -1.0171202955447205 -0.27212317393145835 0.4068129870708931 -1.0490878265945092 0.8713319957148262 1.4931222457509756 1.481682499106551 -1.4470516753685851 0.5547744244828174 0.10326413855993571 -1.3209180816176633 0.15444597761316217 -0.03278172348760377 -0.3538011843496208 1.3704380720010112 0.04040376387680468 0.325281966946832 1.427523228659517 0.10334767693883874 0.45637819536622054 
0.8156237067365345 0.3527408210299107 -1.4737626836750735 0.12391128280294654 0.8294072215446089 1.3568960375198182 -0.8808415996770202 1.2505244758452045 -1.0535588143882053 1.1892684469461012 -0.4662740285133126 0.6933753613820055 -0.4579566130758262 -0.5283059192445198 0.5771219052758324 0.04310135231236474 -0.0979484678647607 -0.8944803852054908 -0.7323472140553122 -0.4779239524765962 0.5385646422865362 -0.9235416504651602 -0.45336617537755264 1.0633535655639095 -0.5948846628038237 1.4021965893115091 1.3586222669281693 -0.45228097114936483 1.063676418732476 0.35655632441341184 1.1247592358201017 1.2304669108720308 0.3627367992021282 0.07583447065615721 -1.370436827978739 1.120633981134653 1.1110765775830955 -1.194487217561001 0.47269559435008923 0.8025576646325507 -0.37517209480094976 0.14874836113606155 0.42590838219969857 1.4791943004965504 1.1945279446053478 0.3808636265354915 -0.1294360071710433 -1.352113842508904 -1.4044517707591873 -1.464186199637139 -0.29870969117205926 -0.7298799109331565 -1.0780059804708282 -0.14089654915090286 -0.2114955744417415 -1.0995839265405734 -0.8202376927254099 -0.37339572575328833 1.4534775540603984 -0.13773126534025998 -1.0748471728646836 1.375308756661326 -0.10699149565303573 -0.3374630120516304 -1.4767461110225721 -1.4565629358802161 0.6329915344093544 -0.3507486717669749 0.37948924174397614 -0.9214058525933048 -0.19869493299331875 1.0059958675820093 -0.44595258139314825 -1.1987705302474811 -0.04109511381057484 0.8683853610453096 -0.8939527210703532 1.4380187664812731 0.9800082286732376 1.0533471740711042 1.320077683339441 -0.17241256760591345 -1.0013307743062994 0.4270548620604628 0.007102143556681452 0.5099452853038796 0.7353614135848122 1.2650229547893987 -0.3333644202076691 -1.4092253417329215 1.3820847744766356 -0.4134169234739715 0.3490114380885299 1.3798953373073457 -0.24325687251862818 0.25554134113661425 -0.35229905559574004 -0.8160709210656026 0.3827179421792794 1.00965029491066 
1.0764210455461825 -0.5564810587598602 0.20331173291199944 1.4512395669802298 -0.20161303159682825 1.2846511745650362 -0.13641739016118365 -0.9156212337100605 -0.7456050825345233 1.2731918062338239 -0.5578994172949461 0.6508604028235121 -0.8790420791497704 -1.2386470557647198 -0.5405323292259392 0.612923752562434 -0.7304209358845655 -0.6758228036794457 0.10977012298747396 1.2025843060183528 0.4136241083503688 -0.2684776187644649 -0.46937098364144414 -0.5810097382101024 0.362005811359346 0.5756905978066325 0.7769477249542069 0.425852115186924 -0.6317597183181853 -0.9910499251659474 1.1937227667562393 0.31559502191889466 -0.21138826727023668 0.013137503636157188 -1.401434669543228 -0.5670261482492783 0.4091421828624472 -0.2740201235136538 -1.4679943543393212 -0.3845186629435638 0.4106612568270331 0.4276204959098281 -0.25402260941267285 -0.5140293514431685 -0.6687268931985109 1.461433790437479 -0.35151867743795506 1.0273102054871988 0.6787695450581741 0.976134058581963 1.3580668673221459 -0.41088592176697175 -0.7759666008180063 -0.7751907526318844 0.43985578984530865 -0.45205930025048696 -0.6254782156305445 0.5462846024928826 -0.5173441626655785 -1.0683109866724785 1.107767738428704 -0.8497392078160558 -0.12343543235487349 -1.095765762037165 0.4373987398441279 -0.23600712098323734 0.001624416865942525 -0.7432940841591699 1.3932260137253167 0.7165575504894965 0.48794344078610163 -0.33562776430269975 0.7668807719825869 1.2448106006026414 -1.1469732725585269 0.5550330500460804 -0.9691720769152198 0.8906951829721638 0.31378606237704415 0.6829119649270194 -1.1372038871981058 -0.5769890581595842 -0.21379721335396165 1.4540050694789244 0.9730758349077107 1.3919151022415261 -0.8502629310938153 0.8660371109227324 -0.27340281453112913 0.07739417162283854 1.3759809553863136 -0.9750482885960088 0.34860226137079786 1.156926478365413 0.42323416201693476 0.47023791170635176 1.2914566969161256 -0.7138672124809132 -0.5650059338068752 1.3862997895627631 
1.3912494843234229 -1.450538584691467 -0.4382006176163781 -0.8860891748401064 -0.6182106341723812 -0.40792711059581 0.6667899918901202 0.8972449303205586 1.1107844045376125 -1.0653913638330494 -1.158981836028251 0.43931816264891155 0.9350816061343199 0.5353396644251459 -0.6759862398441647 0.8999591910302297 0.20253573785008566 -0.2529967643814237 -0.7448935419948992 1.0149149124839256 -0.017746543641636525 0.7293401837464479 1.2758407823548426 0.4422694849909622 -0.35425151430910845 1.0232250346645066 -1.4314479989297888 -1.0202386754215347 0.6936539391083689 1.2921950711578463 0.6663150818484005 1.2924693982671551 0.16574017562510385 0.17966145304544437 -1.1967035118385538 1.4603256909913391 1.3364766980026273 1.2939194071288564 1.1406607753123006 0.31607778365263356 1.2275201317725197 -0.6131225790525033 -0.16551923403457333 -1.2268399208201715 1.0758030071394993 0.42829333994080904 0.17842228463848833 -0.0877443230467618 0.409557930604912 0.8591610466773105 -1.29376946201438 -0.017394527328320107 -1.0185831648829007 1.1300205236902454 0.2844240227879965 1.0158441716841928 0.3918230683585068 -1.02237906622375 0.014346927236734114 0.30952587080548083 0.5421940299066564 -0.1277020040864338 -0.2961749936879713 1.0810076801160784 -1.2398929116439403 -0.039231640110793685 1.2222717860167758 0.3370672304759053 -0.3266044876570534 0.32691811093017853 1.2251083809558385 -0.9552128689204139 -0.6047757257872373 -1.4420939832336508 -0.8961110496951649 0.2932003323102786 0.9581970356128732 0.6706291632911854 -0.7825237225081275 0.8104705890191591 1.181083248852499 0.9744760944609214 0.4136620873369089 0.6466987445138457 0.6249802264850964 1.09876935366895 -0.4005219370649971 -0.8880627809309468 1.331806346066756 1.0246444223950268 0.4026161535702814 -0.3785525394257214 -1.475342254525785 0.5098955822411405 -1.0490952014952935 0.84692991296252 0.479759637538043 0.11372340451162737 1.171803275209643 -0.11849997229707876 
0.041509206427571894 -0.22457513690073339 -0.4926267493038958 -1.0662002447235197 0.40221784768323676 0.7154673803808385 -1.3989386311935532 1.052105391413354 0.7842305682320226 0.09103658259991088 -0.10299001314824291 -0.49875284458548896 0.9879151071795789 -0.6334192399103048 -0.5192590464634378 0.9131028482543657 1.438315361902733 0.4137646289228288 1.0389195347905453 -0.11266825908349683 0.8262119959296702 0.23594514318738646 -0.8705994037745177 -1.4268985654188606 -0.8982730852472179 -1.1701214911178628 1.2362825742774173 -0.1951885920597291 0.5892691703352666 -1.0452991334698685 0.5529749425443149 -0.1977781001163772 1.1541999648510093 0.5105655593386691 0.5936915763279245 -0.4020759859453994 -0.06493555043457327 1.236651950948424 1.0017164822504838 1.484644844030491 0.20301775775449618 -0.5198017796282484 -0.6932880880899571 0.4671180325017308 0.7361478800860973 0.3841005059853485 1.326013495364116 -1.2547510148553163 -0.1711978677825484 1.3921123071108235 -0.6901084729386705 1.110055412004138 -0.12841720442625704 0.7636764311727052 -1.221392916636011 -0.8558148271486542 1.2405188573772872 -0.8954807747870797 -1.4929692299416248 1.1490824280770149 0.7588815133957281 0.8683019254078922 -1.2177741223854281 -0.774520615252217 -0.08331795139796933 -0.3542646467615423 0.31885612535108016 1.1660187360477456 1.4863910661688409 0.5215449689022499 -0.8840085097105894 -0.7059023930955568 -0.12363863749501496 0.9191186298831201 -0.3721392291169771 -0.4995868841939279 -0.8387565591947033 1.3809081449991727 -1.4639888570680635 0.8310987053345766 0.18898120675794303 0.23204468535322598 -0.916312503097493 0.9197356683044149 -0.1455221266960255 0.6797791557610914 -0.5962589438571568 1.2975347982557277 -1.1018607952312975 0.5150320088691159 0.2699998919006146 -0.3542951771707305 0.27078844594193147 0.043085090813978176 1.4085979921995786 1.270593928560029 0.3759512771178998 -1.275958126193975 -1.4019239259409435 -1.1398212448712943 
0.9682181078719786 0.6679041390649204 -1.0002690979015636 0.856528850492829 0.8615619049281775 -1.0621801842288843 -0.4615924029821136 0.23351197406313828 0.8343532749793838 -0.7599803271392095 -0.7397541795593154 -0.9415830588924183 -0.34059495879237184 0.07731848244363744 -0.30563939240371285 0.1855007292374806 1.0836490347994465 -0.5345335786202625 -0.4788712421381967 1.4506928944065323 0.2533465045653161 -0.8386999325482885 -0.12459257387404689 0.06207926914732264 -0.030150296518295042 0.9371534996197803 -0.38125972520672924 0.3938097529261552 -0.6133256549836308 0.6649367825455733 1.100507536762269 -0.7153124053848933 -0.8602062291274254 -0.13140869699187663 -1.1956543065967014 0.588832044631517 -1.294490951919235 -0.6129188400934289 1.262901161360574 1.296285365145463 1.0459816443764758 0.7945586573667185 -0.2735659179346 -1.279568515423881 -0.3512000704894598 0.7924656012519872 -1.2677606565726987 -0.2463400496393604 -0.9835506841237581 0.3083875412873817 0.8477760976167719 0.5179174320473838 -0.30369869350595124 -0.20652611861624565 1.4184463624869716 0.21423251252628014 0.9660271319443458 0.5039486740682326 1.3954857720006686 0.4730226031949153 0.02645251675148096 1.456015587106484 0.6853210036063675 1.4909062410042013 -0.2973358199675505 -0.4139548770992199 1.456263123307196 -0.08497411548478291 -0.680380099241266 0.06982626983790585 0.45246035884394326 -0.5789280480081591 1.3437002022276248 0.8749156172591946 -0.8336916011268566 -0.5309281977657255 0.19731413841202045 -1.3963075195195562 -0.6343033580493453 1.3337180005852813 -0.6698544081741942 1.164184397535592 -1.1552169235061163 0.8885611152819867 -1.4491882869331527 1.3710667996874168 -0.5097501057195961 -1.159398492293457 1.0867055194921544 1.1720341870793622 0.42934793611925054 0.6153595956133318 -1.2291557232026207 0.608187321347327 1.4877564615489594 -0.22974261663645087 -0.7799170219046576 0.4583471508282119 0.9763977097024163 0.0654893105123225 
-0.43633430358134123 -0.8649300648059084 0.7644443386043477 -0.9360430170432701 -1.1175498672862385 0.18606590508563922 0.6921465416321632 1.0630103779132072 0.9494941179739695 1.344053407339214 0.20178931551545978 0.19221938080323323 0.6546193035923565 -1.4616795546848336 0.8852222872406231 1.003643773039725 -0.42449006206336354 1.270718989752108 -1.3602480586716403 1.2996083008673063 1.07700211414261 0.573974865415582 -0.1305425900262776 -0.19498181657097668 0.4128365366036943 0.33817026627318436 -1.1071787994356244 -0.780577774044046 -1.2499715385049914 -1.0353391350671006 -0.37602103964893757 -1.4157436911732728 -1.3589075593110211 1.1939975228319628 -0.8187837816198156 -1.0021102459471196 0.4857964135546447 -0.1017125751775382 0.8100167757984026 0.7454049347836837 0.010893044089882646 -0.4057328409728115 1.2740057455936058 -0.4227646592179572 -0.9394137643526692 0.982653230721838 0.31592513200666983 -0.1792843094432727 -0.8403738161863822 0.29971014980249844 0.5801192020404358 -1.1740012641814626 -0.4414716094379791 -0.004810541724842713 0.695316104228679 -0.828168735214971 0.7340292118420353 -0.4851058449968291 -0.8376085635011647 -0.9595065111239349 1.2325951362239285 -0.16496410897706537 -1.2036338072883552 -1.3864243134332157 1.1637926208279925 0.2131860150281268 -0.8418344453443828 0.48687390172419115 1.4926089207462951 -0.002927074592113644 0.7739544480217191 0.567772664633652 -0.5496645875171681 1.4477223486493362 1.435266866800999 -1.1094841171496772 -0.6081372656115505 1.452864653016261 -0.7518472382820626 -1.0771523181568106 1.3595336892959493 -0.519556513305308 1.2020307766772502 -0.27113163794991907 0.7200347016941725 -1.345209387818047 -0.06418365196286262 -0.9187647617672496 -0.07438305386363478 0.3571049094371717 0.8167186266909199 0.5695267079154385 0.6302878202557434 -0.7725140653419968 -0.40636931387458125 0.9013245755337704 0.03990599084179825 -0.8605333472229199 0.41214243658131067 1.3140534312403809 
1.3098026075436835 1.395933988770153 0.6316799921024311 0.22778936202558045 -0.3795197015881065 -0.8937594442803614 -0.299703811585077 0.6534661406232926 0.20447207536823353 1.2724087008190819 -1.1131225863756455 -0.5732950924935457 -0.3928126066664129 0.5530339788986592 0.20791327621015263 1.1863605134712214 -1.2127473189659006 0.6295330260709917 -1.4000407433541409 0.05279550975574231 -1.2420178611327746 0.8798521870423883 0.8515862397060564 1.1422495882017736 -1.1820055321441214 -1.3764153292587444 1.2512267578644913 -0.40707108713677054 -0.9259266013269163 0.2836967767088448 -1.468506540018926 -0.49716352749436643 -1.2299203750965333 -0.22878436167559085 0.01252506954059504 -0.12190169772231722 0.19036885399934922 -0.8094424581051257 0.23472343814584526 0.10549675958027624 0.5985852133258772 -1.0060790582245513 -0.01221545900697775 -0.37191214377042703 1.1608329467953342 1.1774280869454334 -0.3552399956411179 0.9353438812297302 -0.8114976568814399 -1.4145714024362588 1.3513280142678077 1.2334233321613923 -1.4931270681854625 0.06869191309598538 -1.4186565715105977 0.584465443380377 -0.7774295059618741 1.4988030035992257 0.24043013013705392 -0.2557150164627179 0.3272339616585478 -0.5499864249975256 0.3565727984360815 0.8203096918320902 0.17395617326154636 1.1740621818228685 -0.25551500355852863 0.5337203607343541 -1.0445188712190192 -0.1920334075418756 0.17083346629356072 -0.2557192825815153 -1.3174679102995994 0.881409553247171 0.7163925194599129 -0.6066096641761894 1.4069254082768108 0.026479221968756492 0.16315642070203004 0.5857350033983921 -1.4407219320496103 0.2897999511896972 -1.005884115737208 -0.1850091719397352 -1.3854236963572644 0.8661043792276152 0.32540907035025857 -0.4852743190140604 1.2128222931444816 -1.2635688283932316 -0.8808751092420486 -0.43006360827720913 1.2219458265431105 -1.1671829332356656 0.9893503695833343 0.008119654119151205 1.1418829459382662 -0.6261106961731324 1.1110690395770961 -0.698924756408573 
0.3622785752155246 1.3843929644368476 -0.8746879169712837 0.3659356828118273 -0.12478097914266406 -0.7759098448886094 1.4692582264782734 -0.6608440261333711 0.7729318550327271 -0.5419726900550111 0.8142553467546395 0.7610484716216219 1.4175116508060344 -1.195830642831715 -0.4321773189816725 0.05300754345155282 1.1300719521769582 -1.145514540105027 0.8080093883291097 1.4844749012932708 1.2367092856968598 -0.2059726082802954 1.2146929309856738 0.535404573789353 1.402971080960843 -0.37376124690376894 0.71852524651043 -1.2112164419012685 -0.8187894680803346 -1.0351219463355288 -0.0673062811714287 0.3277322027064084 0.8377349867119012 0.21782715449378692 0.45674978367860913 -0.8202789177094071 -1.1410544500010709 -0.6314308157607288 1.3123710569744729 0.652368800565456 -1.4802190517999223 0.09814342671937448 -0.02400261176152022 -0.044215677506751365 -1.4137013760972545 0.4556694707030993 0.3579481612586509 -0.8490133578531254 0.8308228291709897 -1.4357394725636756 1.2794952888699191 0.6727784498931957 0.718201112928132 -1.4072374420514384 -0.061185769997968875 0.030862752130426843 1.3452375761182258 1.4192288849489096 -1.4240994088858834 0.5986112694581306 1.0215513497316064 0.19151694282896112 -0.5959136072888822 -0.4579478673212114 -1.2056459029136115 0.8091193614135171 1.3481217650564832 0.2623049146161319 1.442106749026273 -0.4979729977322776 1.285028250051079 -0.1159323852380774 -0.818101694403562 -0.9579979945311047 -0.3071565317056273 0.1457810814730239 0.46306107132318775 -0.3958873994700799 -0.3815477120003031 0.8396950458904187 0.21809361597298613 0.9588151812203114 -1.419574099231252 0.5195807276892423 -0.31414060406720923 0.2296963176622173 -1.0587808218255694 -0.043574381354718375 -1.2884894101112043 -0.67495327659445 -1.3369103799800224 0.013202595068837553 0.6818975515597419 -0.3779623579603657 -0.4039004521058165 0.00382373206537162 -0.5455201594653154 -1.0792348011028876 -1.463357368707392 -0.8247421379608928 
-0.9849554802311921 1.2048010717833249 -0.6237837031264771 -0.9206383612006297 -1.1552754033235355 0.8883827026971953 -1.0906454797639162 1.1928046770097314 -1.0988812427581882 -0.9639396455973608 -0.16680346985919417 -0.3090287409721435 1.145979226625387 0.16746635477750024 1.4865282918336045 -0.031741732892568084 0.18481623394173993 0.40004431609361 -0.021511157487752224 1.0327036294827727 0.46379327688256405 -0.13249603028671486 -0.7064000354350923 0.1940669930862903 0.3034326095148172 0.3959714234078531 -0.17381812326647952 1.3332074927498057 -0.614763812954437 1.4220307400347285 0.8626425554154509 1.0487594179244815 0.7803472280790044 -0.2779095972970344 1.254929200512363 -0.642388491627973 -0.9817699286370503 -0.5146964330404449 -0.5113736465653522 -1.136156848272593 -1.0294891531699448 1.3043603980154648 0.12809751718482482 -0.7835276783528485 0.212567885068904 -0.8737633870090494 0.4076996164130115 -1.454954446351558 1.3532364397779078 1.28965865585395 0.48200258363888077 0.7215134542203525 -0.2823823318337675 -1.414509322354344 0.7859140053403912 0.5879029907419251 -1.2744522841328005 -0.5982235392634704 -1.3056230693169655 1.4552112400763237 -1.197355946105956 -1.2201632845859884 0.5653220643520699 0.5785149729842687 0.8320520322668237 -0.9864589743548455 -1.1830887841785467 0.287371577377628 0.5540745513946888 -0.5623470465977285 0.8739312042917451 -1.0997556314127297 0.3674756496567633 0.6042625881260822 1.0705719216877603 0.6905256868261194 0.003346792932379217 -0.7752378190075108 0.46683822568909333 -0.7939720934110241 1.4134626494758706 -0.965895113693527 1.2010386258419878 1.0871361811520122 1.35139202257234 0.4723617293884814 -0.9187599353797465 0.8861624101675055 -1.188867805135621 -0.9017312656251686 0.8804475146437755 -0.6945561943668408 -0.39252637459416206 -1.4631239540997076 -0.7217765695830909 1.491506410134478 -0.108741709898087 0.5272678809236071 0.38868263760146776 0.9477091424278783 
1.030867820382873 -0.6246328619909739 -1.4103108652240484 1.2670346796889465 0.652324551620499 -0.4474488772380315 1.3256131092839423 -1.2176185580935162 -0.059160335259318964 -0.6922312985090309 1.251000862542132 -0.17984645806678573 0.24533544530457738 0.9930662777880966 -1.203800376260126 -0.7553406332129503 0.37805965504203687 -0.9147642219307355 1.0819930518276553 -0.5168117418370873 0.5322489447079777 -0.8805446682545399 0.7467413371324003 -1.4002499706865494 1.18682605405018 -0.811856162790928 -1.1573835084992816 1.395090043487193 0.8242958099165284 -1.2213156427012717 -1.2681512167382192 1.1341984273363326 -1.1139612326893964 -0.05512081651090983 1.4275951623505412 1.0063657656439753 -0.8678888254953528 -0.3610163505675969 1.25548111889247 -1.2177444473824137 0.009664975088982983 -1.2079775223903868 -1.2947785419665538 0.5115804883396742 -0.2444448387695333 -0.9491404055899885 1.225902491999821 -0.2990805124317928 0.003000414867114383 1.2746293692214463 -1.2959599475691819 -1.3759771771976377 0.7825190132106972 0.6204079973009837 -0.39202767572977176 -0.3826008689875206 -0.041103801126390525 1.1375955263587008 -1.1726533652461584 0.5428345516260338 -1.0914410952771025 -1.4589036280540975 -0.1453564167749251 0.5703274438139554 -1.4301772822768466 0.577188719559592 1.4660017096718254 0.9162245809511507 -1.3229642163649673 1.459832095620685 0.9352976221616041 -1.1282948956358616 -0.8598140715999704 1.221403584241228 -0.6279321032766443 -0.3021773421077625 -0.9142145590970028 1.1475893557786743 1.188984746481363 0.3371224715612904 0.5645800798597997 -0.8403884079547523 0.9109336319877749 1.492973043111555 -0.03477998509698238 -0.6085384801345127 -0.18625484183741522 1.437477186945891 -1.3315069863717655 0.21462250287313495 0.78178302058478 -0.11295898646115912 -0.15570456781481007 0.03694006021162527 1.3864284108168439 -1.2947757132316193 1.1917909307503087 -0.016346742038806397 -1.2619767968957565 -1.325257294694411 
-0.9010239791360102 -0.2959257056316675 -0.8193457580615287 -0.31127313184209726 0.4005000523226234 0.7774503548977095 -0.4222132579305721 -0.06686894023659279 -0.5500427290972982 -0.08059628229163862 1.3625983240301123 0.1929599960220695 1.0910101444342981 -0.7803324272245169 -0.06870154950695292 0.8753593463865038 0.32596433653674195 0.694742166957755 -0.44340270168824186 -1.3989675249612 1.4338328711090431 0.0033183187512379813 1.3280549184074282 -0.05879754160823244 -0.47865483599897335 -0.4296646906916629 -1.0513929048828303 -1.4524202390435839 -0.9806767549346286 0.4349108895459481 -0.291110578947242 1.359205495417879 0.3241454509464505 -0.13932446072407187 -0.8115229248655478 0.19555426952137323 -1.0928307767633376 -0.5378573249443159 1.3978106726129151 -0.6226364313543059 0.7888951426991694 -0.48242077475746525 -1.241325173585709 -1.013340514451944 -1.3645153450323446 1.4577017956795355 -1.042156033706225 -1.2664103063538514 -1.0040672701471025 -1.1347697754641788 0.42199161169703936 -0.49973771065841266 0.5436300104609885 0.9006759158576523 0.8789762416672342 -0.05092838400381786 0.5333707537460213 0.1645761087579897 -0.9000038201396917 -1.113281474764812 0.7121641552910767 0.7257608067183315 -1.44855437622423 -1.167651742147536 0.4116286765693198 -0.2926434285996584 0.030514356886546225 -0.1576582695244009 0.5068516503872171 1.0336565477942705 -0.7584832797791544 -0.7860313253399936 -0.8379530620989126 0.9185897431594527 -0.5675437444654126 0.38101540481489543 0.4531737908093515 0.41011337508247525 1.1385058684121794 -0.6275946198584307 -0.12844931846824068 -0.3216893156946757 0.74619899719352 0.6670034985645689 -0.003163236385666505 -1.0387325611808704 1.1996117987097903 1.183525065755343 -0.5568339144332467 -1.186108904729641 0.062229843248293636 -0.4994323420353333 0.30300065488237293 -1.015695832130167 0.9953246141083454 0.8741837850198252 0.22466050948778227 -1.470881885109691 0.7837081540262631 -1.3043691037410197 
-0.8283212647257879 -0.28103448164123546 0.2983369992932262 -0.4195128689964461 -0.11055015159315128 0.1339090215341297 1.1929233579551435 1.0406418133303 0.7971336500674924 -1.3396655865054354 -0.7282173678775962 0.47882116461518837 -0.8342537125241855 1.420340185434948 -1.4073086730911384 0.6627033212841742 0.8140921480853245 0.4431600734413592 0.6820330850423951 -1.0831795701085507 -1.2069955370643972 -1.4663122071558146 0.29099155952404687 1.0949247611924033 0.932930815993518 -0.8586570436353578 1.1614617153947753 0.005052975618866864 -0.11330480538176026 1.094256850758787 -0.5102867163208332 1.273078607891932 0.2204515706189155 -0.3610546935194908 0.6577126765682215 -0.5109798986450375 1.430269526141439 -0.8819463890136001 0.9109905718982589 1.3288055009058688 0.5637828698539076 0.29915882342054123 -0.38649361483341876 -0.15772123385066267 -1.296838792239765 0.7728732271060997 -1.36965812889274 -0.15251643831438358 -0.9541076160788662 1.1241211163025127 -0.6344636334981899 -0.9935602102203734 -1.1191078305609685 0.11453725859057906 -1.347534074875286 -0.10635108151063062 0.3344489845918172 0.2000405330072432 0.9774296894332691 1.15283295564997 -1.0152270895933155 1.3812497612237007 -1.1444766755012754 0.13699535619572276 -0.8206900343711904 -0.9844400700004032 1.2707014827513916 0.2864114313009609 1.040384879752787 -0.5783891160301085 -0.29905369406236915 -1.063604822676397 0.6312428296256773 -0.9959315479415838 1.079774174913137 -0.15769143211108286 -0.9303434798674386 -0.5996220942144236 -1.2648490595969122 0.8165815390584574 -0.3775584667392908 -0.6085572113251942 -1.244247843709296 -0.6017938604574214 -0.7413932441430875 0.7300928547312074 1.4587609951392504 1.0267393027738636 1.064742374485108 1.2423424074794256 0.37744308136349536 0.9689236760981114 0.5187570729166332 0.06149717627883821 0.6533963585891451 -0.794261227477621 0.4908262964453309 -0.8911099912261613 0.5498296250341678 1.0185480495738206 
1.1361193171064445 -0.37946242445526024 -0.22848394322259075 1.0405879416678179 -1.019260732988532 -0.051596436788284065 -0.5981065268634858 0.7269917900935208 -0.6450764512212739 -0.7319141500610895 1.130853092489013 0.606382501387428 0.8804163854174087 1.0805177148434557 -0.7151231773729415 -0.7665501921198763 1.0222474848838274 -0.8426686358030435 0.2112519303549468 -0.22243540234032708 0.4886367474505884 1.1909987913215783 0.3296409449829373 1.0271326243313592 0.6055982919720213 -1.2850311286901672 0.9432460167262973 -1.1243573483988312 0.9250410566429086 -1.0868768083580544 -0.22011663167672596 0.453295508348414 1.4817463956523533 -0.5366060544160792 -0.9733660025725024 1.4122364160450414 0.5437247103460419 0.42037249596766774 0.9281635121817041 0.5292374754627742 0.8126690778542798 -1.191694594531553 0.6610061573018208 -1.3403239179223896 0.7945752394835702 0.9574653222487939 -1.3557175086801525 -0.1480481204441074 0.7400026526037345 -1.1635560975475918 1.081176984974001 -0.646721471436746 -0.4842157268680786 -0.7151078164651984 0.4939890946955515 0.5361420045982025 -0.06893973918297208 0.8071288502471486 1.0087401626745807 -0.1645222487766639 0.7516463953046633 -0.38049517812094674 0.37222042611117473 -0.10658978146427929 1.006000502695806 -1.2045236544714788 1.4972565545640035 0.1542003078063614 0.8377655712448848 1.2074013827838965 1.252090401735546 -1.1117474124319648 -0.8783495790497191 -1.2929516519004212 0.45878608915448593 -0.48986737654561135 1.1354465047589826 1.131946405537093 -0.14130612948723056 0.42010415446522315 0.43483431556151053 -0.32705152482039385 1.2263495013273664 -0.3590501851062464 0.0754722008923631 -0.5992426837527317 0.7200999627738989 -0.8766537345353272 0.9521816961928736 1.4182269882533303 0.959390940248737 -1.4064762159815354 0.6578814889260318 0.7228600957896335 -1.4359294948923216 0.7445157974963301 0.484695809322482 0.21114916386270863 1.4084526602749143 0.228492937884641 
0.23182260882223923 0.7386363868033267 0.542339849530711 -1.4823342272345787 1.501265236993589 -0.4314142308507563 -1.4218845851994906 1.3615189234686462 0.23166838935325365 0.0801019615378235 -1.0981407121686468 0.3820529133387358 -0.19277060771795668 -0.4203193437993041 -1.3286343213792764 1.4893162196446428 0.3759363114379616 -0.003555117058868921 0.26125004032565347 0.15031148475045267 -0.1532524443016187 -1.2746530713880642 0.34380854121356924 -0.9939062641130613 -0.5784071836462638 0.14825076376160295 -0.7210576233025413 -0.21646241451307355 0.00610913056017287 0.4874927890164369 1.054950523129842 -1.2754830041403613 1.2520471809375209 -1.0486567948810972 -1.385715839114001 1.3809875777895522 -0.48902669325754616 0.18379701588473274 -0.7474153899803416 0.062324584066157276 1.4057396172500107 0.4882745737981007 0.42958605822788415 -0.36963038807019094 -1.3351680414506706 -0.27550625245889576 0.15630232469270283 -0.035412806883092555 -0.2348225503926643 -0.110045133074033 0.7192433788937062 -0.2500619086008246 0.22412277131862626 0.18425672530874582 -0.8408723270257096 0.012789539856208133 1.3317007171376434 0.7542225682345854 0.4561778930644467 0.26255520866122184 -0.08853423365260403 0.7436751734099318 -0.45181233362925194 -0.1171005181983461 0.20053216989475392 -1.0661958145016008 -0.1779024983297892 -0.2222418276393165 -0.3137868632633959 -0.2974989173878509 1.0032376146618178 0.287757700350253 1.421600419588997 -0.2190179818974529 0.9294304164641874 -0.6030428591907647 -0.04006278692835285 -1.410131799033826 -0.35787430731458514 -0.8029263632866154 -1.1977456818391574 -1.2368534036003938 0.8424577859627154 0.8183597060030487 0.5631716043931291 -0.40466996565900853 -0.12380846700439392 -0.13323153078430536 0.3588603211237254 -0.12300974901985297 -0.9077997638683742 -0.4060811821861163 -0.11416092558090822 -0.7748581076087133 -0.06411120009585747 -1.1047645160783766 0.8880274967604477 0.29453810951892306 0.6031575516116898 1.0397534267079307 
0.7122917361881332 0.4596417960347812 0.43637833070062426 0.22403549266364592 0.4507057951388943 -0.4724662051155843 -0.2176947314695228 1.1276408973361594 -1.4236319732331648 -1.2070551607489346 -0.5653725658410912 1.032873167681807 -0.7516880500559026 1.488461121235088 0.8563365054940476 0.48528299166072814 0.4414891670567595 -0.28918407979437066 1.1101864316591052 0.5033079367940758 1.0749965808568023 0.5200776207007646 1.4154626851345775 -0.8436526936503826 1.4978387661475496 0.28974657111434926 -0.4201986637610771 -0.6374906903872343 -0.8716992577157145 -0.6724560906800289 -1.159418217605828 -0.9802293455357654 -1.222406214752323 -0.43260008499596947 -0.23734554763724244 0.8222409226854713 0.8919416018337155 0.3713410398099886 -0.9339397814173791 -0.482780505684634 0.6019160109818994 -0.41071247195722554 -0.6521411081831406 0.4345416554127868 -0.34389150489167736 -1.0351410001984895 -1.2170843332355816 -0.3924882674548449 1.4109308088310608 -0.11027122955815309 1.0628506450086703 0.8566404165905492 1.334582773499567 -0.7864876800531975 0.27172323682654376 -0.7122377474783731 -0.3907469017347327 -0.5273507840903902 -1.0777156737956255 -1.366677645066291 0.47057176820826413 -1.1541737101875582 0.9666352873260147 0.32673560777872784 -0.8955206315842137 -0.72079452267953 0.20246457973868404 1.2761701827532148 0.9118933111551596 0.973531031916837 1.055760022075972 1.0889691784806312 -1.108410929146939 -0.846749346450309 1.3405883110245664 -0.3986779206185931 0.29862724781461286 1.0519889773615783 -0.5241564507651058 0.8398427074942686 -0.1620027436279737 -0.9785704220746517 -1.3473977647625714 0.060677738815297116 -0.3275897460680671 -1.1177522265498414 -1.3355812771310116 -1.4849289016782714 -1.4857114487496046 -0.1698988885865626 -0.9623766056948247 0.7904190956879432 0.4396099378288235 0.797849660234581 -0.2221224818686744 0.39581874522322075 -1.3141719786000994 0.08325262182453048 -1.0454348253319388 0.8330624811832372 
0.6826658981621234 0.5418810507209528 0.5372062697140518 0.9673135596191946 -0.08449134095208072 0.6565050601365259 0.0614143086770781 -0.9982025076535155 -0.20007327608245284 0.9792901803237473 0.07143907493316344 1.4876346413790387 1.2317633257976102 -0.09958868470005215 -1.4174722499614103 1.1408936981694877 0.5059099446573957 1.0631735837262792 0.883641363202127 -0.5874536175775629 -1.172185671235351 -1.1636172342203905 0.20331036814094708 0.3922568362335179 0.9538551024920205 -0.21203916088200483 1.0548370310565383 -0.9518540427687482 -0.3610532457440244 0.5371676464384403 -0.9316181576211262 -1.4711963522875142 0.5834538361308551 -0.8670925640448105 -1.2567794516137774 -0.5955249895568728 0.632197579647834 1.0033578449332552 1.078829757995918 0.7392024842691836 -1.29516666293706 0.650789081717541 0.7767302316145102 -0.8631798896188047 -0.5231843875256903 -1.4655391149839356 -1.1628806761393227 0.743565362857638 -0.9393729264471116 -0.5550955478980677 1.447261365909122 -0.012155036381877784 0.13816103142280803 -0.06125052403428577 0.8262331601994013 0.24548338596420174 0.7218739075743587 1.0325591631346906 -0.11084368077987826 -0.8254694134392557 -0.8597665917980101 0.8881549628779698 -1.0821669282499549 -0.35735990535243845 -0.17021017213796952 -1.2533559431015437 0.3156806908427413 -1.490540526083371 -1.158530150041341 1.399694015856741 0.8936112176643862 1.2862842861489194 0.6644533391734703 0.6240250150293236 0.8505755226965314 1.027137969518993 -1.1102826636533196 -0.9925861380636152 0.45138579650289157 0.3823593858943927 -0.1489066705890985 0.28119556840365045 -1.434012508967745 1.1281008609998846 1.3663841172671403 1.1897994093384763 0.4157944776503212 -0.921668532914897 1.3520718681299624 0.33799324130635006 -0.21221730355741722 -0.019522205851983814 1.3948722235440527 1.4972674082125028 0.673043704909245 -1.0048557121039599 -0.8681886870170692 -0.8590094665238744 -1.345203515420079 -0.7972085798855556 
-1.4014408221227852 0.658107396199899 0.6942120794177082 -0.621532416428777 -0.558910743489382 -0.1643878076398597 -1.186996837104419 1.1218474843449657 0.5705653895223927 1.371477191377167 -0.8794399787835133 0.5529516687439177 0.5643701035559509 -0.40439674875884524 -0.06408873400101261 -0.4934961295168307 -1.0546400019581386 -0.8267679045459011 0.1888129957630667 -0.6978831312673991 -0.7974000462716235 0.7087300832453 -0.4996568922797011 -0.33768124606397276 0.14377445959534133 -1.2664109630374183 1.200880355831188 0.7021631599258658 0.7976084553825769 0.32647862205751416 1.259975706669893 -0.784882136242285 1.1864071306139996 1.196435712401169 -0.20831069036216746 -1.0493771040429047 -0.32626256962185074 -0.7858166433756362 -1.2006719315609322 0.056878754328771514 -0.5183836890164719 -0.13084161059448135 -0.23071866828518797 -1.4394406994274975 -0.28967193473947045 -0.6366148032198797 -1.5334751190975926 -0.3887212169723108 0.68421820418262 0.11084116672800974 1.4387297444529028 -0.722194043727477 -0.9874932936868239 -0.2548385191693779 -1.3737504137626155 -0.3577850291903682 1.004769715383234 0.0402642663223701 -1.0384057941007294 0.11762325883158585 1.1614156126459678 0.04073028871600835 -1.1138168953193393 0.747467202517105 -0.15013950982378155 0.8553323436834103 -1.0005992149717844 1.0001893569493254 -0.7209189187470159 -0.1909479489538554 0.38464827333410706 -1.2692176121715242 -0.9661381890683433 -0.4607324237757902 0.820592892500825 -0.886805824765658 -0.13011688823733406 0.8167281351974536 0.5783900580681082 -0.9742325251879571 1.347756825161739 1.3864253260299972 -1.327129850777219 -0.9521473056366573 1.2277688848091644 -1.2553813869272343 0.950628582356841 -0.41936782877922846 -0.4465899439629439 0.4292788545849131 -1.4703169108027418 -0.8228179534776324 0.984658920544585 0.7402080587441131 1.038510859634001 1.0263419625064758 -0.646008275775871 0.42634674719702803 -1.4978440478052455 -1.3002571666407365 
-0.2632691027251305 -1.1064713023152517 0.6281361762096769 -1.459288888619138 0.35600702563644376 0.6802442944601955 0.908136423378395 -1.3763096088149227 -0.8213485665986006 1.2475209973468346 0.3928570444052091 -1.0474770283169308 1.2497879565276755 0.8786077622757705 0.46702908148528993 0.4998895324895919 -0.8572348842932247 0.6207473975683719 0.5391635720903497 -0.00584678297293469 -0.8689527036158758 -1.1456796487089886 0.9560341397543045 -1.4305686141612568 -0.7986892854367006 -0.6885202911972599 0.7874678274088037 1.2009604378536347 0.1376491641200926 -0.09189555980794818 -0.34339786404323375 0.6884729556546855 -0.8828433615744461 -1.332673887798109 0.0509552790197799 -0.26972315940868713 0.9176885944276377 -0.8264799458239733 -0.2659016771482107 0.3545201616249776 -1.0605792793112137 0.8664643618672024 0.6177045168984839 0.16368421441719688 1.1316275314248974 -1.4681897667027273 0.09205388002164015 -0.502490610602283 0.7126073246002801 -0.5152999342271188 -1.4347091536126322 -0.9834582733935179 -0.5374902552309185 0.3003393072370565 0.77804868155262 -0.21175367748401125 -0.8261020406102745 -1.1875229589237195 -0.0864367741440326 -1.431831914493737 -1.4435195516170032 -1.376459097580442 -1.4604744326764325 0.9545015621732236 0.7206652701006058 0.7881462958527782 0.4049585871593931 0.07631987406576698 0.005828779212762214 -0.649125530615302 0.32123604012985074 0.22387765036619062 -0.38170971246348595 1.143556514262664 0.40454860829102823 -0.18196358276325542 1.2320971678217398 0.8072484838032351 0.9546943951653994 -0.4299896372929947 0.22985166345193372 1.1019688368989256 -0.030371374974619485 -0.7557352566381879 0.9387474760381904 0.6572246572768916 -1.142898065873694 -1.2207128074693743 0.7398989562145589 -0.29903819658481623 -1.0684302132294397 0.0646594727541231 -0.5888907587686137 -1.0655417240864704 1.0751423276085232 0.4717857339032256 -1.3797588313986529 -1.3816088820583388 0.09041026723024899 0.5750814902560537 
-1.1064480349863874 0.786270008182173 -0.4529527571014228 0.33623088226589526 0.8559880651246302 1.0382005897587827 -0.6335305055168645 1.0516852433348394 0.8527587817463572 -0.44860826701557865 0.5571772417285681 -0.52190825556175 -1.3714219136648493 -1.0514726197941604 -1.3230395600963738 0.160399585452687 0.7276492432733135 -0.7001604665597317 0.9356032772908289 1.464396070704678 -0.9958583513123368 0.9268603993174658 -0.05955461108498484 0.8126248095284185 -0.41851635845918894 -1.1913398090816163 0.15513276127708817 -0.4016096208168205 -0.11296814643035541 0.23843216910288592 -0.6076453247973088 -0.20633440767019648 -1.1623215363089026 0.7445877202092194 0.584102146500363 -0.5798063435536982 -0.8895574632632526 -0.0644896078267314 -0.8212839287206344 -0.7980204292520785 -1.2354013735081175 -0.5782394350709953 -0.4340611368813417 -0.5303207312055545 0.5889076162120145 -0.8648514711646641 -0.2034801628400333 0.43673582051309373 -1.4393979690084633 0.43586767183153863 -1.0616656909206097 0.870047311568366 -1.1052752017254794 -1.2785312099181334 1.0836264033067344 -0.7931837852160242 -0.7324142157154458 0.10378689351186521 1.3333078905323685 0.23258528901607106 -0.4390369232088901 1.1919823455816383 0.46942808353987603 0.9951003144087389 -0.26909359975498187 0.4187668553272803 -0.8581194941479269 -1.1722549708191368 1.0956829818522238 1.3383131909148525 0.028179708065990895 -1.0288527167931067 0.34753012725700033 0.9972477678054367 -0.6933847705153707 -0.7021267487819222 0.4526906149106948 1.0386239251213627 0.48366111603926587 0.8944514725836944 0.3634387516926265 0.22440778441843245 1.0734665281119613 0.1584201826519384 0.4438596442044032 1.2287991617076304 0.8643948143617414 0.8599183094360193 -0.9959170947987697 -0.39249427726313435 1.3055435220693803 -0.3190113572427409 1.3956459008591418 0.012528470525663773 -0.9774049876061738 -1.0100315747046666 -0.4137949170968842 -0.10149660704063253 0.34887424563751446 0.4182075966306349 
-1.0713834602896184 -0.6756983511023397 0.7520514406573746 -0.8880895970532787 1.4839844759926313 -0.2815933941484286 0.1965337443186324 0.03274605194393054 -1.2442180553461704 -0.35598511164157465 1.3683259794979417 -0.750376725697212 -1.4422797097707352 -1.3587928233986963 -0.427276230446821 0.2686419257096464 -0.1460695106364797 -1.2333091947129284 0.16987316206918754 -0.6349285786976211 0.42396606282840255 -1.1703686368056756 0.22185080990233105 0.3664362121160666 0.33661792966057424 -0.5351838707389283 0.8111658094417465 0.7729253798129545 0.7317594294000502 -0.10252005540441225 0.4593124232135083 -0.8808302235515749 0.08312447401907151 -1.2752741067308548 -0.2801312840799375 -0.9156116332000322 0.18466072037586817 0.5394089401374735 0.8299177644996731 0.4988722794720357 -1.3418405342072195 0.7410597968660141 1.1046305849739195 0.6054398231946447 1.1046700387424309 0.003926034087864075 -0.6940116155362778 0.44207000310237 0.2541504976473971 0.9047824070430004 -0.9604933704814312 -0.3899083701790542 -1.2217931403252904 -0.48817080484738123 -0.378003703314648 -0.8410773591490666 -1.2442260750958454 -0.44664185698105724 -0.14736240711443502 -1.124185487376863 -1.2389721066319346 1.2269387074683056 -0.6869574946289555 0.27580245522078695 1.0215222234456602 0.07995511363221845 -0.4561385840006879 0.28739649299079273 0.0012378706674680254 0.3417192212272639 0.8853678631645813 0.6652597161466126 -0.002353893024916212 0.7511587358375198 0.3271739310651869 -1.3146188518787383 1.4041717489577739 -0.5766453956261761 -0.8610010349435817 -0.6019821344024985 -0.6981423587141351 -0.6852967951077393 0.242871325156143 0.040434535096809957 0.19041866162397791 -0.025713762901799067 1.2163387076400178 -1.4679274249285696 -0.5652384237874988 0.28328438770491865 -0.6360668334157907 -0.5373812693690055 -0.7646312674670084 -0.966285054628046 1.4675719249510084 -1.282782848723584 0.6426530035508949 0.3267884360389179 0.4300980305825778 -0.8440668971079195 
-0.8608738080855607 1.1087637197431879 -1.2614624091936817 -0.4591663812636275 0.17926259705515696 0.3867275990176128 0.5523122846433764 -0.13623826110354778 -0.2051896139581938 -0.1851547839539034 0.8245639571529724 0.3000044225142342 1.4513551197100887 0.33748146110261534 1.4725013292507663 -0.4833819695600755 0.6889641163041589 1.097894753812834 0.3792281029752193 0.5407565300577049 -0.7026122705979477 -0.8296470519018838 0.5425586555028651 0.26293865402574657 -0.8634032357352056 -1.2398306560128367 0.18825965505055475 0.618724386758945 -0.5534143116927497 0.24533626090684862 0.3530623223937188 -1.059257381562118 1.377569705627663 -0.17660843997426892 -1.1876625785995427 0.055690115674512784 -1.2346449149077643 1.0225877874036085 0.7372121800954988 -0.17766621988945772 -1.0514602089323033 -0.1744714049012806 1.0221529419210857 1.46596643044858 0.9669933620820725 1.2355776772847564 0.44354037537535257 -0.9391732472863343 -1.0666685429896818 1.124628039381206 1.3868195687176834 1.3574343045356976 -1.101981078577993 1.4716409178141598 0.970635286711159 -0.8908113024753395 -0.9309488995684564 -0.12476614890082231 1.1144806134431038 1.0667539181279888 -0.5465800895493255 0.6501880293750205 -1.012298407601776 1.2753572623995801 0.6747124124910754 0.14226691798271648 -1.2449206569942388 -0.48571984016124453 -0.14450669688370146 -1.172499646465072 0.6505926840988802 0.15702230786963203 -0.10254270235258876 0.3777318306288385 -1.2782931679656482 -0.1797705935771791 -1.20977837762058 0.36058159488558617 0.7109228120107953 1.2459494959573298 0.783775196610386 0.21743485628383769 0.46072902978661395 -1.247278387663254 0.6449508987707697 1.2465503308252155 -0.13534501089806145 0.32350725469709 1.2118126426039182 1.3518390904762743 -1.3312412551783637 1.3772234481900496 -1.1253318963415258 -0.6533685930425398 -0.6963718430415907 1.4687302209922493 -0.41841819122380325 0.8021410529480261 1.261288166549587 -1.0967169566022306 
0.16712849243294844 0.6582651054252231 -1.0428709407930277 1.4967013337943502 -1.1108334185750832 0.047795781640283364 0.6140351839071831 1.1433112339706655 -0.9879925043504646 -1.1139854193599663 0.03394437635797414 1.386093405596757 0.5386571989062714 -0.24939590788124416 -0.5645864171588282 0.17281802715019084 -1.1986193066185618 -0.9384599879292352 1.0376120657320373 0.9043349863104723 -0.9804982991699334 -1.1033356683794948 1.3094565249834698 0.24322416065529193 -0.4654404788322227 0.8122927507268541 1.0306003932601522 -0.42937043293378485 1.3775848764412144 -0.2152317040832059 -0.2850055260621122 0.8953756796680439 -1.070495340049237 -1.3244838883360524 1.0346863123799455 0.5983184269814504 -0.05134127888267368 0.15695649580288482 0.11909324082314274 0.9463898321741017 0.22900320152131245 0.4495899513709108 0.8606695075883766 0.4627812088478795 -1.0833089993453375 -0.7121640996184807 -0.679765331064157 -1.2976902653366356 0.1801033426959391 -0.4899974289337671 -1.393755884763406 1.2880454766359586 0.6801429536117518 0.8967083218449685 0.40078165062048365 0.4997313193188262 0.040858316683579025 -0.35622275751258464 0.7900114648284472 0.1718756410752435 -0.04531304825523763 -0.7715905393424142 0.5887602223219457 -0.36572072455026405 -0.5485704419123049 -0.262840138378484 0.6235612837680224 0.02051035758068245 1.2222355541406593 -1.3792354732751342 -0.7751485258684434 -0.7030353678069894 -0.4538388867989468 -0.5820824336956452 0.2222007410139381 0.7962809946695556 0.8939847367675109 0.45830681948637264 0.5910970116600234 0.6756774787536057 0.6831537933556618 0.4853864588571215 -0.5001839012212042 -0.9533831450095153 -0.6934245785773189 0.204725414873164 -0.06732155561900637 -1.2857421878455755 -1.294164771025267 0.7543443617985253 -1.0257923718378608 0.9337607234089865 0.46102191151593014 -0.8997337448972417 -1.4897690551534624 1.243690079476285 -0.49257414497815344 -1.476826604006185 1.1136792702844998 0.6514127580001141 
0.030497289510096982 -0.43786447844167514 1.0410070407209038 1.1590036948338605 0.3967618460640439 -0.016087388615026437 -1.4232916015242092 -0.486097704202066 -0.8599466501810344 -0.588047056871802 1.017193902875808 0.08321494964851307 -1.4942157744650089 1.1966227445751296 -1.3963467049765192 1.1817759806043788 0.9063281268067884 0.5559594310463971 -1.0485826240393432 -0.3909902581629816 0.21579291445962542 1.3223184211233916 1.4663862501571157 -0.05016242528848349 -1.310805306124175 0.5997411278700803 0.19280508603580437 0.11574028530524128 0.43988071854259925 -0.5809934050189153 -1.3419392894406963 0.9299957951318599 -1.2689021882802816 -0.3539256607685134 0.0836845889387775 -0.3000038991414701 0.07714015634187894 -0.02516729595303193 0.29455466664258 0.6438194441497315 0.3519013892557128 1.1815206804501026 0.6207801899551066 -1.2824033830744472 -0.910261824501019 -1.1393733870739786 -0.21818496922218183 1.3095573700610252 -0.9534150547896026 -1.1849284257099504 -1.263277335039787 1.0299207575755744 -0.942267296423659 0.45545163271479966 0.9808820200055588 0.7451892384865701 0.21619971010780503 1.3216809837998904 1.037199916466558 0.9265276003772636 -0.9848394608334397 0.14662725043431835 -0.9607261497331478 -0.15010184194252896 -0.7462857478839824 -0.8081540705237278 0.3958778289493246 -0.8076015530726112 -0.9474344464286825 -0.5777937291644044 -0.02198144341548661 1.15845591440122 1.2164738190432334 -1.3345469109414387 1.034769296420857 0.06437262143259401 -0.07155135496813894 1.3009135250904382 -1.355409028849745 -0.5117910846828833 1.3575882606595522 0.9576768323994015 -1.2261501195142364 0.8675029529801189 -0.3205498250572171 0.6970382152688591 1.2510466985986985 0.06309469349764461 1.2932134875588812 0.1737288679785735 1.4813783690419553 -0.611569138070179 1.0326501772345063 0.15626802831400566 -0.7931503023102499 0.6882307878246101 1.456317358773864 -0.9834316628390558 1.3009106882597539 -0.24676263017583774 
-1.0150263878334 0.8927547361600455 -0.522756669848729 -1.4667918080960178 1.2046650175805345 0.442989966174081 -0.175773123355319 0.9853325310032459 -0.03315275763217632 1.1170307766110428 -1.1636717239743608 -1.155776439114302 -0.28660983041980936 -0.19048537638774055 -0.6233729864942813 -1.43055949558926 1.428205598478385 1.1588695109102962 -0.07125859967743774 0.5262176275515185 0.48347964133994986 0.04390265898078804 0.18479413280140944 -0.17729666831252167 -0.31650930015785383 0.7448744877647495 -0.32539946298428946 0.5114300107219176 -0.8087062259053192 1.0362019529597661 -1.012152895911176 0.7870902941786277 -1.4368765203781013 -1.457904666111602 -1.352805335496105 -0.7218606682576586 1.0704681291765414 -0.6970906714937909 0.4249436911416128 -0.9613615291547105 0.9157569310409415 -1.231221085471191 -0.52870044524296 -0.06289860166069766 1.1468241976800202 1.4650028482874367 -0.8304840183626016 0.5395845267764786 -0.8157407815915241 0.4908635182264385 -0.7688840769913882 -0.18563485687567316 -0.9413893480208106 -0.8191780883822273 -0.1581819748911117 0.3800287686660279 -0.3410890758769277 -0.057376455701646664 -0.4076394458827695 1.4083452398923024 1.1406429499839936 0.6191130260561111 0.8369440935830865 -0.7917749803232929 -0.995529787330876 0.9453903837992943 -1.067741840327737 1.0453252470407564 -0.8680083802027156 -1.4694195944715103 -1.0528870673702098 0.7316104629801451 0.171442340638573 -0.7232975323215018 0.9585330781582663 -1.1322874604247035 -0.37389658959514804 -1.4104287998638776 -0.6777126671679146 -0.8057673328343753 -0.16614561257228122 0.571378982250821 -0.6230752886430175 -1.194893352577977 -0.8736248531125282 1.424285085334037 -1.163823020911197 0.059241364454638304 0.008547968525709193 0.14652344195655234 -1.4373636419137474 1.464395514405066 1.383163234192359 0.6885626660738614 1.4446934494242951 0.38781130958654475 1.3808010851456678 0.6601838757474134 -1.406953434484767 -0.4000298443587681 
0.26269664163250156 -0.042015332934924716 -1.3474717488916306 0.30881990747895777 -0.41606118642279677 0.757138143579846 -0.2199923186978037 1.185382439685951 -0.5743409964737956 1.322167655264129 -0.6797498218069261 0.7970307585813061 0.4170352617256883 -1.0098490502537714 -1.3126625240742642 1.3074723694278088 -0.4611239183276009 0.05236520330755908 -1.3903668023903955 0.5672435589195524 -1.251776055585029 -1.4929455724149383 -0.7028155197557753 -1.4470805962433375 -1.2727331678595764 -0.42833347484990303 1.4710506019733451 -0.12096172138967337 -1.3411203149235447 -1.4540832325647544 0.7575888052608145 -0.5240415272495426 -1.309177932567105 -1.2634211530801942 1.181282161781213 1.4900678730582495 -0.07605489121595996 -1.333178521712384 -1.075719898650338 0.4166383483347873 0.4035812424697711 0.0686944966952057 -0.1474311828326522 0.047461274120356396 0.013094574997827261 0.1442677192943941 0.5274352124731937 -0.3218674159703355 1.4941274528094237 1.4672613633360103 -0.223464307502569 -0.2726922360981221 1.2226208711309658 -0.971760390690133 -1.1043685196669402 0.7720500176833174 -1.2130046287686662 0.5940494011208493 0.18918461042369655 -1.1306278590663192 1.4909588734101322 -1.164676614704717 1.219344109181828 1.4185211624009457 0.47224036869167413 -0.11354509948382803 -1.3938281653037805 0.8068865616008607 -0.8674471862874181 -0.18826068566970486 1.1324729248204708 -0.4518542624227269 -1.1044731440139899 0.9254310580941736 0.11494164689539817 0.40722653911693596 0.4850439838895382 0.29928567497697417 0.01578023036223556 0.09567630236413119 -0.02069069864894487 -1.3845953168527225 -0.9662236106996005 0.8359088930046127 -0.795650023622629 -1.485208557387057 -1.0295669941031074 -1.318727871551056 -1.1908610873738639 1.4373640921241833 0.7697587995271064 -0.6291329890312864 -1.2354504540274442 -1.0414480444962952 0.9242968851797307 -0.4529308817341374 -1.2164491174238579 -0.42229829305431055 -0.8727846028391536 -1.212146703525671 
0.2817650740598242 1.1143760024943865 -0.1425476458868797 0.025018398565829898 1.4490760631433925 -1.0680891803672918 -0.943083731339807 -0.7753056732124581 -1.1807022592949101 0.18850301092073884 1.258818455051124 0.6160135170881295 -0.11496883523928883 -0.8260169586663247 -1.2794247735931352 -1.3861733142082044 -1.2304527433388281 0.14068143133785316 1.483965100968034 1.3843195638093402 0.24954749384302025 -0.7570004137501452 1.4047451268357878 0.2348832166868678 -0.10298128650844746 1.1064071160591558 1.2936305613556198 0.3052961055175373 0.9302908076473086 0.16955467701027296 -0.4094623347233874 -0.16643928237680827 -0.6584610762834905 -0.8943675112400397 0.9566194200519885 0.7111368868566071 0.25988889395608955 0.03449120496764055 0.2779967859231448 0.48527898411508347 1.3720568963002173 0.5323054196522697 -0.28772143338772693 -0.02138433911999806 -0.13888947628050402 0.37996572672368967 -0.7615615920357324 -0.9547223249004066 0.8674266036011933 0.8498955146537035 -0.6691571118799812 1.152870414745798 1.1049109797439247 -0.5659033108186879 -0.943699334457676 -0.1984184249562711 -0.11825121975271946 0.5476998034046957 0.23918819901179134 0.12671639120182632 -0.8905067052870527 -1.000860836459228 0.762775413838165 0.8774736036167587 0.6222483197471569 0.19273466369053474 0.21508839773588315 0.4471522576034573 0.39058204001349417 -1.186383046338353 -0.251014640475588 -1.4898179947656338 -0.26822483377706247 1.1782336041237849 0.9494003369227731 1.1516919966679307 1.0288050056393778 0.7997381426346254 1.2248684809311998 0.8637316383683102 0.7366823501009374 0.5028664329433368 0.7213124965631985 -0.9963660539387454 0.9803486782799411 1.3750821102909518 0.04972524889507251 -0.6371501115257368 -0.9158914772377259 -1.2963343680835735 0.9156337739708993 -0.15627142558680412 -1.075189259783621 -1.0749558048031016 -0.7285064920503422 -1.2294966086255583 0.03606793072909127 -1.3408357292054391 0.5089300882264672 1.448490461804218 
-0.3020679498673107 -1.029779405905773 1.2364836375764554 1.1743638080464622 1.4227067969280456 1.073363210427273 1.379842819937675 0.6761654746803047 1.2938873903289214 0.6521207846318862 -0.7430188330652657 -1.1670024620753392 -0.019471215014395797 -0.23294360330056882 0.20057532392936964 0.8673899254743904 0.9337962118958661 -0.3341114951204009 1.3794533351541087 1.4565315401310288 -0.21399596944969654 -1.0293303729658716 0.3160939101347932 -1.0731991639060012 0.6515732393581904 -1.3898197441612807 1.4120188076888909 1.4442487031955213 -0.9243965253276342 0.42352897601442413 -0.20716427070723675 1.4029641705194917 -0.42711411403400795 -1.463926451363004 -0.5342947510292335 0.08752334669036012 1.3080513616612623 -1.0536341171586634 -0.3893487948403613 -0.3668412140867275 -0.44882695561976105 0.04501973686579758 0.6821265849237408 -0.23122583136674493 1.3987611551280825 -1.3139740495501937 -1.4530720592162403 -0.3527868384745388 1.0140184137348223 1.2555394493375505 -0.2403777998626643 -0.2865197131320678 0.48742667105467125 0.2615105722567114 -0.513293038403864 -0.6563011649687827 -0.7486442948656348 -1.4435833426934621 -1.3759285887579995 0.8003797008840073 -1.458455901505703 -0.45498328048800646 0.8431915968637856 1.3496240453539792 1.3474369196272598 -0.13946670890633725 0.1111790586814391 1.3672095623866864 -1.2191450493004938 0.7536995165580054 -0.3598980434786149 0.563552224208507 0.5268599290968311 0.8344909485339048 -0.1445906391175636 0.30305172741775105 -1.3353330791408806 -0.8519854220360743 -0.591903941171255 -0.07664283164532126 -1.3532001994557215 1.312878304669032 1.4787138355545577 -0.34844372355466774 -0.0582192978274376 0.38263650536137395 -0.410130420826097 1.2515159025455134 0.13666281361403845 -1.101444419964938 0.7136139432658769 0.3350621739975341 -0.9697378675317406 0.4877123146294489 0.6673993630294494 -0.7186409717344755 0.5267690300370141 -0.670781631821145 1.4299856097753094 0.2587465209358679 
0.6575478287672085 0.8846692816346845 -0.25080063588423235 -1.097310054529327 -0.5552208769329756 0.31597903546390216 1.3236236892404163 1.4479190726134432 -0.39027124847214095 -1.0615300276553992 0.4778237658961766 1.4525303988663547 -0.32287995623029736 -1.1666747777854158 -0.1173705166595484 1.0643604349096731 -1.0305288673775796 0.04811310305317184 -1.3213295385663901 -0.4992310884262543 -0.3155651859773279 0.9457359673378083 0.9184364663007702 -1.3995457640352487 -0.8342418552863594 -0.8784302114565037 -1.2206924244849677 -0.47195621715125197 -0.26228409536170355 -1.1580160568238054 0.7174091405617665 1.4501531708679423 0.8862704489120995 0.09053419957565469 0.13300848758782466 -0.6181161608314402 0.4012276373502547 0.6247678223982106 -1.3375139691266047 -0.22027670377717953 -0.6073865658170677 -1.3075678818009033 0.7917139141497271 1.408506710652216 0.17132778185292127 0.923340748354207 -1.253709164485603 -0.7026586648267438 -0.03539896281217806 -1.2882406892202418 1.2163906420004915 -1.294197354350763 -0.4941358333019141 0.4409167563048173 -1.409731283926525 0.2818350353451234 0.5833508936343116 0.47539392576698486 0.1444590976036327 -1.135612223496092 1.421782939691343 0.03633864886973881 -1.4805381292175521 1.1703741426286882 -0.07555744654571427 0.19007165507881954 -0.638677519120316 0.019049453252439702 -0.4787246777706659 0.9014029091892156 -0.8682879570402258 0.5790760883635537 -0.6855317016128758 0.47246254424444545 -0.5655249013606162 0.36546557522734585 -0.9373912750362331 0.9942763263840634 0.3777137485991534 -0.8279257585612624 1.250485948495016 0.15669703249269076 1.3989839355294404 -0.7431121148623313 0.4510728350309014 -0.3419954231948447 -1.2726320513277654 1.1019953559125721 -1.3368537370361167 1.2499540446894954 0.8717103491968567 0.353042942513147 1.2949781353723793 -0.7287223584170477 0.509866735899584 0.00885656780320035 0.9386524058129423 -0.49314791336881997 0.4794176151635718 0.9578802005512123 
-1.176237714561347 -0.7849669291737345 1.038910422665281 1.4845149863279103 -0.5479486260313837 1.1791703410345662 1.1970878775702072 0.07930738481315887 -0.5975075498397969 -0.4714795463548782 0.26072586250530483 -0.2960668860216343 1.0888467050779438 0.8183794810208621 0.1087304054004491 -1.0735686577304144 0.39093776129478514 -0.8660808854078642 0.21756992343043818 0.5539306633426304 1.0121442092019353 0.07760642680686322 -1.2544925045397384 1.0229488982510122 0.5467541739004544 1.3464827726825377 -0.7646929208981194 -1.4789133046166174 0.7206323587548226 1.06617098086052 -0.067358882134188 -0.9985003152722453 -0.10197422563100918 1.2116180278370714 -1.1605197562042415 1.1103986614868873 1.000915490059732 -1.330322453738432 -1.1271909560092506 -1.1069826563351628 -1.4973436140046739 -1.2469774391419066 0.822919463797017 0.5615913828067646 -0.5468914479136446 -0.2061898887027677 -1.2470045807066892 1.3662894990211214 -1.3068901478424566 -0.782533219824068 -0.17395798855782219 0.1837256654869623 -1.2969640361637782 -0.4972650861072118 1.37880114100452 1.1675388658040469 0.792798855142146 0.9744464498606203 -1.4711548449057665 -0.44849649502464267 -0.6476736604928188 0.53677578384831 1.2498319920155736 0.9291761685687923 1.2494082383839509 -0.46197742517271256 1.0648949094768194 -0.74007865482987 0.4018615863607852 -1.3575560792292978 1.391027721288822 0.0932900801604927 -0.28500825842370536 0.9355872260190877 -1.3900717864896952 0.26927974118885595 0.6401645773744519 0.7476618678817537 -0.16333405226610662 1.247377182820475 -1.4544111595393754 -0.6165570417171486 -0.010775102595311272 -0.17721836013468048 1.2475136552618142 -0.20679498677469352 -0.7866399172403682 -0.5304749439343864 -0.22271525284743424 1.0120970778344196 -0.3293501992352773 -0.7035966822283918 -1.3689277053445084 -1.0652373121631775 -0.6155456472823237 -1.4645624740690943 -0.5316695971715742 -1.001888322790323 0.8933409312458765 0.9798434600270696 
-0.8261839204489737 1.2790337753122292 -0.35522912779088783 -0.21771436011084466 1.0357396264936967 -1.4865482234206744 -0.5891559786196823 1.205867781918585 1.494049822419155 -0.5991570375716427 -0.9236931692707127 0.19914349295964742 0.9350446074412154 1.2656218180474839 -0.7683374242033875 0.4139447594209799 0.34684349535300835 -0.6038416226294648 -0.768223234569425 0.9468639414148106 -0.1764254398375403 1.4391369926138862 0.38850574286987144 0.2038001949092955 1.2390057723465595 1.0591352587006537 -1.0667874885693311 1.453235006960584 0.11490827429040126 0.46884090901879144 -1.4574960949918283 0.31446041608903974 -0.4411876420626798 0.6111504026852814 -0.939035954151121 -0.28128283081550426 -0.5846505843408948 0.9316894320531343 1.024994042985881 0.23086184697604753 -1.4884395463389821 -1.0783872232745588 -0.3664202977935658 -0.5136566048898504 -0.6110265746559242 0.3946973937852609 1.479474465570711 -1.2742164043476536 0.33634529535066676 -0.7993283879258859 -0.5865297687591995 1.4594409637502668 -0.9579326668254204 1.057742547406271 0.48000168947248606 0.48378927532539445 -1.3357417625635881 -0.31498425000381136 0.016033204243433276 -1.3037940732303097 -0.6471193519420143 0.5596135012944983 0.421776523164297 0.840834040907608 0.8372449238823888 -0.33658668519439444 -1.0037593233188986 -0.2565271816347773 -1.1430608792303452 -0.7543220422653978 0.8624703390116986 1.2583177137434232 -1.4043245178593506 -1.0591397771469198 -0.23893945398581076 -0.5698788136689791 -0.4444336341662884 -0.18545874395762818 -0.9029135452162181 0.7123522167599047 1.4787588591496863 -1.4240352698291454 -1.2191696537039245E-4 0.15751054018975616 1.271965584541571 0.021727184937517022 -0.7186694643300716 -0.5385358610352237 -1.1280796242715763 -0.4871418332043495 -0.09459743663454774 -1.0608124246592472 -0.6565363369842413 1.0360557308287046 0.9422945436577077 0.9259665026530574 -0.5350409246578935 -0.6717712708072011 -0.22242672543883926 0.05755495106805388 
1.2155028358248763 0.4821690799532878 1.24141731959207 1.3470763188408255 0.6262986649543284 0.3995411778869035 -0.6079897639007542 -0.37307279129580334 0.39838663873489655 0.29469878040244457 1.4740401882091434 -0.3293638431905481 -1.0903024127577836 1.1205650787793195 0.37503605164085263 0.5276838965499321 -0.1992111282144269 0.012205178150569443 -0.15190285800345324 0.7328597157231383 0.723657832859338 -0.13425274471289853 1.4968188119605483 -0.35893062335157455 0.38353092044587933 0.9741146292873002 1.204149334566951 0.7704007153582147 -1.0717549774626438 0.001110559838719979 -1.4367329620371005 1.1930904747494222 0.8112582147701518 -0.2750369063835661 0.4268705243718057 -1.237878860599962 -1.2615570204920081 -0.8944670173936605 1.3834931674093973 -0.2090434889980186 0.266365714634257 0.4383544268411504 -1.276360685469464 0.13638152102526724 0.34993047721751747 0.11596518552154711 -0.14720645069717916 0.32529093926536123 0.7776605576044527 -0.7818678790535724 -1.1200574301098278 0.8953419559070648 -0.845949836782775 -0.892063017249234 1.3985430142004684 -1.2328252681011231 -0.20444361044751225 -1.3284687923355405 1.345261840817509 1.167061195850533 -0.6568644578743893 0.9573064172060257 0.9635234699486289 -1.2325346548678098 0.7154168420782333 0.976435437661038 -0.5047599660025882 -1.382492737533005 1.3911188301812756 1.0550305169770442 -1.4218628597888032 -1.450186251243725 0.6203455380994144 0.4166282726336194 0.7999297905522126 0.5238130063293601 -0.3466266865094056 0.8667002895763091 -0.8201331544475762 0.1531329709080455 -0.5257427207102316 0.09368072752999282 1.4551371643700524 0.21315497204786862 0.08125929892784621 -0.10739360903777104 -0.13025866889603904 1.3669916145158592 0.5673105493653309 0.31619077623312913 -0.360874101481468 0.0018154707726149649 -0.17850868551526847 0.4966793357914242 0.32032580383493103 -0.04014424028735668 -0.14501239434949198 -0.24878737269804238 0.8437846268538967 1.373851696691109 
0.1343263366248659 -0.4874948249966216 0.5738212491927642 -1.2487608489290147 -1.4294552241254905 0.5345343575446371 -0.4465756164913095 0.5635803360290346 -1.0293573465130346 -1.3711241836286403 -0.4083600097603635 0.8377293447784495 -0.7981502321931008 -0.1726840674432416 0.37859980609099797 -1.1178370820993229 0.09531444235090966 0.055970602756409825 -0.5300758972134731 -0.05494530255153714 -0.2597156067638814 -0.5983741765166775 1.4346684738102544 -1.4035612962148394 -1.4238217522269034 -0.18589415905595735 -0.13771687708662367 -1.2273776465139006 -1.1633188474628378 -0.5700321116750161 -1.4802425418659086 1.0277389037338778 -0.8096943387081716 0.8148721505175247 1.2310678482771258 -1.2582826742977273 1.123133696322776 0.5074446423802146 0.44758536499370266 0.36342725758537514 -1.21224448187663 -0.5623282994202903 -0.01998278239310126 -1.4561658655970373 0.9892451683812679 -0.4888681571093606 1.4394026919106073 0.18316248876969562 -0.1596765263097605 -0.6812544495391928 1.452323223867713 0.4119950654546357 -1.445255952944996 -1.1334320055786484 -1.2859074576264569 -0.35638884656308767 -0.21988927296983551 -1.3686071563166617 -0.4768567659888421 0.009116804232159416 0.5150412291369302 1.3553973630912803 -0.6876338480570006 -0.916454385413832 0.7095326468862204 -0.048149909119772676 1.0051649231826358 -0.7649955537134031 1.2196412050058831 -0.4999533785835546 1.0847603073386634 0.422934885048449 0.6215464058892392 -0.43994169093745694 0.4794401966941472 -1.3672631216302464 0.10039241470011985 -0.798066126446506 1.3807101798499415 -0.7254155707947708 0.2431086136780879 0.7584022535018772 -0.032774231836060264 0.9676547899620555 1.3290472657065642 1.056939883744266 -1.4999017710184308 0.014946907139243711 0.17473414098789233 0.5836764479603127 -1.493447892960762 -1.0065244036341012 -0.6728006810588082 -1.3049477324888543 -0.5038060048075044 1.2548519562085565 -0.15669067342306842 -1.1214181355536519 -0.07450038830469491 -0.9796508898858515 
-0.5299165768907408 -0.07389108572967938 0.4471193391527467 -0.8411715197014613 -1.4742022797393661 -1.221046866715637 0.9879589151387335 0.31980972863671414 1.1700973782550363 -0.4305970161350061 -0.5728322757531669 -0.20763908695695185 -0.5987201109576606 0.9984670052865665 0.8787544489529757 -1.4140305794731303 0.11715850814852022 1.3438400776639423 0.9740367395262128 -0.662431921072195 0.4270055424341616 1.354047631345249 -1.3021052143436078 1.132942741325391 1.3668419235965679 1.031261034023783 1.4599936658402928 -0.06792916490804814 -1.4619605036001255 -1.4122717404426859 0.3925677594860517 0.3748124816531434 -0.29382974900489073 -0.029333516869163915 -0.1287231373072015 0.40376733364267636 1.3063372626141474 -0.6098188539416267 0.3596729975713435 -0.04797663877203726 1.204082954734434 1.4399797050788619 0.9182763242699644 1.180751720021015 -0.7731350253450354 -0.899758217391644 -0.5094130652234102 -0.614508570883181 -0.9421586163540776 0.5384232502517042 -0.6627116737640282 0.17246355053923806 -0.7563771265693858 -1.4693321291513006 -0.3123360168264474 0.07018019484105788 0.2119963766074833 -0.2887599105401368 0.9915109820690375 -0.60780199938057 -0.9311832127677371 0.9246066056653472 -1.259535097111737 0.2536835291949053 -0.7970119519107715 -1.1104244150233866 -1.1487188778424422 0.49012090508118755 -1.4702003014316307 -0.041767790307897235 -0.6078435548047428 1.244541331422418 0.2503798543091456 -0.030423945628659063 0.3649229539759769 -1.2303982462472933 0.9358309186302942 0.3379617475726524 0.9875567368128084 -0.3578675625671815 0.5759197437055716 0.08929832015316912 1.486635134099502 0.11435520322901178 0.2186027830068106 -0.7101397573576032 0.649041857861923 -1.291088374058535 -1.4977353225686396 -0.04749487431442635 -0.6893119462002862 -0.27135267341451114 1.346327704621392 -0.8313177202836711 1.4457109920869158 0.20774639605578002 0.7220900632456024 0.04048589920035798 0.48461577048130566 0.18069250161878922 
-0.7713981314979805 -1.1640207048759141 -1.4656429103952067 -0.9767678188047804 0.8684072453086698 0.646861398688138 1.4403993381621545 -0.3463952124942997 1.1506482749546256 -0.43357417018928723 -0.5749119474502508 0.606941004086389 1.2288381438638636 0.9855053048324334 1.2935210891648676 -0.5061884681029766 1.4520748201434137 -1.2741630345380526 -0.07631917625769735 1.0161480681948958 0.26554345237034216 -0.30914110061093947 0.9519321615682412 -0.3688036439513409 0.9578573236087342 -0.6576885595120469 0.22807344048043676 -0.9252941865402571 1.2742503411994974 -0.32917453614587844 -0.25403539987718626 -0.7022310397214541 -0.5941555703514326 1.4058291764315247 -0.6436569678076333 -0.06675354024258673 -0.6748240379015489 0.006000871662625862 -1.362227235579798 0.18798799094945795 0.8668766048109768 1.4861478247173276 -0.16024092257640454 0.056081479038453175 0.34986463063548134 0.36978512839406896 -1.1811031221594628 0.966137948122157 0.9036141779874884 1.0088405560205533 1.3645058569113662 1.4121414628828743 0.9960298562440437 -0.8171920867229583 0.25454321065910124 -0.2273319247624952 -0.035833002978380435 0.2793201206698588 -1.2043313535920381 1.3973001873373914 -0.3785043677896216 0.46651226192598516 -0.5168257604325012 1.1318375747202984 1.2566209244281543 1.0946926550533824 0.7670762371369078 -1.2345728648917575 -1.451669306130205 0.11073897679715827 -1.2699976841454899 0.4130109234281796 0.10055327675081749 -0.4667156821588374 -1.2294056054012443 -0.40448899707668584 0.44826928563869073 1.020156911125317 0.14298141384775231 0.7479464918995449 -0.4983678157152158 -0.738314405550988 0.4284642070667488 -0.9278003165168741 -0.5194875642799544 -0.6456182648200819 -1.2901102010427006 1.0564227107103927 0.4453930262235333 1.4491559735775503 1.3822776769631306 -0.3929012195721757 -1.4469971455736546 -1.1733720940807495 0.1650978963497478 -0.41745431920197706 0.1562861803490163 0.12923363308578173 -1.017814085383873 0.5781734528357272 
0.8247452472237693 -0.22426348811728175 0.9499629170831825 1.0911346134020603 -0.6805213754833629 0.5983925023829318 -1.2900670257122997 0.7131353791593431 -0.6558933467208639 0.4764239439420146 -0.001871078519795701 -1.3528464765061137 -0.9930273646406572 1.191610526158655 1.0193089248235776 0.9046403266095947 1.3831428688989729 0.9048213025023064 -0.9834569712036196 0.5669523017832246 -1.204028648568028 -0.4692669534557204 -0.9723841897570725 -1.043431288365409 -1.1052426391272074 -0.09142650882687473 -0.6190773119473405 0.05872419422008627 -0.6071197528430048 1.0457650401273098 0.23693145713557473 -1.4354754277566746 1.269036362654572 -1.4576764612006432 -1.0974032591643545 -1.4342801915916579 -1.394632135138927 -0.5322468257217168 -0.7475646401776186 -1.4193014570085616 1.0620963404178785 -1.039424180569705 1.1422440564017864 -0.16460404520994026 0.595328491891974 1.4699426620925609 0.06642973418142656 1.290824679518756 -0.45974718384169627 1.1458538135650729 -0.11766914932215904 0.2811322294746469 -1.2245968966858405 0.7009563104470644 -1.3923935218644963 1.1891895134539872 0.275200480817967 0.4146675379357715 1.0951944615344458 -0.8692604021353011 -1.3494728093140038 -1.066513737029149 1.2780310313989491 0.6696200620820608 -0.003237805171294495 1.4075002364245646 1.3047067456705397 1.3160078126523835 0.589871827803131 -0.9897836345419136 1.0003568598753265 0.6369087611079447 0.46305968538005493 -0.9610633111193337 1.4805807284493402 -0.6375156211849518 1.2712254973937414 -0.12142996788168361 -0.056714405869524115 -1.4213796043039966 0.09068791589383458 0.6163595953333675 0.6218934762910951 -1.4525007968441734 1.2944222595321386 0.7656809064988646 -1.3853405794037157 0.945521547538989 -0.360103103571404 -0.8694531720958675 -1.3841845937651989 0.9018613174337557 1.2428332257552595 1.4632130501272866 0.5333194831372879 -0.0493386145018449 0.0989778568047276 0.2944154218015471 -0.6309498996063094 -0.675849524848013 
-0.8979511769752175 1.136476769241435 1.2243971368640367 0.8195892395321459 -1.3571552473606898 0.0399378960938503 -0.044371419643463 0.46819633529101734 -0.09450045493452797 -0.8494017206097827 0.39112633542718456 0.3216303896136617 1.2738956430142574 1.4516567038897334 0.4036597811114783 0.24053564741334144 0.9776357140519928 -1.0793372513296602 -1.3113473851374626 1.0293586739919882 -0.4848308995559037 -0.781677383626218 0.4057979772898113 1.2100089980094655 1.0962852853128338 -1.3688257953805385 1.1277164064859202 -0.29498641812120563 0.3406602288104655 1.2792424150705353 1.0103940930833601 0.139232489155846 -1.3758696056568398 1.477823877888277 -0.7589038997063938 -0.2976345512251409 1.0625890994311682 -0.7906989466573386 0.13766126924226366 0.5205665048235469 1.1601480203548504 0.6633993061731553 0.560071578355179 -0.7289480152089243 -0.020421584946829066 0.4104364240341101 1.3576192814573034 0.784524917819049 1.4235830681152122 0.3355165822605882 0.8872395709158549 1.2263315130450185 -0.972470386929244 -0.7737889224921433 -0.48078173952741965 -0.525263656538079 0.483649491453313 -0.7365447553551647 -0.41784133387538874 0.3314035772946001 0.6074143224159605 -1.4341254973577295 -0.1956694137725525 -0.2742298655032146 1.4214070882745964 -0.1585954434519582 -0.37634904097482463 1.2392761448201868 1.4505106637023506 -0.3748391442376632 -0.3673138680595004 -1.0979132410122814 -0.9532091202918184 0.7690212750353862 1.4688200338674053 1.1100787120536728 -0.8577845154012911 0.8232058964160521 0.4365340272971473 0.8295295239445871 1.3011318060671861 1.4926460736947837 -0.2448021119603581 0.06471900884656052 0.6589550006913175 -0.06472449914719718 0.8818808427798461 -0.6721758209643568 -1.4925321929707036 -0.7210794845594725 -0.7410161242407847 -1.0759352360176542 -0.8884215378631846 0.2223787219322672 -1.378333313267954 -0.9695478779450005 1.491215364133362 -0.6022925287521024 1.0524871382949235 1.352852324278037 
-0.576281287566304 0.8710967007818381 1.1948035221972626 -0.5867592389607927 0.3130893762290207 -0.04812422765330181 0.4153747798360863 -1.0212783170852393 0.7392062675737354 1.103656151060918 -0.1931049847755498 0.7181418311428175 -0.8782374459319742 0.25732732300398725 0.0337345060843536 0.1742169197770602 -0.22227472341456117 -0.15868889516604634 1.2846948140251981 1.1137319837298394 1.3320413898052443 -1.3012038860552868 0.6348278745250443 -1.3083976481266035 -0.6569836264291714 0.6411213971083753 1.116317567032343 0.343471745217783 0.22301390970669266 0.6266160722397139 0.9908224592339928 1.217914686222817 0.9064974186206104 -0.5650949423222296 0.5768850852721351 -1.3551776170687142 0.536402799141302 0.7007589992623476 1.013470161817553 -0.3578541590878885 -0.304933229715254 -0.8242605481341616 0.36690567023749915 -1.3046392113657737 -1.2461938837124817 0.6444506953946828 -0.7558956186202962 -0.46927407920437325 -1.131869305417343 0.4565411328018326 0.12250041627056031 0.9161577603620871 0.17242914528356304 1.377831989302786 1.2129186974037032 1.0217389240861081 -0.2284618634853974 -1.2287249200823842 0.8916904018566849 1.365163786481351 -1.1724239808046906 -0.9896913601190517 1.113888748662869 0.3279121977005435 1.233936192170892 -1.1176789800658513 -0.7921208838269211 -1.063482963322712 -0.002569277774362478 0.1404900902526847 0.0862340900800317 -0.4157063149218578 -0.6024920538387448 0.5194706164346248 -1.3290570450848131 -1.1381529818062244 0.7859454122248011 0.4674403209580279 1.011475979201482 1.3470760022162118 -1.40615260617384 0.3682010530906836 -1.066450119768772 -0.46097962272730325 1.017632280718436 0.5642095995168115 -0.7312995414653399 1.3399436381332006 -0.7008383044583814 -0.9050344049931957 1.4142265833532475 -0.9743902617818984 0.4977678558508396 1.4892034687023785 1.4083066547770446 -0.7150264062991329 -0.9329479829687122 -0.23645514805596432 -0.4856072360549618 1.1828363736156218 
-0.7321375044587518 1.4250421541952454 -0.7613124560131728 0.6350016501435317 1.058474744643188 0.04714202617927024 -0.1944189087033412 -1.0823666463771127 0.4989194575469746 0.5793698183830651 -1.0686480417624908 0.7625350502995248 -1.458401976838223 -0.9750460493457036 -1.4253589618262654 0.0865923395912034 1.13086315986818 1.105800267945964 1.3127468105100244 0.8138059005015271 0.4607471343787057 1.35698032582275 0.7567999884267667 0.12432576892399126 1.3351548019274402 -1.3600960334643795 1.132491895059092 0.3715097153287202 -0.976449075557339 -0.7221037000766641 1.0641087457327558 1.3377009743224189 -1.4010446466018296 -1.145440127277705 -0.8205167545403245 -0.4364076012721087 -0.22627927986928717 0.6959575012179189 0.9046121891925424 -0.45097338035649764 -1.2704333917750452 0.0140598378916318 0.5494101222554247 -0.7305715315697112 -1.298795375876101 1.227128469258194 0.2768783531822365 0.4229293625022656 -0.7538458591952468 0.4676815544290619 0.2981462240349274 0.6094686870140209 1.3820145487427955 0.013391282485894579 0.978022930620687 -0.3967904434761351 0.01975904625298507 0.6272553202660549 0.4504250423683815 -0.15675191647962172 0.0725866481922521 0.6860149384181113 0.46282121215512595 -0.30109467202214446 0.992844338241545 -0.23208103088407203 0.8657307444860954 -0.7502443082571797 -0.6310273002871413 -0.22344177743308632 -0.4985831702307797 -0.2594801524297006 1.3642262933581004 0.751922496029597 0.760094850347113 -1.1153714245367212 -1.2000940605927626 1.4880840194300546 1.4347855952122681 1.2858978152145752 0.6056667695876977 0.5086970577619933 -0.37076251068256594 0.08729039365015066 0.4710907734682418 -0.48724470133487313 0.33748522718457563 -1.3604344529575954 -0.7690113254147984 -1.1011389962113325 -0.18824994483442284 -1.0369995879880538 -0.3323919117790285 -0.5189769649121568 0.924881974508428 -1.0829335200297603 1.086593567726332 -0.8320130892125888 1.29457679340959 -0.2859699835942359 
0.9518770291161686 0.08583387315117526 -0.4247604504451391 -1.3754439536720715 -1.3357923102614602 1.3160748808178324 1.144530290311488 0.11655784416375335 1.244553630494403 -0.9998179030954762 0.9458397585442236 0.19187526866926194 -1.335786459797579 -1.0056901242962837 -1.195209549430052 -1.399918387950517 -1.11207094871365 0.21914824395618723 1.2272599789720917 -0.4436290496937024 -1.182538947964342 0.6329566293453835 0.16904986104675152 0.8649295311984522 -1.3599689496675682 0.29304365717916353 -1.2999639048373188 -0.21439425539122559 -1.2438010783472198 0.10549416498141335 -0.886826287968625 -1.161546465629997 1.2729535357449886 0.7425058873217641 0.3406617578791538 1.2830844087685223 -0.7049533304916076 0.08081595028088416 -0.034500164817744185 0.5618449272867839 -0.05244787334084454 1.4905924377135578 -0.3451692333651038 1.0827670972334367 -0.4556558006617732 -0.2101100079471137 0.9430050972635146 1.1755393817997437 0.7083838774979175 0.1469266934861773 0.8470560057777222 1.3025089318046283 -1.2771828796092524 0.9090135035136909 0.8207812904985993 -0.9630301172104574 0.8380823408896043 -1.4481793011090505 0.17740969581157678 0.7536584937557476 1.4696541794729097 -1.1909926665351172 0.992335857091825 -0.13024090422441814 0.7631426542640146 0.7984353221570974 0.8611987656529744 1.1526332895305345 -0.8582146840430777 -0.6583139951552525 0.977505841138518 0.4449288104352515 -0.203305524454382 -0.29273100415296105 1.2231168846578964 0.7157622661908342 -0.6636792997504583 -0.04358944417393176 0.039422829347804396 0.8416862731260314 -1.0652785074549294 0.4631466095023671 0.6863895873902607 -1.1328116750087838 -0.3529030929929492 0.7012867087537459 1.0978225641986619 -0.3573416812407371 -1.483418097668579 -1.095818915788363 0.7325877863266755 1.175300730010044 0.3992290278941865 0.5752282871659489 -1.3496930072594844 -1.350064010206059 0.38765894290706415 0.5824528236388729 -0.6903925148929884 -0.7386858699160557 
-1.172331911393975 1.1458701682976877 -1.0526705297222008 -0.31823682065375963 0.9454332311002214 -0.26612918858362683 -1.06339178232906 -0.1501002265119258 1.014087837785314 1.4277827764587818 -1.225259044251629 0.7572927811577113 1.1608099265112775 -0.2955245057626095 -1.3726963221111288 1.2962056963327966 1.4841493499272314 -1.4740294243763645 -0.23679691504803463 -0.357913094121396 0.47495349130341685 1.3800905744992231 0.41671684186159935 -0.6020373316744229 1.2785374435212127 0.39327271362993155 0.7637569136066318 -1.3807432039107725 -0.7798894061342052 0.8038872856599553 -0.9523554680682825 0.17332857353620804 1.04770847631678 0.8465131297381061 -1.0888556493197004 -1.0978982178531904 -1.188326452883547 -0.9832397859488256 -0.8342270917766673 0.059758629658139044 -0.7805676126204046 -0.4135573054231472 0.4283710967383492 1.074203271068819 -0.9959688944394045 0.7103370833463282 -0.05278663003514105 -0.407288376135288 -0.5438288383650521 0.8965340072205756 1.157042546093137 -1.5042737014282017 0.9530633672804724 0.2805715295941116 -0.7348871098184173 0.4595175376261132 -0.9887970693543708 0.32454775458828233 -0.4673087070193503 -0.4473801812076614 -1.2393399168432218 -0.600823856105251 0.46333377847853696 -0.29042581409047563 -0.4285634678265425 -0.567066354687972 0.2568688973573055 1.0719123768637806 -0.13844441762684592 -0.8461632152103891 0.6481996734310232 1.4956990192943684 -1.2884685535261344 -0.531422700275395 1.2168374396902917 -1.453290307583194 1.3700554928710644 0.4183968055994609 -0.9588499395438027 1.2632429932299067 -0.9131598671112761 0.5345535516767187 1.1425186195569768 -1.2047503101809822 0.2598222871880057 -1.1071178556177026 -0.5459024693334633 0.6292285228686303 1.0293410209246876 0.6397663099154368 0.9984434479582384 -0.9715045142445605 -0.9792217193312125 1.144218435910357 -0.5262453647934786 0.3991479133871999 -0.9326694309473871 -1.4065164960049552 -0.5467821081577255 -1.0498919403216838 
-0.9018954337449452 1.4439056753824158 1.4760160700069584 1.1645556683523937 0.6208167379802283 -0.20336118284069293 -1.4322784938020638 -1.0640275432176884 -0.6644956242962131 1.2699755549820382 0.6990382555547725 -0.33519483955363377 -1.1533865082354984 0.32022355518796536 0.6870770338942997 -1.4998183752599845 -0.8194435932422788 0.854636261513948 -0.8308153311265896 -0.25128228132810154 0.4005732124706214 0.7036244002806088 -0.7997198842521446 0.7308975927926419 1.3471997055557254 0.9935177036115995 -1.1054816961877982 0.6970305427323407 -0.356308347440387 -0.4636017000329779 -0.40198245297784946 -0.7486498908192879 0.36133187714688375 0.15945726020324244 0.8222085158329203 1.1740902165576481 1.4157300697539437 -1.2727062988538946 0.05399470490863668 0.04404941887073406 0.9080262938265952 -0.4976181078681067 0.4881431973606003 1.0870255808008351 0.5420859931822152 -1.0703478757294687 -0.6755511617546711 -0.9443909981114409 0.07858250825180868 -0.6761657265479003 -0.7822629429537109 -0.8459745415260728 0.6920877154249898 0.5813562179465316 -1.045993491701366 -0.6322065648534708 -2.895870244772771E-4 1.181969481355877 -0.5212776806737229 -0.05672306696172942 0.1392948680835737 -0.44221209423439106 -0.2747910736377745 -0.41365096907915694 1.3016078387532262 0.5957828008690012 1.4915532517043342 -0.43193473010278327 -1.3411876422364424 0.356806147678245 0.1397706991979149 -0.3076489190019124 0.43699088521270896 1.072832494290422 -1.439378698286217 -1.4202786176803213 -0.4445889647928425 1.3594740817212436 1.3502066906321666 -0.8411216684624182 -0.15905110553088006 -0.0815192612014007 1.448621626486387 0.5253648275017354 -0.43144399504466624 0.472858538312571 0.47692906445849065 -0.5661120346241967 1.4783442659566994 -0.9208569507084381 0.701866560428475 1.0462405093838336 -0.8269133986576042 1.370135610066923 -0.22559013659941915 -0.8715071516966124 0.17188509293419454 -1.14765176720701 1.1186248223051347 0.007725828510599392 
0.4614075976420942 0.9902548522810506 -0.3606239978279345 1.219594382413068 -0.16037963029779084 -0.5895657098742557 -0.6059489906046316 0.5777368164902026 -0.3043732294124896 0.04630584602903972 -1.4330014578334427 1.3239079430788518 1.4869732707539423 -0.6217853157578824 -1.207550646852885 -0.6583130931703072 0.1679715785451066 0.7943440201068418 -0.2750687659510087 -1.2338478141753706 -0.4006981140067529 -0.2069140294167282 -0.611192370072677 -0.9896689139541229 -0.061206600224534516 -0.8380073981764504 0.431120300576584 1.0570533897384529 0.33905690982486986 1.3733578013326682 -0.8154729923890365 1.1503435061667562 -0.2475928939854857 0.13283273757077574 -1.088751007949903 -1.054521691865453 0.5374305765790781 -1.118564889966093 0.1988148600161539 0.15056605476154397 -1.075937172242765 -1.1205151385499554 -0.8639499471142179 1.1828031174477434 -0.469554793460151 0.9190757522570765 -0.7983373406030049 0.218750085540689 -0.8280815407200295 0.07238650410569096 1.4745619259981495 -0.31412815433803676 -0.6724702775781956 -0.5048663880212146 0.9595146720617679 0.06655128725623913 0.7510790737000189 1.4173284902644185 0.6336010587665963 0.7286243650061298 0.5397839070366992 0.23297919471550355 -1.206429387687849 -1.191856517348284 0.2217460529943878 0.25777722963822214 0.8788558615189254 0.22799895936629191 -0.8218713010178725 0.014683885173052635 1.1283090627299484 -0.7981858916009549 -0.2624543735576971 -1.1574256097935776 -0.14762342969754566 -1.4680887762316521 -0.8130771227236294 0.48263430995716583 -0.6883341204454493 -0.10746878244270323 -0.27978917153653887 -0.40757019530485944 0.20780905472885083 0.06797352480849819 -0.6565124731466058 -0.42615994817601227 -1.4764184307326167 -0.344715077821441 1.3415308901182827 0.4891900999016302 -1.1740998060303867 -1.4164867377570969 0.902585116495653 0.1829044805531367 0.10990315506463567 0.8374410991528626 1.080655840761609 1.3065299948199596 -0.3038046176967927 0.3586858258896419 
-0.9398939858955461 0.48916495154881723 1.20913911285065 0.18726064967163913 -0.6388982657620255 -0.515194057273953 1.356874102896619 0.1760303434846966 0.19263227714959497 0.5708173615100032 0.6524558841312655 1.0040017624266326 0.988246449226737 -0.21304618146624504 0.6285029527299135 0.01302840039599062 -0.612178599498661 0.4342951646470825 0.6858938410912071 0.20342389916180714 0.9031337772530794 -0.07767994990487517 1.0552456714343994 -1.1134907121613378 0.709374687566399 1.43262180607195 0.6681130326509013 0.7926604750502273 0.5419336447906167 -1.052666560577986 0.23395305288116997 0.1626021705337405 1.3729303360867362 -0.15613984678502996 1.0021994602245186 -1.2068486326282257 -1.3449066598141812 1.1049522812181551 0.007519180798042616 -0.604565513416602 -0.49976018004231554 0.9776670194738056 -0.027706648624990445 -0.3813280609330847 0.517695857199465 0.30855144242562527 0.06307325440294721 0.40519567180252514 -0.6994892128871241 -0.8885402113990389 0.09756928033422903 -0.5175695279032023 -0.10802529526841759 0.4956530357663883 -0.31514354501607084 0.08703096851888471 -0.08926616385699705 1.185178717847802 -0.6522506716697326 0.32536159557671696 0.044410220410361814 -1.419528739485944 -0.6752973554245307 0.37603287097717025 0.10542920787831113 -1.0352793860817828 0.09461857627578632 1.2156863531731805 -0.19738495335233497 -1.304499646392333 -1.4368276026096656 1.3660601705999478 0.629443257069189 -0.8497432335853551 0.9787760873228345 0.49196104813069713 0.39358663937882243 0.9957129500359132 -1.4026791633103297 -0.8859875484348473 -1.0968951332178263 -0.3621374029745637 -0.19103610348678568 0.8980891751186721 -0.4375916794165005 -0.9028882870846362 0.9580541264352738 1.0049610187129463 1.390681116596857 -1.069226398203719 1.0966760264202644 -0.6950480511205465 0.24386921365074776 0.10474990701394432 0.66842224546123 -0.2480647510819073 -1.2227325461837464 0.30335361487317786 1.2317349221852105 0.273923507304012 
