Network Configuration:
	Input Layer Activations: 1681
	1st Hidden Layer Activations: 100
	1st Hidden Layer Activations: 50
	Output Layer Activations: 3

Maximum Calculated Error: 0.0023558954856805064
Lambda: 0.3
Random Weight Range: -1.5 to 1.5

-0.14716078752872747 -1.0351941684581312 -1.0128103266983546 0.8099406685588603 -1.456736199507571 -0.8071449475969344 1.1400521440980187 -0.5029634837788185 -0.6823055085922594 -1.3823516731540295 -0.38236478556814957 -1.1638988184874357 -1.1574208494368017 -1.3837627879509746 0.6901841335635313 -1.1281892581614124 -0.9227402049633359 -0.8952670624481035 -1.2568645242928043 -1.0928846988901009 0.14553136249986975 0.5913969916772971 -1.4346152149425693 1.087083540523221 -0.10647123006700576 -0.33633473712458717 -1.166690201794587 0.4025362115614053 0.8834356335176029 0.24000424661785053 1.2287236471390128 -0.7270500541282408 1.4748423908138186 0.6776078517748207 0.5706270849254392 -1.1090361574378151 -0.7259114288273898 -0.6226058521714374 1.2342949686078077 1.0302110962138917 -0.7531713599375534 -0.11168467386696801 -0.3670772380607748 0.709973936209999 -0.14744702198602078 -0.386229256132512 -0.9785297679103178 1.2635630239182782 0.871246837049312 1.0152717480811737 0.7657969444740782 -0.8454717996438762 0.6904357781635457 0.5506750234265402 1.3565482136053209 -0.1590601775376257 -0.9232095795808413 -0.26224869265698963 -0.3254551675672316 -1.1335263708388292 -0.3441520902946499 -0.6349342933149639 -0.7554708201931519 0.02896801362120149 -1.2627782886528187 -0.9429823772379866 0.6404633685412444 -0.46789540994829526 -1.0607464059392144 0.6693245397139373 1.2178721077958856 -0.5748167305997852 0.4047116812237 -0.8145417891262033 1.0059374631017433 0.018950602415000708 -0.5239707730895053 -0.9134564676899236 1.2227263600401541 0.49992208461438986 0.6800127208425569 0.6346198841647517 -0.27632560057292 1.3966545359114806 -1.205552549006969 -1.3740708543255522 0.12696712040834784 -0.004191388327790569 0.360361019477926 0.21024181786995197 -1.0218180469298526 -0.2520196887952547 0.7982232196779597 -0.2890813222584409 0.20061344592661173 0.9752923808467197 0.6718826352102213 -1.0328994478186502 0.2562759318296446 -0.7892146046378462 
1.367362700674113 -1.3489219595509951 0.9048644225892568 -0.9191071972479716 -1.187593220317536 0.33390069235169595 1.352538852978235 -0.6004954293469634 -1.2795952807686402 0.7980395832496364 0.07152618860817041 0.38073362644767844 -0.11411562178971538 1.0870292564724557 0.640902910960715 0.4801898616908864 -0.14674150643020073 0.7719650580633948 0.8183697962453784 0.02224758070834696 1.306444192024157 -0.28283162505489584 0.9499410348561498 -0.15584242257595637 -1.3415424616067348 1.3238968964274114 -0.3907564477025661 1.1191510771280393 1.4398745860300386 -0.5034530079407871 0.2800530203671448 1.284778005527367 0.7704021870606984 -1.2080569911716053 -0.9520457274253339 -1.0029184518176804 -1.4885951083023334 -0.7129167650120409 -0.6035725509760337 -0.46796403706453304 -0.5517598139593716 -0.5870531645002611 -1.106042186963609 -0.3039147370662767 0.608460660380213 -1.2819111763868027 -0.6786427761749197 -0.5532308080814525 0.9010695954567274 -1.329800430205501 0.7874139960308508 -0.8201969667647077 -0.993314032685742 0.4739938894911178 -0.14043325693635803 0.5711636424355769 -1.4949963842303742 1.496302458197204 0.0906896758670408 -0.2934769787820425 -0.9352616089319515 -1.0511985807067212 0.7965919409006622 -1.137566586693032 -1.2764626676529713 -0.7684874882523154 -1.3789429710023475 0.3544223076227654 -0.23574589690343242 -1.0545976690703438 -0.4081196407984904 1.1948317113138494 -0.20123694950844762 0.35908329766454633 1.3005941141813468 0.6984063349958305 -0.5872049566201343 -1.1851205021939613 -1.3371834799733526 0.6356295389747832 0.4890977611476744 -0.44805189775161886 -1.2129010383056493 0.9689135480745726 0.9051170703545409 0.9304589767440841 -0.8672070069378442 -0.39903028900107995 -1.3433002902962026 -1.352257936787909 -0.02583404097258996 0.46288091185643293 -0.054781068515656894 0.25966115090840525 1.2917454368087922 0.5665371490580493 0.8935278418928186 1.4279453701588785 0.60918808437149 -0.467832125835583 
-0.03573652765409976 0.6878016816926632 -0.028962019838014302 -1.230744504221387 -0.7180734163414805 1.3352089813433847 1.3918729360318098 0.14630226604833788 -0.431918905927806 -0.7863135903427994 -1.208220230007054 0.15169385350019485 0.2477282285479467 -0.3448058662821138 -0.24246563510656927 -0.7427085655583301 0.6960853816820016 1.2735292507479956 0.5036688560921305 -1.3628631956726518 0.456313507339889 -0.40998007129814157 0.561897680951699 -1.3590770829069996 -0.01806732614111124 -0.3631574435475026 -1.2938819561319344 0.050909639085982526 -0.5872582547226586 0.4082060966256395 -1.2263978345872026 0.18958189138436476 1.2188302494920216 -0.2838297460917585 1.4063877416090809 -1.3277182458262669 -1.3721458929140762 -1.422507572894891 -0.9079127766436125 -0.8215397731203434 0.14724513464576766 1.391843601443223 -0.21707657010535203 1.2029144450645848 1.1081779882228877 0.39471666655122084 -0.6230520123334178 0.8504171306251939 -0.22308196355747983 0.4712048486745366 0.5168453448506539 -0.5331533280192671 1.213220460850832 0.7260560364025349 -1.0814070642617815 -1.2023066647247058 -0.3236366419271087 -0.6076898170095901 0.9707133388247993 0.18005601030951088 1.0789564220429384 -0.019057446062229443 -0.9595180974870172 -1.1268125245569862 0.8078441139708555 -0.943649367911407 -0.13350764525248598 -0.3489617712255005 0.4643802141164038 -0.1176588872306301 0.7379628134562942 -0.9139780904810431 0.9159128279159888 -1.4526462674530132 -0.6373750067500898 1.2915147303586132 0.486293093841224 1.300504887396734 -0.6563074915175886 1.3651086208520562 -0.40278714255269893 0.2901363384616978 -0.5271361523223003 1.1321141955681333 -0.5061355072340423 -0.08201466890199956 -0.06147736430243972 0.16650009724854972 -1.2665299323492425 1.023781122054289 -0.42119137642004806 -1.0087192035747823 -0.6609061457809008 1.3671021828434813 0.6484683840000245 1.478497647354731 0.35527138366938177 0.4246267715388817 0.17770775813904963 0.5237218962465061 
-1.317206088914678 -0.6353384331460588 -0.09782590092462173 0.5365145579359003 -1.1033783093365943 0.33192405186507395 0.08609249206890739 0.9770605039884429 -0.985556813871255 -0.15617422203998382 -0.5189838463691882 0.36878790882341617 0.6835434207335515 1.0065347197469323 -0.8121545225340218 0.7601315544692698 1.4886755790055397 0.2148584801492113 1.4551563063393755 1.1427699537259073 0.5031138611307153 -1.2859515737869882 -0.18356141845249832 0.4546022847350215 0.8812862131198222 -0.9341147073514138 -0.8303523138204308 -1.5021638791791145 0.6995022761075771 -1.3005698991427677 0.7552439097958964 -0.01599721476730609 1.4982012528650936 1.0165414351793012 0.6155609861420064 0.7249547595404738 0.6846816024131309 1.3235026453605252 -0.3674993792170676 1.4670671511524986 -0.9017837076412767 0.7483844421514471 -0.5763649134384246 -0.5419922072044737 -0.6477917265284594 0.7600858803297416 -1.485918754019459 0.8881779141832583 0.9346152879864158 -0.8895458565243662 -1.2768681077998523 1.057901773118239 -0.6122905222580756 0.7435860616732543 0.526192646842525 -1.0215820059839507 -0.7936120614322246 0.8898170579610737 -0.9836311112827585 0.913740934243253 0.5470605505559301 1.3526178910077156 -0.038649292528390715 -0.09074103751066263 1.3788304830338864 0.9325982434008301 -0.40250294204976494 0.38743428329530083 -0.4008702001097323 1.2803904080088888 -0.6212709084115924 0.11181055624797917 1.2817931722380265 -0.7096113418469171 1.2919359179628003 1.1635879268657299 0.3168413039691807 -1.2698140479280058 -1.4096245143158292 0.011174584390045499 -1.069941317688669 -0.21468657799362065 1.3273993521136132 0.06750858188700169 -1.3936719698561595 0.5724425709602565 -0.8681278057197434 0.49384376650451106 -0.3088302135812976 1.293653234119245 -0.020229938216873807 -1.1153472951113603 -1.0725381983453037 0.29296886589499616 0.22175285030898378 0.5617990617461482 -0.3192448332324482 0.38921139629842383 -1.0156949339349792 -0.7384268979455053 
-1.487400089093641 -0.8881543348532915 -0.8327514775536121 1.343780572191512 1.2782291717517105 1.2406755513465524 0.8337512489253568 -0.5659339965301614 -0.061521100825432745 -0.8256852468977722 -0.08403318113337133 1.4707030709451516 0.43653546620226047 -0.971049317661584 -0.08831322081138446 -0.30032685517700547 -0.9724691542295211 -0.2047903631738812 -0.2698995131105769 -0.34258769757171414 0.5135362800324069 0.0642351630266906 -0.5699455843283384 -0.7871954480901332 1.2559326646590607 -1.039930458218108 1.0154197016729491 -0.4553177502495105 -1.0118226156038228 -1.4606902545706308 -0.9707784449706232 -1.3937418890953561 0.3824747305509842 -0.3429169944663271 -1.4813891573201565 -1.452319707756094 -0.24067297287349484 -1.424352778928056 0.6950509038635065 0.9422089322803636 0.22040045281002488 0.9610152396566586 0.004910687910752939 -0.7581968598679211 -0.5572710912836534 -0.1808528139187443 -0.3311137007878205 0.9093503897044447 0.5616123585645295 -1.391427577234591 -1.4678269058585083 -0.6511513686754328 -1.484724346414822 0.9637597768421954 1.047216238854271 0.586791512314757 -0.6271338022886839 0.5690901124999912 1.3493225793489532 0.41598586277608834 -0.7624971802878223 1.0594937152950186 0.42964077094250297 1.234134419592666 -0.3542425483681615 0.12892053240956353 -1.179057686470482 -1.2044410593069967 0.9639965866434597 -0.06954241006074909 -0.04111061102586132 -0.6977968672405119 -0.34707837594074925 0.08741401637234017 1.0307184978874044 0.5576874926734855 1.066798325200898 0.7130368924631407 0.5595998942331298 0.3208625728565806 1.4439883365967938 -0.7171063917333818 -0.25526074772105944 1.2736236457552115 1.4397724026017087 -0.9679017929665306 0.8197778227252632 -0.6340885667279371 0.07491976453488984 0.6676890026702037 0.2665215462183895 1.0928989921338237 0.6397933328230466 -0.7855072534639079 1.4116415737111168 0.426893476856453 1.3317370587037718 1.4131181677136015 0.02800697215560777 0.024849879334798913 
0.011925603040211763 -1.2018351059166035 -0.1223568615776486 0.7249450211686179 -0.2893353923950065 -1.1619241373162892 -0.06674320329229348 1.1121110950594444 -0.7513914225360644 1.1062965354188503 -0.6449840990094062 -1.1390916234221522 1.2028247501501412 1.290004671282227 -0.7325513531666256 0.23918549473106762 -0.7657160023796579 -1.2427635760007527 0.09713431206306707 -0.48634506416321793 0.5091055676880658 1.0359890632614015 1.0156115345360839 1.0377804186582547 1.2126659478858988 1.1693091448917972 -1.3098722946127306 -0.38811874957801257 -1.1401741966940844 -1.0204234237169854 1.3288877787698226 -0.7309543714706584 0.8860741932240306 -0.47567117600748565 1.0610987999417743 -0.39265021801960676 0.10870986987726204 0.7196418536576805 0.665805724342087 0.08311990037036503 0.2315422651588972 0.9835657574531763 1.259763137602206 -0.7499144363193117 1.3045415815504944 0.11273013723206113 -0.8487815911473705 -0.08644728550146959 -1.0904671208692676 -0.23783886921040476 -0.9939731435317771 -1.1913949355893543 0.5054375889805689 0.555646588938015 0.7483121968668478 0.22239126891358488 1.2894001175295462 0.4499181028075959 0.9100430284549746 -0.3050577490267255 0.6380020925390056 -1.2506525045517212 -0.5563339399146373 1.427171657129319 -0.6827877431645969 -1.027373417760388 -1.3676068609031038 -0.011999084028456553 0.8869874873470631 0.12826647874933594 -0.30940481817991783 1.0734132114755268 -1.1315488871471489 -1.3432926095852322 -0.47386984064905807 1.3512672872470746 0.7025730653796902 -1.15099295159831 -1.2144452622014295 -0.20479689248564079 0.29164831339611746 1.4940608149360595 -0.7005363156211083 0.1672583860403146 0.2825920309658732 -1.2764225730870946 -0.5097777563509864 -1.3725570913890794 -0.48385867885251144 -0.27581037040157225 1.1244927925637773 -0.8163555180697549 0.4548204908592297 0.378990800610958 -0.3246553330968044 -1.1210726399199316 -0.6563243324658015 -0.9604657763160552 -1.1066651670938314 1.4421356810427193 
-0.8173702217305789 -0.23134712783771383 -0.30609879801893825 1.4795528002844887 0.5901001954638863 1.135142282393445 0.5273850296821395 1.087858030063613 1.0171772749782373 -0.30850465110164454 -1.0886602764599964 0.5660917421066282 -0.5358696257565418 -0.42527092260070287 -0.9798957475311034 -0.35319255363676766 -0.7808222544344124 0.049242729249387884 0.1577516154973145 -0.10352163378835805 -1.2829983170931947 -1.0843173463473261 0.9334056962135231 1.0885062345294203 -0.5225989832976096 -0.20957711485196087 0.8438181485695251 -0.10948200245362846 0.5933200625495919 -1.2143860932130706 0.9644561665052738 1.028655085163545 -1.3099057681047581 -1.131168073439826 -0.26845273026000627 0.8020594425121076 -0.8749225658340277 -0.7060060443606193 -1.0231338015524087 -0.8116490760634545 0.47878020814361516 -1.1044584904889247 0.2105761370290364 1.2991713652136838 -1.1299421362836823 0.8245435696729114 -0.06984340844094197 -1.1069791875043193 1.1809768796251516 0.9543155015697067 0.9470063058732675 0.2653123206623716 0.6960088558458329 -0.7051753399256028 -0.8508336251448257 -0.3864048483829246 -0.7704041898432124 0.849178279330349 -1.3129292325281208 0.6624751493397913 1.344735382856116 -0.4774834463453856 0.048672293361262456 -1.21290547108282 -0.9917989379827509 0.06238683242216688 1.3596561787722778 0.8203546817331545 0.0646839454969398 0.7449113646036555 1.392620541858848 -1.1548965072005477 0.7036496674310342 0.7373769865647669 -0.10855836476404737 0.5254153885361259 0.3394667704899372 0.0873719284576325 0.6660556970008059 0.879026437643415 -0.25539455078910356 -1.3194254620206793 0.1490308625435327 -0.3954790852119243 1.4090859271960117 -0.789863323123749 -0.2636108533871808 0.367853448922155 1.061130789624195 1.3668587914637396 -0.6836802976266566 0.1733177845237884 -0.6119078937649846 1.312504340717558 0.4528062600801014 1.0609062433434342 0.6715938148874387 -0.8755308449499672 0.26640152809334916 0.20268503831133194 
0.08777801920258572 0.48212494713734433 -0.2257192870635836 0.8020190224209144 -0.8687187464950875 -0.8972271309126824 0.7269576136675218 0.8715329520184111 -1.2600765968171679 -0.07102759083705887 -0.27897131861367497 -0.0682427007194492 0.10358901053311045 0.8659680788594524 -1.216447061824333 1.1388937796740457 -0.7941317581322548 -0.29729315415373636 -1.2035783165473568 -0.26027687012250483 0.47608588002718744 0.43130071579147367 0.3196882957020377 0.7999725286296637 -0.5077186743694286 0.7207528692387014 -0.5112194617764595 0.6288741364587551 -1.0980708993434842 -0.6817283549460138 -0.11842888819397925 -0.8131994479408065 -0.09732796425460964 0.3143021490722712 -0.2745500085266625 -0.6178435681108834 0.21218848463510923 -1.1259409776639249 0.24910462307717318 -0.47690283549043083 0.3786498387598628 0.823054853779385 -0.9982349734831595 -0.32126802334922205 -0.3550017141282102 -0.22093377563648278 0.9966432936342368 -0.38613183466549994 0.6247923161847444 -1.3710307191910236 -0.07304199615852296 0.5464014941813548 0.4088806457830482 0.7167309104521093 -0.6052605644999907 0.7230572968580292 0.8541481846032379 0.7145385478174135 -1.1550175961412825 -0.5314053836768365 -0.8634996980810512 -0.2942873722208985 -1.3912397694024594 -1.2339593938424311 0.06280625106524701 -1.0353619446984141 -1.449537957437601 0.3849641988101352 0.4394621425233014 -0.9806961199378624 1.1733402762169223 0.6020516565297575 0.2541015907737523 1.326559682597542 -0.6163832644696184 -1.1689598652377087 -0.5604037338172321 1.3660722191946382 0.18433229916567007 0.759250498552662 0.08725465438486804 0.7769362768662754 0.00473400799957512 -1.2046937809008464 0.8617741344354579 -0.5643670987163389 1.263278412970571 -1.135472010649071 0.033693878685584475 0.873463539883141 -0.9900222258777696 -0.6793807057477269 0.3580292111668418 -1.1397052210819452 -1.1840383056906156 0.761180145123197 0.4520724793010342 1.0266629834097158 -0.14650777448627256 0.4083920724790523 
1.0506628054101668 0.45740896685865573 -0.9463270882446564 0.9732510590793118 -1.03974729769348 -1.1026890782431835 -0.27954142488938544 -1.461423362792413 1.3656572920183967 1.1697001614936182 -1.0554683515373244 -0.9740399609610522 -0.7315660620940367 -1.3201801073798343 -0.21131122715878398 1.1175466329441688 -1.38352074970098 1.170009117759058 0.6176508960881354 0.9717557282480936 0.7497948198551235 -0.04832328820657614 0.3440565988632595 -0.9731219398793262 0.03108627356982015 -0.15817460825924232 -1.295239738826226 -0.34431689638453244 0.522885953320361 -0.47057672560145314 -0.8817847297348707 0.2615807565028306 0.4315138922297459 -0.2907581566479892 0.3664885592157839 0.9904032485043313 -0.6572958453898413 0.47925753136991733 -1.1248275653208298E-4 -1.4268625865396012 -0.02138545665460032 -0.26906791848440903 -0.3986134736080048 1.2555481510500985 0.14730986027846238 -0.9495276890313057 0.28570686848125254 0.6626874590536338 -0.5018168855426121 1.2116818847766297 -0.5468301646960221 -1.0070314751090437 0.6293188391635024 -0.6028788185613704 -1.3188780910182638 -1.3447049550122558 0.019475997856595654 0.31268029647056084 -0.3484800471355677 -0.9182450039310115 0.28393547643527023 1.4654205670420026 -0.09152939078781724 0.8492815902832397 -0.6072802631884664 1.2151936900016145 -0.4201059348167066 1.113113988316952 1.0006989130824508 0.8307821073688 -1.253096430793903 0.42329210455208527 -0.7697318664139682 0.9853221852885538 -1.2698944123224642 0.1822439670189032 -1.0362572627902875 -0.9436412668176722 -0.1564519773486351 -0.7285131927668597 -1.4625874526298717 -0.09395575771787465 0.8179818227587574 -0.44510851544647173 -0.6894974608678168 -1.4689381233136802 0.21313093796234528 1.151783193307539 0.9906103244129191 -1.0314162667661064 -0.4014559732122241 -0.8999217826636364 -0.898846621006318 -0.2750883248175067 0.8272824939227527 -0.019077080677150953 1.147054324236663 0.5105971051058154 -1.2800641746699835 -1.0534771474449194 
1.4555890060856662 0.5982927826874828 0.6376055859191283 -1.179104693134857 -0.15689488195333498 -0.7032935361909742 0.135293516938922 -0.49381970710299106 -1.1892828279432495 -0.5444166529225932 1.0711594184880004 -0.06321452161531259 -0.1907980250542851 -0.3322277691004142 0.3860795948686627 -0.8893713429333442 -1.3757564596096046 -0.41283535077294425 0.4028007267376398 0.15326967193695967 0.6791497263512037 -0.6831987627063882 -0.9039278204924494 -0.7363525068443819 1.1010851931654912 0.28619458903654954 1.355735768644839 -1.0842253092993033 -0.007255888255494095 1.010952965846106 0.919933682849931 -0.6278138718898577 1.0233729197641153 1.1887240435348427 0.5589212898871367 1.204940836005755 -0.5669958222328493 0.26554147576743475 -1.0240384090424979 0.7950037388845856 -1.0281193686486694 0.217406571195594 0.33187220653226523 0.18977391334066865 0.9594210502936508 -0.3497039758426928 -0.2092039423429027 -1.4320444365126324 0.3262076104110339 1.2798258491034948 0.2869224923400297 1.0711646783030502 -0.8928970732390024 -0.5821293421011644 -1.1302286129017738 -0.5496457399676072 0.5603084991706724 -1.4442952335888546 -0.8384020617501077 0.5700630306360737 0.7817168014521383 -1.2467593032234692 -1.4104300117998585 1.15482277062494 -0.43620113471961547 0.30475681350986394 -1.3556282555226644 0.05821439850554796 -0.5137947689623331 0.2716760109068434 -0.8676896626597109 0.2984543512527498 0.11133002066897585 0.13810210540520468 -0.7626598574565704 1.3217751888688247 -0.38408041120978387 0.23094481614151252 -0.31301200739529655 1.157508461399133 -1.2716513556593465 -0.6361357542325013 -0.8051887431176096 1.29249795538164 1.1530817952222467 0.27923981961475985 -1.3190311348156085 1.2480503726646248 0.7761773250724281 -0.9910313237982853 0.46004507882004864 -0.48602895735820845 0.18641989803726333 0.5583213896671502 1.3420976397114284 -0.5343242525585443 -0.07945940649362684 0.33963061794829735 0.8082475478145257 -0.3347796046684466 
0.9862216691676708 -0.23124227938718991 -1.2004798807989396 1.1924503153507604 1.115184601392902 0.08813541580075882 -1.4061835065419093 0.1757263814385832 0.4608594413253912 -0.6314196170514049 -0.36005561293772353 -1.3676625224424541 1.0094080544089055 -0.13510614285321723 0.28835325400979184 1.0492588035761694 -0.795920807853803 0.11701428151139706 -0.8029387612239399 1.4710583684810485 0.7985972659911295 -0.8035711993263297 1.0247342585637578 -0.24373278812180899 -1.4262157202549224 1.4322095499157694 -1.19658373265352 1.1489059798933454 0.07806303954067793 -0.6185797571689656 -0.735435132646265 -1.0408117162931703 0.7644377632965562 -0.6245171402421941 0.5053044263996204 -0.23690286344157035 -0.3140967959480478 1.0502402457320001 -0.5028236410402841 -0.23335208479383454 -0.9646609411529236 1.4415541691302949 -1.4124793959809085 0.36453321934735616 0.1934032262284615 -0.026352556532011184 -1.1337910279464145 -0.24220249420053264 1.35619989349198 1.140474846579008 -0.7264235432520681 0.9740320655517776 1.1207897500350872 -1.300230010309653 0.7236962849680372 0.2946469108361681 0.8601618882561997 1.1234057581702204 -1.112179350275482 -1.3531552477919033 1.0964352951577632 1.1731505190486724 -1.3352876453039926 -1.1452369797298438 0.7133790457138836 -0.3714785844691662 1.1189693278962187 -0.5398776509966116 -0.21763659615117345 -0.13010352264220043 -1.3336204793368394 -0.18501712554711497 -0.6046430289451685 0.0818631673539223 -0.6976684965238634 0.2868482320851805 0.06407997420922697 -0.25323287587105975 1.3936429963113928 -0.38673619167428774 0.5139790219471144 -0.6665136130363087 -0.3634971367319536 -0.4340232894036119 0.7165030324038382 -0.2588086085676235 1.345270166768916 -0.7837849687172398 -0.1464870603517015 0.993809771321827 1.1283073095545832 -1.2846300163051696 0.8473309432496138 -1.5077005928526157 0.9934809602269653 1.4821750731955674 -0.3028823570935448 -1.4021973141350677 0.3545205145249697 1.3761093912921365 
-1.278579928907375 0.7741681963598163 0.008601556792733181 -0.29082762807404994 -0.5769300798523925 0.6464978721774649 1.3080338427731846 1.402805553816286 -1.3299272820799475 -0.31664823272418235 0.3606313193240724 0.5043282275080141 1.170937328980943 -1.100030845029809 1.392347756966844 0.6042558740940187 1.1604633659894354 -0.3264126282259182 1.4453281991377436 -1.0587564252703205 -0.5462423144957107 1.2320490578294816 0.6564218389614318 0.9298330200509431 0.3568062064034648 -0.22732045410162546 0.3465209836089009 1.1766963419642942 1.1760962774415087 -0.8934906070937725 1.2576291867573959 -1.191710672724093 -1.0044223743375331 0.6797580047589157 -0.3957230465970358 -0.590432156173654 0.8920407218783201 1.4631032914133961 0.9397231223234532 -0.8737310318576276 -0.38268712791282855 -1.218094520284465 0.71259513192163 -1.1707582608981801 -1.1443822134332875 0.3797451816896771 -0.6992731618564925 1.036989192958094 -0.7027550362162366 -1.0254874951267297 -1.4105088306445166 -0.2529547914201995 -0.18941535327569628 -0.9700322481677321 -1.2920844678061028 0.949287963361826 -0.8723873263822313 -1.1181325601981658 -0.8244456718607146 0.12116358333673614 0.6111154393741165 -1.0837569734460148 -0.6879083073089903 -0.6840949430425028 -0.04958892394684492 -0.8339697536739727 -1.316445637533219 1.2178611864584181 -0.6295109057362649 -0.18936154442798556 0.6538518183047759 -1.466397738206217 0.1896560077544404 -0.40760651868741693 -0.7185938527830362 -0.844229481955572 -0.48451519450167024 -1.4339459810862247 -0.22688112064795785 0.7418843479681803 -1.188085531815621 1.2459377222001466 1.0078785797001624 0.40540630613564477 0.8310096399209886 -0.5817351341522515 -0.5887434529617008 0.3388432407443493 -0.04380586776787952 0.2050729194590434 -1.4130636330240847 0.7811388585005666 0.6679727300232707 -0.6847277883457251 -0.6944655431961769 -0.3324177744221944 -0.8281820859642588 0.3091189847090635 -0.8992586341295984 -0.02069310926010856 
-1.2039667882959562 -1.3499360466769794 -1.449228112113424 -0.9546770292467158 1.1280480473022416 -1.0885230885237691 0.6695513596695514 -0.5492895707673472 0.4913937248013546 -0.696614287507371 0.6998072774367836 0.13735905572448273 1.4751790189916492 -1.1112621171225203 1.0747946629258416 -0.5082178196517162 0.7679761181917775 -0.03299750872170978 0.6161934446641617 -0.4661549196863989 -0.40988564837617636 -0.917391523268697 1.2906437534856918 -0.8706337681036642 0.02916852840138832 -0.032305846337900346 0.07261544223502084 0.5518522431107175 0.5732585202879283 0.1174304208156247 -0.2117618952747884 1.359652342524191 -0.23163885143668592 -0.8436421869060448 -0.662600744864742 1.0457816487669103 -0.828844506676947 0.23633010743816316 1.283649373504344 1.139114810256668 -0.7226264417270355 0.7606003681181349 -1.1511654846408208 -1.27319746570374 -0.9407145938480487 1.4264471493504103 0.5482496134065302 0.1550636872375431 1.3580168644354356 0.002826644130791661 1.0919293266800232 0.07886782158037876 1.3662594263323509 -0.7922770234836676 0.0716023117978603 -0.3717510359013075 1.1852771987124842 -0.08963228213976705 0.7139910357281076 0.9397851721345843 -0.7303526440645072 -1.0579678604692775 -0.16756415205774483 -1.378609066548253 0.6785795235439558 -0.09675206269118534 -0.729303853987135 1.3783024062537164 1.4053159220415123 -0.025938082195206123 0.6006898782349327 -0.9282676709736479 0.11076128993499817 -0.2974423756049203 1.2675044466545897 0.4767125650704915 -0.8007227958707672 -1.3536783693951586 0.5385389315250385 1.1611923257655636 -1.1411500911286436 -1.173168258562615 -0.8426748192218239 -1.0154267933255974 1.180985005221794 0.6697590610250579 0.5554853640968991 0.7674260465210945 0.7186539000113563 -0.15547160430457208 -1.1414843815969093 -0.7640608014634929 0.25597173883158086 -0.7256430185601579 -0.6922301262042045 1.2928816295400778 -0.42156424884568383 -0.07783546458067081 -1.4018387150025904 1.2549157397390756 
1.352093118581783 1.3914772377802171 -1.3206980171115854 -1.070961306927356 0.22264072507381089 1.4070090630341954 1.1308395960893798 -1.23366631584158 0.819136731877445 -0.384176800645965 1.3028111348795433 0.23537473396095665 -0.23818083691201594 0.6054230710954782 1.1277639741754784 -1.2393275774064594 -1.4507948062676437 0.8846267880756722 -1.005264490087497 -0.24227946013147875 1.4329190138000105 -1.188440521350673 -1.4165472135606727 1.2202876349356915 -1.3220592565949614 -1.1700643855815294 0.9890238313943307 -1.4052020997623702 -0.2656400051659652 -0.6460771344571522 -0.017154307040468587 0.2690548810824124 0.6635408974569449 -0.6548172880856413 0.07453266555169795 -0.44093660926505385 0.8233502867315445 0.32912847730644357 -0.2534495484579409 1.1529707263012183 0.37482810258678545 0.17332131441027399 -0.38510533709031247 1.319491474604261 1.208029656710052 -1.0838800606845422 0.5234734903101027 -0.10355629717495568 -0.792655676263478 -0.9764718607032459 0.44358326508939633 0.4760393702359673 1.4573931996429574 0.769924551710584 0.8610028103567088 -1.2428872346408588 0.09962405577162038 -1.2711572747196487 0.5389366895239962 -1.4782769569695826 0.9686724650907713 1.0803743281698872 -1.452676241151039 -0.13041420846059842 -1.2106086935979286 -1.2748114844332576 0.7544974771936318 0.1883738842803544 0.999200824256626 0.5423382589394253 -1.1945674064668415 1.08496761802909 -1.0921505747562075 -0.579749420507972 -0.8672626413899328 -1.3303936164253092 -0.7593993817881367 1.1052945825629663 0.006931108201564744 0.6267031400899364 0.6363203393294967 1.464086153970049 1.3537942016242892 -1.4528932787599407 -1.3128254119483052 0.921445095704876 1.2703961889740476 0.05206417028203647 -0.7430080916597731 1.064638184135917 -1.2601772408285232 -1.2875953495841999 0.8027905091688486 0.736277524582176 -0.3257721459015886 -1.234387771800267 1.2822315066817103 0.6956533824568645 -0.4869531899380773 -0.9380821748625622 
1.1849518146479103 0.9023709830430748 -0.1777931901236395 1.0014068379484757 0.7717147273884266 -1.1474847407012407 0.21820352732731108 0.5292356586409548 0.7850366223035156 -0.47576963638990244 1.1459917392726702 -0.004669914110843798 -0.9124377141423886 0.8705066360015469 -0.008688700482320936 0.06291789044381693 -0.6907809459353449 -0.1992561123356076 -0.21437235952929978 1.0408094589828807 -1.3518812911545242 0.7467118864085546 -0.6318369076598273 0.10899323423926705 -0.7926402530116169 -0.9424194700505278 -1.3019834827324392 1.0585455511313884 -1.1867667207577657 -1.4188258526728703 1.3603774147978045 -0.8621045832388421 1.2455013426155372 -1.0420333148829521 1.0553544338412026 0.3818465101586523 1.038458083711256 -0.7495204803358336 -0.12047285271485085 -0.4073062547301648 0.3155620529236366 0.23850619816135304 0.7527002581623342 -1.1718668043869027 1.11676607002774 0.988057410506419 -1.3874526270019258 -1.049703662016836 -0.12128347644552297 -0.05208803089219487 -0.10729577348492167 -0.9136768605620976 1.1137975244752383 -0.7079857098780633 -1.3320393473199292 0.36783304642822456 1.3358769307415768 -0.932810519660914 0.04420844279186971 1.0699228416918145 0.9809169013566995 -1.280434954018938 0.5362114244878443 -0.6535594450522823 -0.10218620894960717 -1.2914986448097803 1.384485392275528 -0.2839484978013264 0.9802154179713988 1.3347237123195592 1.1409963721182055 1.4773111408682953 -0.6135445636670951 -1.1922986472405324 0.25201012924222094 -1.4494446300841246 1.0169736555015514 0.20414129530272102 0.37192476097250965 0.10888076212429015 0.288584620872515 0.5899047274283865 -0.8340059614997326 -1.2591908003346641 -0.25544683881892466 1.4691272600819767 -0.06382619124285183 -0.031804540842261926 -0.2730183404028438 -0.7114349897682098 1.4313242748210686 -1.0768532365770815 -1.0369701235213897 -0.3419566738923575 0.2642626460557367 -1.3507550780336743 0.23113334258070542 0.957055406767023 -1.318795882815648 -1.159194312477749 
-0.08146768928484831 1.146088949675495 -0.849185023620054 -0.4961742910232089 -0.16742898424737898 1.2897003044231423 0.3081229786404054 0.5786387899160962 0.6326388178926328 0.011339188099778533 1.0496870222877277 -1.454822083208428 -0.7228725233502421 -1.0957684653583883 -1.3492716665756996 0.2729497316575376 -1.1267042464667776 0.4235880492379988 1.3450054533144864 0.005257201047687354 -0.6393540993755763 1.3746220727562823 -0.2663304189968111 -1.2509913186578288 0.664299403214086 -0.16896267754629302 0.4933893463077444 0.9167753207121796 1.258459467076673 0.47844361691223664 1.177230561670929 -0.7473068844253008 -0.31819004615196567 1.179279652705164 1.3692268371865515 1.4698024407080512 0.6316908348006853 -0.9565505418246018 0.031434221893655315 0.5025519881396269 0.6987609365963475 -1.077429903608788 -0.6331022010096722 0.8871740388667348 0.6421762050996638 1.0680538736986867 1.0084770242170846 0.6137149893847641 -0.3732884645791607 -0.24925753314945082 0.02378389548136013 0.9497735363736838 -1.2008266636002858 1.3533959860408689 0.42397470452683483 -0.7694296567350938 1.0134055311371521 -1.2645413539597776 0.8437626651507232 -0.5032516024313155 -0.8014299763488234 -0.9074764704939892 0.4431094630737329 1.3409231607402425 -1.2626273121030287 1.3645048716583563 0.27236838938109775 0.3690141724345483 -1.1543738612210215 -0.09665747696876024 -0.8691173842611798 1.2761848059572514 0.09120950461455231 -0.4692981484628479 -0.6560341442648556 -0.04471123704217305 -0.5029549452366046 1.018522581434679 0.3943062576179897 1.3066247334222332 1.3280234958454336 0.3018921218284382 -0.4123029758318881 -1.0493049822756573 1.427566479178613 -0.565824471936998 1.0947522805356382 -0.9493569891794206 0.5362841470683741 0.6843087456900899 -1.0745793727000121 1.4950168854511838 -1.356651558068576 1.0002191557261377 -0.8952642250494571 -1.1025814767643978 1.0078383171571337 -0.3882835682705682 0.7111774561590785 -0.5943728461406508 
-0.028463295214343293 1.1296737888581942 0.8796666464606135 -0.2805526435506956 1.4578874318561215 0.48997735030030387 0.7579795455860331 0.8754152058867618 0.39485740239099437 -0.8547021079321856 0.15017747746860846 -0.6404702551367362 0.6782548450949825 -0.3244130147563579 0.49450832932812483 1.1845672138026584 0.9959745984215196 1.30145223280621 -0.7403270973233039 0.4703998409691196 0.917977626987412 -0.6249212710381462 1.130770517385883 -1.4253754330520494 0.07347092875407585 0.8076410285099813 0.5975755259526724 -1.1420269127845404 -1.0832944853758186 -0.7631239145631562 0.25435229179150254 -0.93921247324028 -1.0562516566827322 -1.2761575185106762 -1.4860492769996254 0.997110956653614 -0.47989638531695267 0.006847217817925319 0.5773825491510787 -0.027724427806917022 -0.4443813111448435 0.41058697561825047 1.0935596096519473 -0.5483822755707093 0.8205470127376674 1.5035625003214454 0.1597986784500556 -0.8533775180135649 0.6102499084534355 -0.4673359909241989 1.4352466870545653 -1.0595798074388905 -1.318593039897955 0.4735111504794186 0.994515993200048 -0.42241437879311566 0.7214061736123966 0.8405128982948809 -1.016563573706336 -0.47913676330657956 -0.8298711353693633 -0.7466183862262689 0.13509743627263276 0.012751030535935848 1.4947105976407022 0.5426036469816229 0.7619585900455683 1.085216800315181 0.5967740967861753 0.7651397154270432 -0.08573921058843388 0.692593141937872 -0.19314595597308445 -1.4307447232811452 -0.18106111387465842 0.2340897734835524 -0.9726910945646825 1.419854504840834 -0.20102104688615322 1.0959655196347986 -0.3386734664284361 0.45038139194574983 -0.3894520922145184 0.09203559159856979 -0.2189309443274736 -0.3432525099224114 0.7669909036467658 -0.8202350002450746 -1.3805762326015232 1.092386731539825 0.3528730827314889 -0.40952183654385327 1.3685628679954194 -0.12190817732008895 -1.0507665805972137 0.3908933652913679 0.6278084263867253 1.1538927212009442 1.2085806332847366 -0.6042574195636817 
0.1397848025063589 -0.6748895546722423 -0.12791786373387667 -0.18837963705664496 -1.3939437868846745 -0.279327878587744 -0.7649835981146812 -0.851919249205254 -1.481037785349329 0.9732486652140194 0.09919421804426795 0.8298284920594236 -0.5776003609033176 1.0255540056557804 -0.4233996313212692 1.4760045973023306 -0.3159803029914198 0.06971296958824331 0.1050738233104828 -0.2812715985810011 0.5064759044273454 0.07940117213395345 -0.48444857623960413 -1.191400179620745 1.0011860942968305 0.7755526068487417 -0.6952977117460524 0.22902495935449646 -0.868127974874027 -0.5576662112425803 -0.398937812129134 0.9675799475055374 0.7402362880117029 -0.36501122615913306 -0.8821149811412871 -1.3563582879900857 0.9729329504322077 -0.6959970021437745 -0.2522957123255593 1.0786251672598013 0.4414763912211012 0.9678007899618539 0.4630017324240449 -0.9762610025579256 0.2910362683928782 -0.7770783396176567 -0.9855495775767752 -0.6697875737078576 -0.18602149600960266 0.9522108140045547 1.17381330464646 0.11318900762881423 1.076323758880109 0.6214359751597184 -0.6619287514075458 -0.0198388256777444 -0.24169926545451095 -1.2500014521454503 -0.24425616483880974 0.3827752745400121 -0.2070671665545072 -0.9282835338214437 -0.2332458810006142 0.32368067866044314 0.24543943966520318 0.2999601111791742 0.25379141430272334 0.2086178252989985 0.14645473203140283 0.9569819113014106 -0.5954458319082404 0.9244248503562499 1.256191569302637 -1.1432328351542578 -0.7331767809512378 1.15527706814771 -0.09922902949354132 -0.7340140641082638 -0.6959105620491509 -1.1095968554278257 0.956443514784502 -1.1208310656068416 -0.93803007549778 0.7346829069867691 1.042852658259179 1.031048730409635 1.2390194249903568 -1.4940621972613553 1.1375690991471483 -0.3885742460934238 0.04055696894939671 -0.708282383559478 -0.5679563492456186 0.3645020537106696 -0.7086712894078311 0.22348283020067217 -0.6484296840941998 0.773902748917884 -0.8144675161416036 0.6160942101913072 
0.9766801668124825 0.7781500075556178 0.5941698757861136 -0.40918346216111334 -0.7643642287971897 -1.2715983595320521 0.4733541291793882 1.0467013887760288 1.1213242255148177 -0.25492298860847207 0.16503832160474413 1.4017490868063978 0.2781382515082729 -1.438834826190458 0.09273518928141992 -0.05135545592220299 -0.3437932438783048 -1.0539632071962928 -0.9474352735593531 1.2308660125267312 0.6729315405413376 -0.5081975062878059 0.7768366946508061 -0.5044899617844878 1.4482650894042766 -0.4629013187944436 1.0719452718480702 0.44039208805719443 0.19334485815717806 -0.9672203380792301 -0.6085034374518238 -0.12417699243769541 -0.9148624338029763 -0.8793561513307253 0.615373328993495 -0.10442106937673748 -1.1690609082328924 1.0914046997773956 0.6220524559614284 1.238931481769907 -0.569077717983064 0.19579262084340285 0.8690387976636309 1.0259061375805918 1.1368348217111013 0.716176537964903 -1.1293796125641982 0.48255397838755865 -0.3623914299086561 -0.9734372665937354 0.820772055426505 -0.408088376609029 -1.2655855781319858 0.8844549350683115 0.7707328461853822 -0.021295690188408035 -0.39865919240204306 -0.1714979349725303 1.3559482150491622 -0.5153827322347289 0.16603940506033862 -0.6373008092861192 -0.19010815704941098 0.6421820294635664 -0.2462913897548936 1.0965160292669511 0.015857936688841605 0.43289682161096016 0.8269971809257589 -0.6188323961009772 -0.12356945672182322 1.2777393198684943 1.411733044603249 -0.28494640192396525 -0.5345774237198687 0.4877165954132238 -0.4164607121648003 -0.5946911858652878 1.0613449894908313 1.358356047749535 0.9972195025826278 0.4523618110253332 0.3607259724318087 1.4517122223609202 1.0852236104001072 -1.244900481837024 -1.4525362216682627 0.8724501545505522 0.8157538070630579 0.42432344955082846 -0.1938560003113773 0.07661243418387159 1.4042351085154154 -0.5520841449124344 1.4772985172168327 -0.4896340698563552 -1.3425412668485848 -0.03282599240820001 -0.07154694323599467 -1.246444680740321 
-0.7157366078680061 1.2250263612932712 -0.8467897200223851 1.4208432571143195 -1.2054082585121215 -0.9562339301702811 1.3637172909352093 0.3490159652507899 -1.1888858771122768 1.3779418065616111 -0.9820557285882401 -0.10861381477016885 -1.3051627219196869 0.003447800123005784 0.4655689599561051 0.4427585597666924 -0.1776861422731565 0.9162652845966683 0.0446143397770126 0.7352286393890229 1.472410144951435 0.04535294161614024 1.247037527186446 0.37727620344431473 -0.17374650047875487 -0.2486666282418887 0.09152322366487356 -0.36139115438228275 -0.8358736848702338 0.04623178415229404 0.3095136233520533 -1.3303883264927796 -0.12936247488667277 -0.49657576626533984 1.0853110922466442 1.2917504484371534 0.32753002396867076 0.8496557520563931 -0.6006067792429625 1.1064578007735817 0.07221804860351168 0.8892013957705416 -1.0767906134951715 0.11873271413455871 1.4582712059765768 -0.9188553442058162 0.9601888186027149 -0.14347604810480644 -0.16646376815494093 0.7622444542522617 0.4840786776475709 -0.47633479438446497 0.058798946567936834 -0.5967974747939071 -0.10978689714066713 1.068717726863854 -0.6321646431967053 1.063538239261355 -0.061195745053354525 0.08701924526561224 0.5371357425748541 -1.2717439803307984 -1.2056430496499428 0.12573445261159502 0.7172442888752016 1.0650223437769626 -0.30934236647743235 -0.5993685390115151 1.057141942105036 1.1576060732371072 1.359780267479607 0.16883057205542834 0.5945298094313842 0.5113238287376877 1.0025844989649062 1.2349898171717453 -1.4033536075987028 -0.7054586407070014 -0.5775845293635322 1.3438843184967217 0.9045320087451557 -1.1068441626349912 -0.10359704484813972 0.11746262367940534 -1.4718693288241833 -0.019846996447571846 0.915697007969089 0.7709818882796503 -0.9233363999647899 0.2844585586968049 -0.9934698466421361 1.1281334520828281 -1.151658861275729 -1.2710201433464128 -0.6974546978299674 -1.2119081087605512 0.0628714458881004 -0.6688725677724364 0.52681493427846 -0.8672558708893234 
-1.4271443243177355 -0.012425496167371906 0.022124682507528037 1.3150703851185404 1.0912682473415916 -0.5575854545544949 1.1577879219684717 -1.448312427148426 0.9977137047144679 -0.9912739889764948 -1.175176365842922 0.7647681163275458 -0.7673946896930344 -1.1724058926493461 1.237098945125819 -1.5892888281343094 -1.3772688260792645 -0.6043337855736957 0.025973264252237775 -0.9735717410965279 0.3382752140156654 -1.4080669579452298 -1.3403493164241138 1.0721233586193162 0.6423515402139488 0.7592914034086974 0.5877321396767674 -1.3461688621098569 -0.5611348445551215 1.4382604287601872 -0.043391192366732716 0.6202569143380781 -1.1196376575876306 0.6105299615021671 -0.8655102072358273 1.0390939035300655 -0.8106642894877663 1.0414048118471948 -0.19877575184226898 0.3395872642726526 0.08300416306023306 -0.6025788006550659 0.557466981342416 -0.8025359958282869 0.10117983809057729 -0.2330248985678585 0.4597478063497902 0.9838777860066223 -1.1910926902615395 0.5814911140027329 0.37486856816499925 -1.0166132500166383 1.470136004704065 -1.0255392454051158 -1.1533878567959375 0.19155764619799429 1.3730079842419887 -0.7394633810129057 0.09251637201871314 0.991676016995736 1.1705226998744207 -0.5169476372412473 0.9569150386565847 -0.42807195587029506 1.0777044572524395 0.4683089892954102 -0.39380198331346733 -0.16870055348385216 0.9284545763407076 -0.5832540092535932 -1.4081115117726373 0.5161723174164944 -0.9906765673864777 -0.5424172523761551 -1.308377771913962 0.16474168140871617 1.0172315528438505 -0.33965481738214487 1.1843401782584695 1.231907405291046 0.8407682852929649 -0.6458702533726428 0.011548616163276515 -0.33762485782648954 -0.1434734352412594 0.009959289087794419 0.6345262202241555 -1.3273497075670266 0.3222070981886348 0.39676254820199575 -0.9332151458702341 0.4265599703215982 0.7432447150535705 -1.0643324992338241 -0.32441569534466524 1.3402263755561994 -0.21642061619503256 0.9849588892682211 0.4127513526037609 -1.1856444048661106 
-1.209338895932959 0.32148085939314347 -0.7756800866763711 -0.1695883056179987 -0.325318324329538 0.5547089845311376 -1.4070974162412275 1.2736658081003174 -0.709074538023857 -1.1131822499641666 0.3231605735240181 -0.6934219454181461 -0.1519526594283246 -1.342231057422351 0.9892697245223103 0.8773369148151943 0.6623638414388522 -0.9878969901621205 -0.2479255330887 -0.41635687070302374 -1.1162742901468434 -1.4766960049496503 -0.7743629479336219 -0.5885736236991056 0.9976692740631125 0.6160382365083166 0.004812922211705157 0.38130094300637446 0.31709836496581073 -0.040026617299497344 0.9148508308476518 0.4249114439856751 -1.0462618182456966 0.646838958064401 -1.4530565455512023 0.8717883177842759 -0.4693538331600328 0.15550092337900193 0.5468500711127058 -1.2522671702068913 0.013571231818519805 -1.4368770184442565 1.0425420567873418 0.6391580848922473 0.1571881507714863 0.059023444131853064 1.398190336573247 -0.8609433158277596 -0.8429770719571034 -1.1663284690994826 -0.5069290903503127 -0.9606895560124566 -1.0194121255880217 -1.3902484422305417 -0.21837229286380377 -0.02678989866606762 0.015216922225715664 0.5162693512595211 1.3246904541551128 -1.0970311600582423 -1.0964576097826306 0.08349380315680155 0.6126997490085322 0.8720728393744945 0.27302448545995245 1.5097722918566447 0.6147821070001963 1.2048971513934568 0.9869262222579697 0.6538107021538635 -1.1444880669616457 -1.0413872507000839 -0.4404093948012138 -0.3207667931988403 0.02438261301640412 0.9163822119057984 -0.6576351560869839 -1.2160052114299214 0.0071902996217983635 0.34938539254057577 0.07746471178332658 -0.02100182098708413 0.05640142783654159 -0.6487465359372919 -0.5210174371358108 -0.12125588076577679 -0.6593685886735778 1.3513546001540133 0.5684170443845361 0.20842968603908635 -0.35489205041999167 -0.3865534111192891 -0.4796660056869072 -0.6262397245657226 -0.34043812785578587 1.0159934120363798 0.22816666682942996 1.2651321729867362 -1.3726971596959445 -1.5323985952206378 
0.8549563226318916 1.455302900869799 0.04949033418796446 0.19469591026993052 0.07881555792941654 0.30379165750756504 -0.919763209656036 1.4587854264503357 -0.9838033055927402 0.73365736038756 -1.1750356441559289 -0.294911432052242 1.6240111724846023 0.9716413948978484 0.7548964383768363 1.5184447522871285 -0.565527757922128 -0.5386943860683095 -0.1855062409780232 -0.4338768721492099 -0.3581905813695877 -0.5879423232834786 1.2630843970480758 -1.0467590357276024 1.4072902894946955 -1.4340444379414536 0.40919825876766713 0.42744204832832733 -1.2439941932535632 1.2616957969541134 0.17305981504019405 0.2831147702348823 -1.4869666688626293 0.7812227854262186 -0.5167029953066652 -0.5688933057220193 0.6712648765634177 -1.3784999687748267 -0.3731775765197302 1.456518540829376 1.2670721863432506 0.9053475951285287 0.11164232323383608 1.253602603911285 0.15765177025090715 0.0948857051584951 -0.09988681307117504 0.6723279752506172 -1.1640381209803863 1.0251789814954737 0.817398282087242 1.4863568014680373 -0.3803347501423514 1.3387578350165639 0.5503164312798924 -0.4375545855596051 -0.40867011785194163 -0.8208158443683485 0.16767893113103097 0.8954137240127792 -0.2605299144993787 0.395256921730411 -1.0264144912496445 0.6620818912049103 1.2840211500631802 0.8033267008144087 1.0184050120262793 0.22880538783746465 -1.268976650793611 0.9201885864132823 0.8418283529327536 0.2204351073041568 -1.3011420369616553 -1.2702091983225445 -1.4820479881720718 -0.42128827991457546 -1.3535950957970615 0.5932887914610915 1.4643050270459008 -0.6130815819332883 0.606973726792931 1.46726178076948 -0.3038861737438133 -1.3390175367444475 -1.0219231587013997 1.4697731866066779 -0.6751857518933664 -1.3136597402149763 0.8180844547499696 -0.1285085847732925 0.236743527992391 -1.2850173559041298 1.4502169332521069 -1.119590690260171 1.386922018780577 0.3114130660134827 1.0400510838989376 -0.9641639358582734 1.1141936668755474 -0.5919797731718534 
-0.0968581944575726 -0.5973254093191636 -1.094781968254258 -0.3348583059177352 1.3887425162783467 -0.03816436975204697 0.7363636150486589 0.8621173265675061 -0.0011485795439834475 -0.9617416788786006 -1.406786208521813 1.168230324619119 0.5789340316316188 -0.7686657454172379 -1.1590062728729527 1.1639926163580152 -0.9365068267447706 0.17933563818129544 0.03756651313821326 -0.7225189469885802 1.3057900397550932 -0.4832837636954796 0.5653002868641543 -1.0258520486852802 -0.6193963257358552 0.8377573430940384 -0.20813285685224717 0.05255573461753192 -0.13488339529678264 1.2687883934327133 0.9594101411190911 0.09534616284058209 0.7139336335655674 -0.6688457786166904 1.4392047604127551 -1.139279097623319 -1.498143708066921 -1.0740456063055472 0.9182431245287069 -0.15682239889422042 0.7478840651215224 0.8068587275654105 -0.379631141019993 0.2998674146324814 -0.40088250270571507 -0.32510553911870255 1.449528895463419 0.5072651565191292 -0.6732236882956689 -1.3113844703012756 -0.32328329976956094 0.01903189564697098 -1.3641956439705063 0.6712444505265305 0.62970566837242 0.14508761504762457 -0.7011886979339463 1.472894335991311 0.5736762013721305 1.1157722390348634 -0.26744231071300617 -0.7730523805677173 1.197278438225056 -0.9024402168649168 0.021854059003404612 1.3144381848009252 1.193259619277592 1.4902158385940363 -0.9700328011575298 0.7518353277545861 -1.301446478127174 -0.2011777415658896 -0.2931889799873134 0.7634278816597019 1.1411194652524557 -0.7938106167300522 -0.7480686153282973 0.7507981717041897 -0.7952905460157097 0.012327469215935478 -0.31657150657021343 1.0434106565242567 0.5790819986706744 -1.2987557460011243 0.8457494522276496 -0.4616601505595285 -0.6004570196800506 1.0237817891658587 0.8121306465147998 -0.14180147848915817 -1.11399157673887 0.15514791117673324 -0.577539289313492 -0.22366293928597752 0.44979633009936393 -1.3466660064491607 -0.14132276735614926 0.10914060521668865 1.1466883844871596 -0.5138322590481599 
0.5609524769680272 -0.09523780089998861 0.6701871805857872 -0.28962065997692665 1.366549710752223 1.2160172525889903 0.5796775879044961 -0.8314627521125778 -0.3780479628919291 0.5694322318545808 -0.26037401877913185 -0.7731646294675986 0.03442043674477366 0.5877602771481499 -1.3346893352368254 -1.0959254541843664 0.6531124103000215 -0.2056600906741259 0.03184190175865355 -1.3259500063068952 -0.7231041094252256 0.011037260897650562 -0.6506172320016916 0.40310070061088027 0.9873742746958762 -1.4895843261825121 0.5406190284526521 -0.7900975375950294 -1.0815608602581352 1.4415967710804545 -1.4226493003675507 0.5026137096022459 -1.0894075241749697 -0.44497166443699104 0.5143521984184937 0.656707658049109 -0.9549977955517847 -1.372281096995476 0.773119979927886 1.0702618337129404 -0.990084413234587 -0.937615949916648 0.6336867463476422 -1.4297493454103432 0.9884178404772267 0.7963544648057788 -0.7467980283218568 -0.3853643606349511 1.1572942746433708 0.7156304540902256 -0.6938262627200501 -0.15129049174090686 1.406487589442066 0.8644311909975184 1.0600413854333217 -1.3395850577321833 -0.9579581080805267 1.395560777779628 0.6150793293890162 -0.48043900349734486 0.5350895202053622 1.1950013379101232 -0.23820448646503573 0.28524825432709316 0.01603139394764784 1.2731524455454002 -0.20165308817023786 0.7403390307567037 0.8982444410315046 0.8273785516533225 -0.3440470905932911 0.9851402755615086 0.1294445528169155 0.9393983327647801 0.43957827010983214 1.2884632273892225 -0.161866197632455 -0.47979275560614065 0.6757949537517 1.1134870231079295 0.6450179691927971 0.8785298854488375 0.6224540665896865 -0.28180857028027784 -1.2489937631633798 -1.0438385637174146 -1.0284306526505844 0.9894041001537932 0.9980881202813301 -0.6024475273192635 0.7605559174988159 0.31423362216426587 1.0934626695656875 0.6936781488767392 -0.5458437781028104 -0.033593358428702126 1.1212581863970996 -1.1066171212472586 -0.9862385695819434 -0.16995773455641594 
-0.4820329683902853 0.8895391755631802 0.02135463017884927 1.1740862629553235 -1.009402854823016 -1.3392690293083753 1.234852472805776 0.997540664858907 0.7317000372604759 0.6657211672717547 -0.3016442055377468 1.3885610725529 -1.22151665378721 -0.19572780260178457 1.1043311688828665 0.5606283175750884 -0.6232494840283028 1.0542564128151366 0.5174882434591512 -0.055433969240342156 -0.6677651349125245 1.1530637307211435 0.6860835160043112 0.3788404854153545 -0.01455156818010597 -0.4620218248607573 0.13858592801947173 -1.3780397406187563 -1.3943277282959194 -0.42044077122652207 -1.3858021285187514 -0.8989677497840179 -0.4302253748408768 0.6541089067460651 0.4109025696561469 1.134274913446688 -1.4900599415527722 -0.23270867999480074 0.12905297219443032 0.09165547768808192 0.0959917384128929 -0.8396004797864268 0.5095008372542068 0.40025081482298686 0.5014925416945426 0.038950244106617994 0.44856165391914415 0.7581710183619312 0.06304915665363602 1.0938911135462024 1.109930530410988 -0.029058433645703652 -0.3035647071644113 -0.008473123640740708 -1.2222060471405232 0.9140427548871287 1.361393256140307 0.41322604340767904 -0.995010133351721 -0.918549327023586 0.05180597959053497 1.2494648257494474 0.6875248075436717 1.056590649328578 0.4944808652397026 -1.2643803723068552 -0.05562949142852492 1.2764383136129513 -1.0146398136320607 -0.08994978414427504 -0.9133488390948936 -0.9692918665790144 -0.8090681615431968 0.11212876110897954 0.6962483809795749 -1.2975716534504944 0.5444376788206616 1.1453048697259802 1.47874879510875 0.5534671751421897 -1.468591743497059 0.3322230056878553 -0.4628989543109589 -0.7572160793075862 0.8670415728858114 -1.1348319501275683 1.300258354892822 0.2113751811167547 -1.286213568410193 0.054874336576762474 -0.35429436351955623 -0.6427598469207233 1.00603634152442 0.13656684765885008 -0.6174338860740805 -1.288548756903605 -0.8829225351174405 0.48111132484624897 0.3338112050546699 1.3712127910031544 
1.2336169867656397 0.15114514097212292 1.3297827292294393 1.1190652105994507 -0.5507696814199149 -0.27964140234187457 -1.2081158711995799 -0.24524175484732297 0.25251985704360386 0.6130698312328157 -0.46261422247714057 1.2951114762614961 0.13944407742791684 1.0133830091007494 -1.0327871859818338 -1.0459291414634366 -0.12040441617855181 0.125963868612821 -0.8503402419036418 0.6093911313854021 -1.1213829245861446 -0.9809194198723379 0.6465866566880925 0.21936521818362964 1.3492096860092035 -0.255789802528837 -0.7838581488675062 1.260365258265866 0.8194314325007632 1.3723089325582314 -0.11703478768270387 -0.27066681477957305 1.4234887113754369 -1.3523291364372807 -1.4785657059588075 0.17685359023548283 -1.4377772075311468 -0.5472956210984876 -0.3331951298439626 1.0195348607602832 -0.7024664830625804 1.1384474090598582 -0.5541573936814371 0.2838266454127675 1.465649627932444 0.8182745809138822 -0.2517845053508668 1.2511144892285568 0.7374049470272586 -1.1805184430307667 -0.7810247275877608 0.4630522878336926 -0.6053445071293614 -0.028826489026734476 -0.3864012892443776 0.6863356608056923 -1.3614770276475328 -1.1608535566907037 0.855221799592676 0.5273412933215856 -0.8340951910224278 -1.4160525101691492 0.12788052745316875 -0.8315758375652907 -1.2022051937956049 0.9187807602051135 1.4090730517243872 -0.9153618590401748 -0.559498347885142 0.657906430530201 -0.4350510175428185 1.0135423022462962 -0.22596938960838128 0.9883695925843605 0.4683799327673794 1.1594767608968963 -1.3683059459138671 0.032434187914584314 -1.059722520300497 -0.7420785005206424 0.024589338906114956 0.9291197672513168 -0.20070360308920387 -0.21834591276715012 -1.0272857745797206 0.8640854720482878 1.4760072556654498 1.1762063344083649 -0.023402090603977445 -1.0984969029377365 -0.06086927159468452 1.1731015631624915 1.1138188477435207 -0.19257284161898552 1.2300980829053891 -1.339197059089449 1.1006191268566747 0.949634844080417 -1.1744414680144946 -1.2222573907415382 
-1.1829449110828008 -0.5957594294407409 -0.932498935972777 0.7608746676528503 -1.0144905112148304 -0.03666266562556125 -0.2732841845032975 0.9147797939378216 -0.6194487580718289 0.6380336835014119 -0.3276695487802285 0.5009387276661845 0.1599464734780587 0.35681859166330865 -0.4549059172748155 0.2671655844170208 0.12385972116741399 0.8755210340802201 -0.12648677786700935 0.9771483946935394 -1.3184750324934604 -0.22561988587250362 -1.4351779533820366 0.7205171772286342 -1.1560357155009024 0.4046168075428407 1.269379683227528 0.8547289324383397 0.6701341449963399 -1.0892551534987671 -1.3320433607682036 0.2875244636303057 0.4847164800078851 0.3151665714399313 -1.3982847222150347 0.19537965773134616 1.0053756731757484 0.14759381002026367 -0.2362061694726216 -1.2756867007430364 -0.17941429303634107 -0.13981480107036523 0.07489582132697743 0.23734274508681635 -0.5953887010404469 -1.4792873564580964 1.245905820498152 -0.10472220755970232 0.3305535929525013 0.954709724848961 -1.140130874621616 -0.6721013324916291 -0.02630118966495041 -0.6161340637607698 -0.7156729253404139 0.2857895335383098 -0.4006323791057175 -0.36601604843611096 -1.0425557677105148 -0.7869138141299123 -0.6372760761425357 -1.1505169506084814 0.5040135479214015 1.3303527068014955 -0.36090632729309713 1.0629611106310726 0.9138714044463759 1.4417548869842522 -0.8962146522273569 1.385799229014618 1.3501771244939966 -0.2849466864372874 1.0724430967773628 -0.2690372739090056 1.2121169513699115 0.6127538212391015 0.6402665609149614 0.7804167935263279 1.3252496978213881 0.6881619094403535 -0.8863702383136001 -0.7211309007813622 -0.9199420581406084 0.5483517132433088 -1.0377236259837754 0.03323767394013829 0.4256592313482754 0.9488255302681512 -1.0235028222082274 0.31434138272076784 0.46740553402533735 -1.0438500814528522 1.2558715002909164 0.7735187275851574 -1.068327358638969 -0.2778595372794886 0.5954877625912176 -1.3226721807624755 -0.9581558063829506 0.5071632753677183 
0.8154989443655702 0.5155245486876573 0.5059545062575642 1.1304889901638655 -0.46113345875349904 -0.7481570743036616 0.45193051175168175 0.3867979183838658 -0.049960277809719074 -1.2691475307724622 1.169147641673511 -1.1140516831762313 -0.2084294221016216 -0.5355659235991115 -0.2610838943499468 -1.1301116195109318 -1.2567980676052828 0.644077736695537 0.3558110369854501 1.1550149217793118 0.11819204361123607 -0.3090383677091619 -0.12909925465226513 -0.24992824368204156 -0.044978125983821116 0.001101417178493042 -0.14963608755608265 0.6087967230750915 -0.5266863442496286 -0.4983142694005899 1.273360493540636 1.0517883565843325 -0.2979114352584727 0.3982427590226795 0.9654329992321421 0.45767562735705314 -1.0563973081946731 -0.5887826288296051 1.0322963546731088 0.4917599479698262 -0.18016808147704125 0.9775025954529648 1.0220400223792288 -0.03757231139040143 -0.14434810638249887 1.3631668210789751 1.3475021408092835 -0.3318153455923971 -0.9684983052198165 1.4386084737699139 0.24538601609398397 0.5101644950587827 0.8229331323420719 -0.6345823206586189 -0.8957626183667239 0.2610964452646604 -0.11293325321042436 -1.326840919495333 1.125941513333577 0.3207422307033316 0.5423694088684752 0.0909098132474678 -0.2802906862769042 -1.3085765460396692 -0.9909615878041292 -1.3949220225514787 0.624117625253305 1.4241137196982931 -0.8097587059151737 -0.16966496043034662 0.7841713199537713 -1.4916500727612656 -0.756443587557792 -1.0945891361175555 0.8897145785175473 -1.489868405490953 0.41264899063792837 -1.283846696917514 0.18824504129264377 0.03756068541843729 0.7083194224191542 0.6975271746375339 1.165570950207458 -1.391644470377366 -0.974474521855658 0.8259046245421551 -0.7570524050361483 0.11205660297283318 -0.9120221091596283 0.5051872752944769 1.4058768987936219 1.0257102869477992 0.40066471715852153 -1.485462091502969 -0.35020874004826197 -0.8630789458088196 0.05327346830443299 0.9778894983166222 -0.528603101841254 -0.5951305419768792 
0.9297001511174533 -0.7603747721842254 0.18176046893931797 -1.4404249257020991 -0.5296800978558993 -0.8945680532922367 -1.106055734244406 0.684086500981948 1.011482106022333 -1.3320149471251037 -1.3886599467704226 -0.3756506479702297 -0.9761726255948711 1.1015574524004852 -0.9586387744283176 0.5847693086606939 -0.6434619671441176 -1.0960699417676454 0.7851940229514541 0.1360899478140591 -0.17591525173998518 0.0020709340638685654 0.5159312005330977 -0.8208167946761861 -0.24865020049322628 0.9318855246887596 -1.2958246943587413 1.137324411371662 0.23647484629864945 -0.22269056926535996 -0.4784586472952117 0.9358118173638774 -1.1998955694093982 -0.27676787732229347 -1.2688560389408083 1.1532253664158019 -1.492593964451045 -0.4782384037556172 -0.2326866194119308 -0.5176210563791143 1.4565734363611769 -0.24295703147187028 0.9018049953172634 0.38118363589464915 -1.5009733310887403 -1.1815845313999211 1.3599934436668082 -0.9447433405480528 -0.7537837165251537 -0.3283927549687022 -0.6763700410545163 -0.21167776838166125 -0.7966040048122888 -0.47024494407076967 0.3954123993745829 -1.2882078578637361 1.1649600227239907 1.308043163553124 -0.4208330216223156 1.0578441548779909 0.9098971437688421 0.8044722695684597 -0.6448240195235146 -1.3147874152601973 -0.4676439100065475 -0.37601807686124844 1.4015179367034094 -0.10562104520654489 1.466681071396841 -0.5944092376234317 -0.40500767126488924 -1.0657187002159703 1.3349301208306088 0.9071791083483336 1.1498521177710734 1.1682599891566845 -1.2640219360146319 0.34033451473655235 -0.39178832550272813 -0.5600754420595115 -0.06474675234960378 0.3988144395878675 -0.3566813903860055 -1.2597711762951216 1.11294128209878 0.11895121082386735 1.351994465612533 0.8054765968897368 1.3406510818667055 1.4127147452581836 -0.23796557908707924 1.2464831880379967 1.0132468195479887 -0.05529117516816948 1.423312647264675 1.3629823991991619 -1.2081613753858473 -0.6774525546480797 -1.470660745831588 -0.38451814617409097 
-1.4356955501062518 0.9662814020845327 -1.2060902894155519 -0.2813911452817351 0.23399763889485553 -0.9382029442495358 -1.4290709446343433 -1.083697575744932 -1.1766623096392197 1.227727588406117 -0.4636989596276421 0.48307648447064677 0.15840365465500278 0.15709134640523065 0.6397236329854876 -0.8718525693579662 -0.753027157355763 -0.9271342127038494 1.2901751446921697 0.7831389962849179 -0.8191364672053862 1.2225002022759348 -0.0808608608197791 1.2115026187104398 0.3209571018817014 -0.07039037353690403 -0.7737917584832023 1.3549085755513244 0.6948042131327727 -1.3960376214419663 0.7139399028336209 -0.3996910400568064 0.8618790304301148 -0.15875046591020847 0.4925420081299005 0.7254889635026414 -1.2675249839610676 -0.42929677521736326 -1.0200505977515475 -0.37221597561214426 -0.450268540135232 1.3138239836510182 0.9950914833072195 -0.2587832707520876 -0.5271080544583528 -0.9142021294075446 -1.0071347090782656 -0.7191544173924831 -0.3191972952944811 0.1339668328628855 -0.6252256154646592 0.2913027856483158 -1.110019677018555 -0.7573616138597208 0.7998019137729058 -1.4773184100032846 0.6741653331190489 0.2966235857659785 0.973780069253461 0.028639677168482983 -0.877406617295475 1.0022544840640697 -0.670158787099322 1.2928017707951014 -1.1921677540385116 0.22475141878488614 0.9222040659410283 1.479180368043734 0.16839052710150296 0.3426125512028685 1.483320912746287 0.27706975434693665 0.4207859100754827 -0.0818558299297776 -0.22788180083181125 -0.09854607072270276 -0.36785346442652284 1.4681167876687309 -0.42499067512892563 0.6231787873372493 -0.6548787206525641 0.6807001632631401 0.08850980727967638 -0.41132031232925403 1.369352153573761 -0.5230149511727183 1.4406094224723776 -0.7195694655077586 -1.2978723045439133 0.586817530994157 0.28001458309718635 0.8150556406923006 -1.167706846465487 0.5540565938487226 -0.20526263984042728 -1.0970128071528447 -0.38759966147743813 0.8567204375477032 1.2919062308516316 -0.9906159322126569 
1.1751132974646334 0.7246942647058836 1.4502030404269013 1.1556918605551687 0.34789617549870155 0.6934088354390154 -1.1115474742017122 0.6638755735343083 0.34102245053360825 -1.314688408060597 -0.31710675034966845 0.051556049242885274 1.1899603084563142 0.4562280164008432 0.1164897988356296 -0.4647998280126664 -0.28252618057168677 1.3309317154058107 0.4033300561447873 -0.20733372523787344 0.3864973243639541 0.9826208499468606 -1.4726060168751927 0.10250009481282199 1.175010970344573 -0.21124441726863863 -1.2709321426641174 0.7738659999672869 -0.8448859658901141 -0.38099682296664084 -0.3475505611066026 0.7350367401966451 0.8268042327475674 -0.8116928425441283 -0.1590275514551646 1.146028922318388 -0.909820667422314 -0.7570113856906913 0.0258230317807595 0.4572024652977782 -0.9792287069446333 0.6461545568142292 0.8432223803307919 1.0761140792719937 -0.011138908046898582 -0.8471244507398288 -0.006626110765426481 0.9752104502715213 -0.728605125544152 -1.0594580393763509 1.364730292217877 1.4033997755848222 0.6042297423321625 0.8359839376872836 0.738841036872202 -0.1378367661495888 -0.20915690073304716 0.8970694289874365 0.5678288190226043 0.3983338529935095 -0.18858015498708078 -0.9047213041166997 1.376837714186064 -1.008641865810643 -1.291942561386689 0.6786783177495318 -1.4223354521661684 -0.12965916915223985 -0.4749880495501272 1.4797649887953561 1.2093456747454319 -0.935013491625953 0.26652592636564604 -0.7860239963436525 0.6193058172762558 -1.133676535458365 -0.8805666372608949 0.6579810019520203 1.4777779567490958 -0.5273250657503737 -0.44524303805226517 -0.42504987683397283 1.1641019825403636 -0.460502902901712 -0.993398122007989 0.8766919056663968 0.7475830104099502 -0.14977342725688453 0.8028745780305866 1.1628245384060698 -0.75991509858382 -0.7716425188077507 -0.9764409285001381 0.5331044604240629 0.40088848138656474 0.2612997703659429 -0.3117317932671377 0.8229440868004403 -0.6150713563413512 0.26256803002840734 
-1.384363394320944 0.730664276038512 -1.275487410856456 0.6829061042945445 -0.9933682652238804 1.2793302326128206 -0.12871494630674732 -1.1442818179648608 0.8874964932164157 0.2353989155781533 -0.2464498891958327 1.2994059084545084 0.8973360139492939 0.6619106888745723 -0.3468861308310993 0.39749548654324074 -1.0171708518472204 0.300253365512887 -0.5998206836863242 -0.04332684538812297 -1.149127006163172 0.8019319021170881 -0.5098298684991864 0.2777404199079217 -0.515635905901395 -0.9300642464555291 0.34296504765895075 1.3057517760354513 1.3630760283432437 0.7402151634374928 0.6228510350276574 0.2250268935287886 0.053136886403088654 0.6418837564918449 1.4318153710062131 -0.08603444149481648 0.4160514344515346 -0.4151057707705052 -0.8394968150984055 0.1743894919065879 0.6840313315736367 -0.8252596910352735 0.2043519873388507 1.3462727452136702 -0.2753962885922191 0.5081420631823448 1.3109578964505906 -0.9224825076815888 1.1721249317775644 0.34583456512838767 0.12593364172439994 -0.19548954696590595 -0.898772585682297 -0.2776363972058337 -0.2747579772527556 -0.525865732393447 -0.6928366708885256 0.10415014854945724 0.0947872372169568 -1.1076925280735919 0.3159966682261838 -1.1761494366507426 0.7365115700405117 -0.22215546261371902 0.7783007295442137 -0.25733575195499686 1.0981999793764328 -1.3631696800968272 -1.3484270267812337 1.3137599504923312 1.3974233422990363 0.9951439795830618 -0.06003851635947141 -0.5619615152703836 0.1887816536833484 0.878952511082631 -0.20148484228978228 0.8047567414395448 -0.4123491254163539 0.9967578511394419 0.8787339945290359 -0.09109446035362216 -1.0548182840666853 -0.511585332888503 0.594446503971446 0.9407496872682283 0.15438394999929725 -1.4236250412243199 0.6831792323611225 0.9611229432930315 1.4619163619244222 0.32006953026071616 -0.8359256317796278 0.9252028543137354 -0.5357195177392114 0.10152986789208138 -0.7672284035705157 0.875839632842853 0.20790706791504646 -0.7035737248731068 
1.2927060409780227 0.40787863803459484 0.7200822475053547 1.308568911049139 -1.249599122134185 -1.054917116302087 1.2688696364664738 -1.1403859156832061 0.009066949361413864 1.0201673699752551 1.0743881673425164 -1.3747351706713096 1.1628446416637979 0.7781902171276396 -0.710063148026366 0.9860251882571338 -1.3214043523092862 -0.10100729520342193 -1.0473992401515437 1.2415979527066918 1.3834653289938141 -0.06183281839210845 -0.5415759736363601 -1.2576233477910803 -0.7882540945729829 -1.206740157056065 -0.07095800414039952 0.3410530776758482 1.2659747445381913 0.2276042273691517 -1.2356519192931485 -0.7266776069394908 0.45157554537329 -1.3068461904612099 -1.2111786370609403 0.6383063785539191 1.2562292044896513 -0.37057164915144153 -1.4170347960433753 -0.8988652700508525 1.0032749143710775 -0.7330053247010713 -0.7535316296552615 0.10500845854507121 -0.4065459890944961 -1.416642917285478 0.5878668508042095 1.0123369262873945 -0.010329043801224113 1.2510639335064948 -1.1917327287371506 0.34493282578843987 -0.7566537750696167 0.2902724420741019 0.12179143169475626 0.2411965193297121 0.09084482175347051 -0.33627104133586777 -0.8061557717462263 1.0619233091468407 -0.13320005611258517 1.3228203001442607 -0.2915825487143365 0.7652316389456295 -1.2442782283742446 0.6609798017941814 1.079783210642682 -0.3740909594338029 0.8536526583408796 1.232721448438538 0.4676348114392063 0.32760199007753366 0.6072994904808194 0.16983441447080144 0.207521320176328 -1.2739200159531103 -0.033263831614703886 -1.484050766013913 -0.4256510261974055 0.14627316686401634 -0.665181335323294 0.713039472140641 -1.1053270949256342 -0.5628790155915464 -0.02703158251469827 -0.1388208699464968 0.6166320964034171 0.45497618964442016 -0.11865102895920814 0.1515796624471751 0.8741618385839302 -0.5058310332040681 0.6768957103652765 -0.5643287281337034 0.09530621846811513 0.5353779161595762 0.0835039008163393 0.11773508048851797 -1.3333840158381631 -0.9570113882880121 
-0.9121515288018054 -1.1509929931169147 1.294040335474942 -1.3278868609160384 -1.0803351101531204 -0.6379233398656211 0.8857644549789656 -0.033325525885627406 0.5581254781300141 -1.0597991842568175 1.4310713879619232 0.2914724741286705 -0.7461280030369424 0.48640624793685644 -0.33859089058281494 -1.1310366765039448 -0.9383041967112409 -0.37766519223431555 -0.6235698817904508 1.3748385976744584 -0.9100847062827817 -0.4924917963838266 1.4000741532821444 0.5722169812185512 0.1153152894883503 0.23943307350474627 1.1546686082271793 1.4407583877971744 0.9255808933686157 0.43659480665799466 -1.0095464236933929 -0.12234737383757709 1.2539545188215595 -0.7343913045176766 -0.25854509860111263 0.10948917528307328 1.1615708596577097 -1.2260375322795438 1.3779234846905875 1.3681887774822932 1.223372014150348 -0.519765829348847 1.4986888379764538 0.011728349582699632 0.24140980043595736 1.455929836265942 -0.6136334491956773 0.3778143101215769 0.22859147251907092 0.6785575507962596 -1.3885304692340756 1.3747240923133726 -0.4040064452771218 -1.1815351913060228 0.7990628288021355 -1.2706345034086401 0.48536091547711396 -0.375421625222539 0.8151063841057103 0.6069244111914301 0.5923254046336321 -0.23820647906490763 0.24725114250423152 0.9336828706172096 0.8307149908968059 -1.0339627749697053 0.0551602730638777 0.7590594861872032 0.35802165065494274 -1.3670828919808649 -0.46406077871939794 0.3103009954733568 -0.7100642073652499 1.1078605382326945 0.9885961640052542 -0.27486460675874447 0.9258327290738075 -0.8858698546726735 0.45688319376011166 0.9157718187597338 -1.229632125081166 -0.6673982288320202 1.2523051630760607 1.3909690029566342 0.9348206860222975 0.8776434298301135 -0.22557462171363937 -0.7500736472476894 -1.435291676260423 0.7968727398110673 -0.71468018808638 -0.609784476250693 0.19251517736282947 0.654890918508099 -0.46640810011901845 0.3005627119841428 0.6929321514532978 -1.0049689096809296 -1.2025455827887606 0.6173251288091217 
-0.30648887174624223 -0.767345321251203 -1.222006997200637 -0.7679979504173822 1.1170515029553094 0.8486241804253759 -0.8504749087323158 1.463412215017699 -1.1986228168075945 1.3931746435404 1.477010671145697 -1.1576331800648276 -1.405761856500542 0.7316424770683212 -0.2892655133347994 -0.2357013608947965 0.6695787495288307 -1.0864431808453687 -0.19660875079039836 -1.2310935002285706 -0.9467055738347288 -1.2356288078373485 -0.716026515361889 -0.8636166999424014 -0.7681455499350585 -0.05516486302485147 -1.1264597465579387 0.5981364399638075 -1.060174423395158 -0.5674285650584425 -0.4135566226620578 0.3560690096103764 -0.4138411645710845 0.4910736952550598 1.324535660458291 -0.22040905022212623 1.4223777127403248 -0.692315743333511 -1.422392703194558 0.4678370397147462 0.7928499218274185 -1.028109393740597 -1.0512438287587929 0.9720880766312063 -0.08457577962613626 0.28147091987270667 1.3989209123817343 -0.4457794416759724 1.3122749841941512 -1.164375422135167 -1.3737637574313966 -0.9625868696558749 -1.0136698903490584 -1.2481364426003039 0.7947301136185667 0.6940048669019833 -0.8199697160701763 -0.22046230285619672 -0.2835962189255916 -0.12841426778414383 -0.4290754563208541 0.8132142355798466 1.4520705663838966 -1.3433322308190938 0.5915192062268384 -0.8265880939894749 -0.5712558682608184 0.831339258325676 -0.5904568022651182 -0.1301920622853675 -1.2236602834289219 -1.321989609114764 -1.3850037943459 -0.41685358409948037 -1.0462978338917335 0.49012969315158644 -0.10841235996862 -1.2088679552655635 0.980458595718787 -0.9361265025198675 0.13498887823958047 0.5129885690606121 1.152486621526107 0.8093158236967082 -0.5115060975732183 -0.7135193589059057 0.10306274674766448 1.4842874447847296 -1.458334777535204 -1.0686453195311858 1.482073586343816 1.272522222667972 -0.0648079822289223 -0.005098842999520136 -0.04888019852543186 -0.6184868808035674 1.0828203358643569 -1.0243108724991365 0.09514965791933333 -0.05324509012305546 
0.6284253829219724 -0.30256967171106514 -0.06995169171615875 0.6769505845370491 -1.1955203358045268 -0.06911510019125315 -0.7158879149753458 0.42997285446495337 -0.17230451040666944 0.5218478204830879 1.444651443551987 0.7749299955523699 0.6759338944505504 0.6321777067842013 1.191768826939932 1.42051743699153 0.6132409950672946 0.15285344976918872 0.8815661566377876 -0.27834409558415 0.758069485248201 -0.48969816033907 0.7607967606818568 -0.4702730952677832 -0.20502707463092354 -0.773628982345989 1.1621015287864243 -1.4546779679334965 -1.4547117195822832 0.21515928844431997 -0.21269977669925175 -1.1195903676082524 1.481503736916789 -0.49684874016066766 1.114399911485612 -1.4453224311247783 -0.49703864989467916 0.45036464937599796 -0.2705330356189369 -1.0155023725724057 1.2186407703504558 -0.28544281965811324 -0.24039448213049447 0.10267724377367586 0.9242677318568724 -0.6613814024460563 -0.058475307084635705 -1.2177730480280025 -0.2676956151799286 -1.144507593824972 -0.37020778612161165 -1.1038096928320693 -0.8974720796709604 -0.4056676894418354 0.038752867549338696 1.1940159547337488 -0.6330543026598727 0.409557099865118 0.15213196743684018 -1.0723324601819675 0.7228791381453963 -0.5286375917426895 -1.2475666011778717 0.6452144818777379 -1.3686908583729378 -1.0044290088354537 -0.5076919239319277 -0.3469432275843383 1.0849513408968023 -0.28815520194247596 0.5990703693347409 -0.27838532509217956 -0.4318448573432872 1.1163532355721513 0.5200844068109941 -0.968698595817557 0.36361770436014296 -1.4027530906647283 1.2069577425945892 -0.3239240104954849 -0.18229732792692616 0.10180557339644464 -1.4408159374284737 1.3811576246606871 0.8957873325902255 -1.4587848085085517 -0.2930819145866132 0.42429736294563475 0.8502753322548423 0.6438648474322382 -0.508742770586788 1.4753188694092436 -1.4630529620418227 -1.3281206146793265 1.1054046214357598 1.3911511257562648 -0.8898282718337304 -0.8227438316385149 -0.9969541578968819 0.7324345410332207 
-0.5571465374070497 -1.3554453768404395 -0.5357634134720154 1.2391968176687298 -0.10767984949068016 -0.8899862775658696 0.04558925961437031 -0.6879111788128072 -1.2759183450596876 1.4581473855733391 1.4440277774506973 1.3697363316843685 0.4139646899453107 -1.0913170596164832 1.2884628115664962 -0.2778695211885214 -1.1839745366209025 0.14302160037201378 -0.9003159260033754 0.9081846148792383 -1.1823558857325618 0.13658624714256318 1.420369041967101 0.4846545324198168 -0.3827482017208978 0.38124237049813725 0.792778639541448 1.1013170356106912 1.1175796496444659 -0.7430299616866209 -0.9624659879940829 -0.7906228772012631 0.9952043955381383 -0.47411122049771065 0.34202379311023257 -0.24523827175727997 -0.030041023963547693 -0.29409895936680636 -1.3562320342723553 -0.5093841309478317 1.438688499225837 -0.19441781189870072 1.3815838974851644 1.106547062121467 1.292303548824414 0.4341727137225564 0.3026095549289034 1.367746716614183 -0.24263832713191513 1.3283373325140004 -1.0771359744036448 -0.9121499953366675 -1.4406571063717184 -0.9358491041844859 0.5467710839059534 0.5764653699242206 -0.18631032727586078 0.2744445080332241 1.0269286861510087 -0.07811480912184478 -0.38120543297821924 0.5082531901162951 -1.2677144070766442 -1.0728136370042411 -0.4461770578505374 -0.35182948916376633 -0.14529475288523214 -1.438682217043185 1.4453580772737895 1.1519592163879635 1.0876952292635589 -1.1549632461560662 -1.0484423191034158 -0.8972149272894022 0.6372248924382263 0.4560636376726222 0.9635577813465244 -1.4301282866467697 1.1400376296077335 0.6639058040152657 0.5786260698962883 -0.1502340864980787 1.0971268430345966 1.4737711447973565 -1.222917448789649 1.096196303015916 -1.180824520370018 1.1890825542236143 0.187770665187848 -1.0873263913094744 -1.2296895062321858 1.283739808909905 -1.263488808512385 -1.4271191911282808 -0.9784692084082607 -1.2345050717750543 -1.1039312213069088 0.8325904804488637 0.8914048957285151 -0.07618135893744821 
0.572943360915211 -0.6179804618009824 0.34369340759887373 -1.2432446502134287 0.6886416790096982 -1.264329289845502 -1.214981218222161 1.2329759147182415 -1.0987114986505715 0.4241556721614715 -0.5945410519613926 -0.8011521035717766 0.548092406864719 -0.37731955499765596 0.4233529262323882 0.6561765473010109 -0.639025935718451 -0.22214149394405336 -0.46110831366237265 0.2258974801290985 0.8826368594311156 -1.1402173933230386 -0.12763892594773563 0.8016952931286846 0.7502948648285931 0.9743779514520329 -0.42804879458720074 0.04976456071437783 0.03800481012318782 -1.4392047621446515 0.25047453228636163 1.0165475817860552 0.6907812407979188 0.22199767266412243 0.7106852106157817 -0.9824910496247433 0.7658630935666512 0.23318050401305143 0.5874648947193486 -0.765220248416463 1.4611639171747615 0.288365549551459 0.3593625496447471 0.00852867364686952 -0.5319039049675108 -1.2378616841201149 1.0112926166197003 -0.25220161749463943 0.7163789419581417 1.4424712798369856 -0.24752716685080792 0.9956724031371069 -1.07402259649564 -0.22790208896909356 -1.2680642174270245 -0.029548162236329903 -0.9226922065496781 -0.20684380569309518 -0.8178926061753804 -0.40101426748911206 1.2987217890096057 -0.941516980771601 0.9024162604411832 -0.5596508915017328 -1.410835619514854 -0.7216324785820998 -0.046207901145740325 1.0099656844314353 -1.4133302478346996 1.086974329914727 0.44026092242231313 -0.08426421581764912 -1.3372030687186278 -0.4004106453316191 0.5038681591360333 -0.35279942089619687 -0.36037665174019484 -0.5981105779523951 0.4345686934083649 -0.8896511817813152 0.9838599478293661 1.1104231741698107 1.0686098858708677 -0.7519996886234731 1.3973966216283804 0.13131885823330008 1.2488534666989597 -0.619895012598347 -1.275622263166731 -0.3095891883254274 0.23854496036475076 -1.4302967098075665 -0.8368510715421067 0.802838288017075 1.0105066658117337 -0.4750429703614476 1.4979573690829393 -1.3330012860656832 -1.0659362624562199 -0.6859307149314788 
-0.9777230509188058 1.4218395644974269 1.0714263429457125 1.459155146766862 -1.372584834703098 0.5111858612846601 -0.3815475207560556 -1.1765684549056132 -0.4174920080284888 0.3935820234374379 -1.2857742162659147 1.4044590908614563 -0.0516216110135465 1.0753119316658564 0.28656402760810423 0.9019929984267333 0.6735141557614036 -0.1411694934913129 -0.21312252811502408 -0.9311238643253956 -1.3529090297608375 1.2141965463462792 -1.1789354803718401 0.06807732166570339 -1.2539840059256937 1.2698574629543387 -1.1634173161882013 1.4718819735659827 -0.1266424031368618 0.36487535496250095 0.21959427892987438 1.3781060559806777 1.37868833318985 -0.5797774917823515 -0.35400816032982135 -0.18822569142717677 -0.24354952573564764 0.31577189210037027 -1.0372386833233518 -1.1426240468070126 0.40087325455453127 -0.5074529751847459 -1.126203980509492 -0.478322149544769 0.6287516766280001 0.1282521855326768 -1.201596361476337 1.1974741888517113 1.2219565334520424 0.4339665169739432 0.5529812226393741 -0.8029520577931868 -0.9997692364449786 0.12796498516466603 -0.6696365746787203 -1.4255469950708475 1.2453884257702308 0.8242451851484236 1.1039279947267635 0.11369148514152369 0.9109155111454185 0.5180882579206822 1.3169872967891487 -0.26839179927108264 1.2257563103993858 -0.5691756690754277 -1.1275481362333288 0.581180255052318 -0.21071195617846672 1.4991808034058884 -0.3168121418689588 -0.9256532894923369 1.0427205789587042 -0.4613145449713128 -0.5021234358337474 1.371406002719975 -0.2669462311201862 -1.3903636055326325 0.7099886751432642 1.170467912798987 -0.7086889402866262 0.011962723548892135 0.3738827002534676 -1.207334586729901 -0.2155776126322513 -0.6557102587853184 0.41400101622794416 -0.1366842662432065 0.862397186058672 -1.045920549289206 -0.5722437312050114 -0.5163301486133103 -0.11813098626079306 -0.8472377891400734 0.6607651435212614 -0.9728881410211297 -1.1525607212838913 -0.08425203355541196 0.5975563235241979 1.3604820912829423 
-0.5242328785398429 -1.376144567837231 -0.5177699258591982 0.5765265915130477 0.19590765994867776 0.2500246983768808 -0.26105051926855105 1.2153609627317206 -0.18090004459705034 1.3288264966466592 -0.20669149520285357 0.3869550470794838 -0.7058802785375401 1.2477270810116456 0.2954976087488568 1.1994141634644695 0.5451790375985879 0.7857034114432642 -1.108675244671836 0.09108925342099394 0.6264792683158431 -0.1907602470517611 1.3653694335362765 1.1487920246740764 0.07795791809949115 -0.8501732655088787 1.487878865155556 -1.1014873948636206 -0.49924684424088417 0.029875021421368553 0.3881294769984127 -0.8735287835240346 0.9714965430465843 -1.0345189193422 -1.2630617031595222 -0.9157682088957116 -1.0161199019412495 -0.14524616729009798 -0.5502808135387632 -0.053743131843861924 1.1440294209640607 -0.0405646034446292 0.018940400831357174 -0.3783212160692351 0.8530503421285038 -1.2946766656113842 -1.0489496004398795 -1.0257884472288188 0.6857044771203027 0.6635232005036613 1.1179002363124413 1.175027562715369 -0.8814987231722167 0.7298361234483246 -0.8635989764477955 -0.6969305133372438 0.6735845021108835 -0.6063926952399397 1.162617311131858 1.4156676974122249 -0.5733769198581511 1.080136418246826 0.7277064529162369 1.1394813411051605 1.1775052577626655 -1.1377268987243303 1.4530757984404943 -0.6223199365179193 1.4019683388203283 0.36709572121995593 -0.3391587115408823 -1.00606868061219 0.39038476166870284 1.4525927599776125 1.0431304295642105 1.3171571056843785 -1.263240905511902 0.19704215978332051 -1.330015900518581 -0.9868280363935317 0.5665770758454789 0.9303054266656741 -1.2994262840239443 0.2902128079467112 -1.4135145927327835 -0.5584725641897491 -0.7838405877584947 0.5450197526247949 0.20186353384852795 1.1217568647584408 -0.38432327775726005 1.4145248105124044 -0.41981139964869607 -0.35722543471182977 1.0060510297267702 0.7753551002854664 0.6386767211429896 -0.1650583613279144 -1.0207022312372538 0.5292533619170272 
0.4977526826403666 -1.2958046954422784 1.1067076536906393 1.043473786646282 -0.965149908337303 0.049300944742734894 -0.7061068625976399 -1.2645585267481114 1.466695752152308 0.7890092325500054 0.3379485546904743 0.06223146151393747 0.3571232419857494 0.1634639023827802 -0.9071582497532921 0.9141632763316061 -0.8827075920454889 -0.9881179248641357 -1.3750279616216412 -0.5298420511112725 0.8581915992978701 -0.208064415858735 -0.7023176857228344 -1.4825681841907064 -0.8708037287043959 -0.5280362719076186 0.25330944019096857 -1.0051868104890445 1.2822110005899028 1.4407397485407645 -0.5442710385650589 -0.12315235464055338 1.3458677741114695 -0.47182839947216093 0.32471090349491255 -0.6008249206896119 0.4925044841413608 1.0952562417520675 -1.0868550117278388 -1.2092138990448036 -0.3081056743922537 -0.421533516510778 -1.0068420166519771 1.1128477214859784 -0.43319848434415936 0.33855018987573604 -0.07625769493839714 0.6709890905726852 -0.6187293162876683 -1.412980995110036 0.9594362416093685 -0.014221450923168606 -1.4740980592739992 -1.2235542285844474 -0.15932106744265986 0.9816991041607493 -1.250423574702178 0.1219195090939633 0.6266539509132647 -0.3687842852458531 -1.145876346875303 0.9612980736858064 1.019350650928235 0.761582439501112 -0.36292668319052646 -1.2041626151301297 -1.303969510853117 1.3400686287413353 -0.9606893171512604 0.5939715862015468 -0.7022655019867086 0.8865677115783422 1.313034048489068 -0.799325157843489 1.2240651253957473 -1.4244339741106633 0.5289926848759092 -0.7353639040418426 0.05806245859376265 0.9630048351484548 1.2543312343324717 -0.20483188228599947 0.21380695033015706 1.3584709809886326 0.5530275187356609 -0.24599569740036137 -0.153821147877302 0.06902305042603539 -1.431277299069417 1.3953503834202456 -0.3905257765407523 -0.6526302090396636 0.20399029778101024 -0.4160565296440577 -1.2738393843151594 -0.04372309595359874 0.24884193123613516 1.1516450566599428 -0.02803681560998292 0.889516983239992 
-0.48665941427465514 1.4919228886009879 -1.392666292183176 0.16626663188873347 1.361816421003642 0.12823600653151293 1.1698572845185615 -0.8969977254340031 0.3430490798979425 -1.0466135364967237 -0.515620096530987 -0.6901510820718988 0.1345529709678229 -0.9791556846057198 1.3067489017368255 0.1469889903536817 -0.6955609014848326 0.003481502742942976 -1.179346388378012 -0.39581321840410694 -0.13921902235546954 -0.560151800287031 1.0964081311467164 -0.5685620393257708 -0.8451031750036444 0.7999501986200629 1.355919173362302 -0.02923241705667321 0.3280425027032484 -1.0711452040397553 -0.20792962838619747 0.6366195784153305 -1.3831966739548964 0.7705620317691766 0.8002168245122545 0.693155897188068 0.5990592588762 -1.325761267141096 -0.4142396374180712 0.207278546731449 -1.228116543797226 -0.5413857374707046 -0.219312128938794 0.40554743457330394 -0.09327318591949228 1.329217793023708 -0.6178214179601853 -1.4724257805692311 0.3814877173122604 -0.8467936689349581 0.40145477161705867 0.7423145234625715 -1.2570108354420475 -1.332145158035081 -0.07779992428336703 0.3409260461353987 1.350306061436527 -0.021748036099162052 0.6971351062364329 0.9741834291586287 0.25584520747708017 0.11574591908033853 -0.17672522931580809 1.1044368610099666 0.11674820537801774 1.2014767829569413 -0.3622471920670352 -0.5015010209165616 0.9238395548125578 0.7728022294349389 -0.7961995411673084 -1.2180419650699155 0.8663891117623108 -0.2935764966489553 -0.42799673888485795 1.0612476800821007 -1.1106998303135156 -0.8570517507776303 -1.1580822371852075 -1.1175301422474078 0.7244149918054772 0.9928019492678682 1.0636324316864794 -0.09450948047778206 1.218467955797643 0.390937051541481 0.6650597799522225 -0.19998839838573726 -1.3885549839018296 -0.7964945254162206 -1.131035623938938 -0.4956965886120164 0.37631180356742805 -0.2722844396937815 -1.3431194435709646 -0.04428416073484947 0.8171883033842231 -0.03980805891137357 -0.8062881298263742 1.0711083419742906 
-1.484310044421204 0.48255417712874155 1.2736354419097022 0.07678872134311453 -0.7203525896757057 -1.0225853208127744 -0.5454567136405386 -0.28133651217550393 0.2959262171554257 -0.17770025990013508 0.19902230193987872 -1.2719110735722332 0.38527207568385285 0.8801714003092753 0.6319891051042594 -0.6315734762169397 0.2923540903018378 1.2865026938093154 0.5336758069495031 1.06402087550502 1.1214935668579546 -1.4799033790208114 0.3034272723287656 -0.016956170668463052 1.340503174533281 0.42989241757670815 -1.4188531456857012 0.9907687218142145 1.1214746876537174 -1.1524180401447646 -0.6626546579843998 -0.09808494699346389 -1.376128293602594 1.2984634573131626 -0.43496565339043003 0.5988344292835406 -0.6606694350842388 -0.8695955832008688 -0.9541247981138865 0.7922509533254307 -0.43843819670039846 -0.2754919934964752 -0.4837120256762579 -1.4784338474252614 -0.02504877068852221 0.8962095047272799 -1.4534314921694307 0.3206322119197041 -1.3558564386011511 1.410745422798801 0.5716128369868715 0.41960212735633334 -1.4064829242040082 0.09303221887391529 1.2536291872786385 -0.032401611025580195 -0.571033779476093 0.32898463428493796 0.8353706641847737 -0.20504985705555254 1.466672118099401 0.4689991097621105 -0.15891545288237774 -0.4340875559483657 1.2477160967525223 -0.876384523497345 -0.6674826454930811 -1.1246209827937337 -0.06578011069260309 -1.3942182290967917 0.2939931626545889 -1.0901989925017372 -0.5513439200985925 1.2534908666110178 0.8287289230302584 1.3223923292182769 -0.9336962221368028 -1.2564320507743172 -0.13431272032014205 0.16850445772921932 -0.8073244997061517 1.1935768851512945 -0.6698995445910527 -0.1674393289341235 -0.22463948204592452 1.0491699284681235 -1.423788178307786 -0.018187214474065776 0.3663894022326548 0.03025368339773021 -1.0995866156319203 0.16580944158920574 -0.47702768132323436 -1.1631419424968183 -0.7537085632869506 -0.3506346313113457 -0.45914899692490996 -0.8971597368688108 0.7974771033057373 0.6669881593197892 
-0.8870581840070697 -0.8540664587644273 0.02064591035077215 -0.3940200518487998 -1.170654762506116 0.556940620220954 -0.9622901613291269 1.0235961334355417 1.134811503147389 -1.4556117599598855 1.08830106707793 -0.8191557106263154 -0.6513369096007758 -0.9045091442591523 -0.6554035465547444 -0.7438526570214021 1.037252134122456 -0.8284944660006641 -1.4307260567220195 -0.5185607898969978 0.986614546206291 1.0998774155017856 -0.5505699616656315 1.3480192327067428 0.00467983169799785 1.2015940123335007 0.604324415758459 1.4666331276850164 -0.12133301672849277 0.06264708283470118 -1.40177399770351 1.224404682216052 0.3500013282419879 1.3253882769360428 0.860196958508594 -1.057980159637779 0.2245255744037214 -0.022950465348139416 -0.0709249505260715 1.4120445170044975 1.3465453335626776 1.119080093101362 0.5604967242014056 -0.9818121053638521 0.9210506745235918 -1.0437337809835014 -0.6260317704420366 1.403920869249937 0.512543626791233 -0.8754686656477749 0.16203353592196637 -0.9117948331690912 -1.1421584809270575 -0.549361137264757 -1.171941230233876 1.0013282211459815 1.4589816480330056 -0.9371641919515066 -0.2996936439597638 -0.5767932379756153 0.7437936759156845 0.913146838641213 -0.13315602384286873 1.0988772654432202 -1.3033432779594412 0.742586715366988 -0.790237020448885 -0.012759507955492131 0.1592773072516198 0.2637160233538816 1.4585684988115268 0.12937644320607739 -0.8643145434158316 1.2547794111650612 0.8672195898518683 -0.8898694461959398 -0.009687927038077391 0.12549189514786907 -0.6301109301513081 -0.21565073240444174 1.1309472316202904 -1.3277373777225703 -0.4512282795054796 0.9503603759961016 -0.7354511026747829 0.38575843140031546 -0.203592041346907 -1.24674768634429 -1.4493365293360718 0.4532976435411094 1.3117701547676128 0.16912343590505957 -0.6030164498683205 1.4585988482861714 1.0644812745370182 -1.2215542415724425 0.6447867080915327 0.07077427549612395 0.6763332408817293 -0.24996263469434601 
1.2353350928164084 -0.4808197861107267 0.24744007946162322 0.08310019635940512 -0.5442332081356143 0.6195930090612286 -0.30564349533901825 -0.39236246970351535 1.324621082739247 0.47401928206870825 0.2689769330371219 0.05186459355551626 -0.661814273520699 -0.44505808189801926 -1.3650109447990375 0.7630256365763197 -0.7401442814615198 -1.4663149725007714 1.348661334292673 0.8811383320415145 0.20370546229037673 -0.3889832263434234 0.12689287574753386 0.5377111355452248 -0.8413138192050231 1.4612705689451613 -1.3103314060587736 -0.871000251111894 -0.3276793611714316 0.7194536903134784 0.495384651883261 1.1639961440402213 0.8576450423907719 -1.055803438409801 -1.494431608937673 0.784019884761641 -0.21719217270059094 0.4356564101372078 -0.18369627542489256 -0.8417171065080465 0.6276583707473607 -0.1058075238810566 1.366788975735614 0.2622489006975817 1.4871355570212659 1.051356240141686 -0.7539076164217803 1.2800397823192458 -0.7230476452033845 0.2756333319611749 -1.1387197086099625 1.2658123974123665 0.6831179834407439 -1.4132892724013675 1.1952129529171405 -0.7477261732617566 -0.3340170308131021 -0.14703912874815117 0.4719705197428997 1.474141544509385 0.5930151667599152 1.4479125309283731 0.5769010220447554 -1.4090310299276547 -1.134606155893776 0.25074821851490986 -0.05522251036939545 -0.4496327340407332 -1.0459575018445841 0.9075929896248305 1.3542760461128336 -0.4079884219098719 0.5902605923523442 -1.2117892290939312 -1.3196435434620524 -1.0330757266112487 -0.8592195266966558 0.3316995343558755 1.064826551611788 0.04099015527389334 0.6289106355536973 -0.8135265563346328 -0.29933422938163134 -0.5297112717323187 -0.947239458671731 -0.48686497573298876 -0.35706762995011304 0.1873591614081901 -0.3756254625576636 1.2643798366150638 -1.4011222801166834 0.4684142581195009 -0.30430556355369226 0.4067895604106615 0.30837940210963577 0.20435808057553975 -0.15136142638607455 0.9301706523029531 0.19324482668304105 -0.8469500201284031 
0.6868998205592284 1.3868516434759868 1.2285183113632603 -0.9548518227829105 0.6095607319901732 0.18853565594766547 -1.2254122129685343 0.8832717363789524 -0.9973339995460845 -0.31305907025349206 0.3934370222291392 1.4601654544962126 0.7002269206074776 0.13637235638875683 0.6357515055956064 1.483187390260427 -1.305097075602332 0.7442524195556185 -0.5540014433432026 -1.2398363285621146 0.41868609078558944 -1.11041187976849 0.6036850783034469 -0.24694126830599114 -1.502591115596964 1.4089235249562753 0.2350322024934529 0.1350181230189104 1.1765994112252953 -0.8672764249124184 -0.8151481679212859 -1.4798104859520664 -0.21127858515180287 1.3377335719667862 -0.9355809151076884 1.0196738546746995 -0.7431037794629032 0.6757112923086777 0.728280639751772 -0.611725828007053 -0.3942166220490743 -0.7524826156307962 1.4943524945788171 -0.2066594901045315 0.804611660769211 -0.9358424601741867 -0.9829543435072743 -0.06410620080496669 1.3898805476484772 -0.4840314381107102 0.5644993471277111 -1.380598203817641 -1.333368652391154 0.32658577086112794 0.7816382261344736 -0.6163579413782132 0.46785931568211425 -0.6338329114696962 0.21705476387640102 -0.7285849009954083 -0.19022577536518687 -0.49585652909571293 -0.8267257652776194 -1.032620427966004 -0.7350703766091858 -1.0321895025035708 1.0656469181529773 0.30489788552514413 0.5958867380839153 -3.005256617194971E-4 -0.6566593231261159 -1.0735988667936516 -1.158991313747872 -0.31099405458336654 -1.0771533693208952 -1.0478819144444198 -0.04756261907256548 -0.44773955406918675 -1.3181954507421456 0.5691712830361356 -0.7140830075902376 -1.4107823939008903 -1.4893885990292643 -0.5639683244865136 0.1413853240144518 0.06099432555180471 0.8830007396915748 -1.1898527968258668 -0.7551885215320577 0.034216604688500664 -1.3703262169159416 -0.14711657679442935 -0.08935546697530787 1.4381030658888516 0.5039002586519249 -0.7116171255978027 1.0760139133551037 -0.28590681613578345 0.4007947722573655 -0.6582275851740444 
0.15518521554703021 -0.5242751291159002 -1.4094942819925902 -1.1515320212907612 -0.8554567094694252 -0.4193751578483339 -0.6760893684992997 -0.10704737138043963 1.261946303971689 0.2749246965415789 -1.3142688569237553 1.023272969634181 0.5533891114762377 -1.4035452424214943 -0.26976831914159155 0.3575512316826705 -1.2378759829018406 0.8264290828003789 0.8403534607901266 0.9831210872029769 0.7261027917917889 1.0982872572152491 1.2178840487120046 0.8429884882031055 0.06247294572013463 0.5745025869497083 1.2625075343853047 0.6264680497594729 0.6634873742641264 1.3441462220735751 0.5604573032252547 -1.3510578858077198 -1.379407466603721 1.1652490425044406 1.4612585864157182 -0.8096110009432275 1.4320546345250098 -0.4973705003072986 -0.6392513332802583 0.8278670030507888 1.104675021939934 0.9347715876974352 0.6114257897029001 0.5310574457376321 -1.267722945115947 0.007120682080779811 -1.2478005930156997 0.9639701679808463 1.1408068937672462 -0.5215019305412861 -0.11522887933580672 -1.2338496392974316 1.0785031102928075 1.2313361338572297 0.482787589271272 0.07735070287178082 -0.5358447060605644 -0.5529598715255839 0.4018702110326974 -0.007654467948275099 0.21583206253860462 1.0086047763397878 0.3402087760248552 -0.23531171963983585 1.3995262184578812 -1.271652729373622 0.8230412927973327 1.316293781687319 -0.10556272158906627 0.9057215854702164 -0.09577269192698834 1.3553150404253798 0.10840671490415561 0.19017264128936612 -1.1279729492767572 1.4499337749858605 -0.06808131929372042 -0.06522027099180236 1.0614262365188918 0.4304053903472716 1.0231517632761007 0.8686145236366893 1.0766740317494934 1.4405904643052376 1.1368859499444277 0.7956258952484675 1.3390320585518778 -0.038648525577827865 -1.3837862946317996 1.4549444585428764 -1.0903976275355718 -0.4248437214643798 -1.2477285440721815 -0.2878340703811469 0.5811028101028582 0.06338527374832954 0.8618571239629291 -0.8735971667782443 0.7695997950076704 -0.0017062463975253213 
1.4231414659363553 -0.28450756266331156 0.4318159209579239 1.0130291864250525 -0.1892734400626313 0.2103700457871938 1.4698770188833208 -0.63103120562246 -0.2555489073149243 -1.1983072073772494 -1.1997454951543154 0.05003199097409296 -0.5826663205035527 -0.6081902442606031 -1.3431861855754952 -1.1087329632902094 0.8614235323627065 0.4245268922589983 -1.181841539705778 -0.7051048011572557 0.8756565038244545 -0.8393745955639844 -1.3662738925420483 -1.1673029640014274 0.8072751108079581 -0.9673198065161286 -0.21160421992417652 0.34327619330361236 1.3201389358477476 -0.059630557572476546 -0.05169126283205762 0.5623041244405005 0.7891491813885895 -1.2645946279627178 -0.13790953286000227 -1.2208217300883493 0.0720441159278026 0.03594932952697178 0.9071503261399724 1.0414161847611254 -0.15740327586585426 1.4936530794171319 1.044099084736691 0.641666395396005 1.3741799262345076 0.18600700201465722 -0.8351685470773723 1.2560692470504589 0.353045457803611 0.11121319597013586 -0.8526208420748953 0.40448334167741146 -0.0572376578716892 -0.42832516182374575 -1.3654539824773813 -0.6327025197879017 -0.9020255095236144 0.9913101247010718 -0.7759735205121723 1.0616449098877143 -0.22745860116096245 0.6464027789294777 -0.48837540376574223 0.5506087166989864 -1.340416753544518 -0.2842558105745048 1.371884193201722 -0.5691471430818326 0.31383642348259266 -1.3679621669610038 -0.6707165785309551 1.2280229330422625 1.4559272049224623 -1.4954185545259178 -0.9253085779840664 0.8010862556198578 -1.2702475935495863 -0.849227271030105 1.2806604793452858 -1.1668955355057171 -1.2373856059884725 -0.6933889633985917 -0.7492051633439578 -0.6350167987399696 0.720692525571658 -0.9498092832376411 -1.190445148126479 1.32258760658749 -0.3193051540627262 0.2288772466473895 0.04641851776240199 -0.6332132651045584 0.45167410450731993 -0.6986007330986372 -0.17358140279656423 -0.7458627735710298 -0.6777179411365903 -0.7221387123743261 -0.2833404356727751 -0.6532970358645526 
1.449599186109742 -1.2755535216140537 -1.0970875704993874 -1.0243964404467543 -0.507477269319248 -1.2801409354614868 1.1099789960929216 -1.2735514878937035 1.407469071408723 -0.1673030139048589 0.49531502365227864 0.3093714624059064 -0.11124502187026539 0.6796622538103734 0.07119077524507907 0.9108966461261936 -0.7545553938150018 1.1346464384764556 0.5771797572445697 0.9547500276432157 -0.03649719654685726 0.5387493401887893 1.102866531669773 -1.0941250611496416 -0.019099277916906313 -0.5157195448701823 1.0605668300687943 -0.9792427551926223 0.12424294606597262 0.4488286105473888 -0.47327356729171216 0.36617272985324384 -0.49794376284639413 -0.5805420588067733 -1.386440536592821 -0.16937400400797606 1.4166871409345192 -0.02352529944125103 -0.8234833003038086 0.8694143218849084 0.5329743323526328 0.7978257942558363 0.35418956746039293 -0.11136476963960076 0.43486587975358765 -0.4596076043500696 -0.3452600162784578 0.7901213738285665 -0.8312416094933983 -1.1735849076750393 -0.09100969070756697 0.45886181533644393 0.6737792600148949 -0.6441176897931661 0.24864002835295335 -0.5816128462053848 0.5086418029395773 -0.62194541998588 1.246352352320015 1.209688499956142 -0.31243427346717173 1.1550338530433635 1.2273970727093464 0.17688349392881508 1.1038952780204248 1.4892871025759389 1.055154267397204 0.9237580260822161 -1.0315712614581467 -0.6460651028738701 -0.7671615488732753 1.4985902176783275 1.3637053865359268 -1.0034744878020443 0.7004984900550306 -0.7361480850240404 0.19700934743694012 1.0746536227142038 -1.0373906069161973 -0.594275170647502 -0.8616987216287536 -0.08279070743511856 -1.193011237108297 0.9216203171429715 0.18154423913210957 -0.1020748124833656 -0.049506608591131596 -1.1437762049406 -0.6677804780668417 0.1780575119469391 1.3862800805740059 -0.06036430084510644 0.9261341792984356 1.1315747057291832 -0.28346581254819947 -1.43873613602748 0.6860240798915342 -1.4826124865551602 -1.2839580486840643 0.48264890426712603 
